SVM-light Version V6.02
2 # kernel type
3 # kernel parameter -d 
0.005 # kernel parameter -g 
1 # kernel parameter -s 
1 # kernel parameter -r 
empty# kernel parameter -u 
400 # highest feature index 
2063 # number of training documents 
1305 # number of support vectors plus 1 
0.4161326 # threshold b, each following line is a SV (starting with alpha*y)
-0.55409701479181117100836218014592 1:0 2:0 3:0 4:0 5:11.111 6:0 7:0 8:0 9:0 10:0 11:0 12:0 13:0 14:0 15:0 16:0 17:11.111 18:0 19:0 20:0 21:0 22:0 23:0 24:0 25:0 26:0 27:0 28:0 29:0 30:0 31:0 32:0 33:0 34:0 35:0 36:0 37:0 38:0 39:0 40:0 41:0 42:0 43:0 44:0 45:0 46:0 47:0 48:0 49:0 50:0 51:0 52:0 53:0 54:0 55:0 56:0 57:0 58:0 59:0 60:0 61:0 62:0 63:11.111 64:0 65:0 66:0 67:0 68:0 69:0 70:0 71:0 72:0 73:0 74:0 75:0 76:0 77:0 78:0 79:0 80:0 81:0 82:0 83:0 84:0 85:0 86:0 87:0 88:0 89:0 90:0 91:0 92:0 93:0 94:11.111 95:0 96:0 97:0 98:0 99:0 100:0 101:0 102:0 103:0 104:0 105:0 106:0 107:0 108:0 109:0 110:0 111:0 112:0 113:0 114:0 115:0 116:0 117:0 118:0 119:0 120:0 121:0 122:0 123:0 124:0 125:0 126:0 127:0 128:0 129:0 130:0 131:0 132:0 133:0 134:0 135:0 136:0 137:0 138:0 139:0 140:0 141:0 142:0 143:0 144:0 145:0 146:0 147:0 148:0 149:0 150:0 151:0 152:0 153:11.111 154:0 155:0 156:0 157:0 158:0 159:0 160:0 161:0 162:0 163:0 164:0 165:0 166:0 167:0 168:0 169:0 170:0 171:0 172:0 173:0 174:0 175:0 176:0 177:0 178:0 179:0 180:0 181:0 182:0 183:0 184:0 185:0 186:0 187:0 188:0 189:0 190:0 191:0 192:0 193:0 194:0 195:0 196:0 197:0 198:0 199:0 200:0 201:0 202:0 203:0 204:0 205:0 206:0 207:0 208:0 209:0 210:0 211:0 212:0 213:0 214:0 215:0 216:0 217:0 218:0 219:0 220:0 221:0 222:0 223:0 224:0 225:0 226:0 227:0 228:0 229:0 230:0 231:0 232:0 233:0 234:0 235:0 236:0 237:0 238:0 239:0 240:0 241:0 242:0 243:0 244:0 245:0 246:0 247:0 248:0 249:0 250:0 251:0 252:0 253:0 254:0 255:11.111 256:0 257:0 258:0 259:0 260:0 261:0 262:0 263:0 264:0 265:0 266:0 267:0 268:11.111 269:0 270:0 271:0 272:0 273:0 274:0 275:0 276:0 277:0 278:0 279:0 280:0 281:0 282:0 283:0 284:11.111 285:0 286:0 287:0 288:0 289:0 290:0 291:0 292:0 293:0 294:0 295:0 296:0 297:0 298:0 299:0 300:0 301:0 302:0 303:0 304:0 305:0 306:0 307:0 308:0 309:0 310:0 311:0 312:0 313:0 314:0 315:0 316:0 317:0 318:0 319:0 320:0 321:11.111 322:0 323:0 324:0 325:0 326:0 327:0 328:0 329:0 330:0 331:0 332:0 333:0 334:0 335:0 336:0 337:0 338:0 339:0 340:0 341:0 342:0 343:0 344:0 345:0 346:0 347:0 348:0 349:0 350:0 351:0 352:0 353:0 354:0 355:0 356:0 357:0 358:0 359:0 360:0 361:0 362:0 363:0 364:0 365:0 366:0 367:0 368:0 369:0 370:0 371:0 372:0 373:0 374:0 375:0 376:0 377:0 378:0 379:0 380:0 381:0 382:0 383:0 384:0 385:0 386:0 387:0 388:0 389:0 390:0 391:0 392:0 393:0 394:0 395:0 396:0 397:0 398:0 399:0 400:0 #
-7 1:0.80299997 2:0 3:0 4:0.40200001 5:0.40200001 6:0.40200001 7:0 8:0 9:0 10:0.40200001 11:0.40200001 12:0.40200001 13:0.40200001 14:0 15:0.40200001 16:0.40200001 17:0.40200001 18:0 19:0 20:0 21:0 22:0.40200001 23:0 24:0 25:0 26:0.80299997 27:0.40200001 28:0 29:0.40200001 30:0.40200001 31:0 32:0.80299997 33:1.6059999 34:0.80299997 35:0 36:0 37:0.80299997 38:0.40200001 39:0 40:0 41:0.40200001 42:0.40200001 43:0.40200001 44:0 45:0.40200001 46:0.80299997 47:0 48:0.40200001 49:0 50:0.40200001 51:0 52:0 53:0.40200001 54:0 55:0 56:0 57:0 58:0 59:0 60:0.40200001 61:0 62:0.80299997 63:0 64:0 65:0 66:0 67:0 68:0 69:0 70:0 71:0.40200001 72:0 73:0 74:0 75:0.40200001 76:0 77:0.40200001 78:0.80299997 79:0 80:0.40200001 81:0 82:0.40200001 83:0.40200001 84:0.40200001 85:0.80299997 86:0.80299997 87:0 88:0 89:0.40200001 90:0.40200001 91:0 92:0.40200001 93:0.40200001 94:0 95:0 96:0.40200001 97:0.40200001 98:0.40200001 99:0.80299997 100:0 101:0.40200001 102:0.40200001 103:0.40200001 104:0.40200001 105:0.40200001 106:2.0079999 107:0 108:0 109:0.80299997 110:0 111:0 112:0 113:1.6059999 114:0.80299997 115:1.205 116:0.80299997 117:0.40200001 118:0.80299997 119:0.80299997 120:0 121:0 122:0 123:0 124:0 125:0 126:0 127:0 128:0 129:0 130:0.40200001 131:0 132:0.80299997 133:0.40200001 134:0 135:0 136:0 137:0 138:0 139:0 140:0 141:0 142:0 143:0.40200001 144:0 145:0 146:0.40200001 147:0 148:0 149:0 150:0 151:0 152:0.40200001 153:0.40200001 154:0.40200001 155:0 156:0.40200001 157:0 158:0 159:0.40200001 160:0 161:0 162:0.40200001 163:0 164:0 165:0 166:0.40200001 167:0 168:0 169:0 170:0 171:0.40200001 172:0 173:0.40200001 174:0.40200001 175:0 176:0 177:0 178:0.40200001 179:0 180:0 181:0.80299997 182:0 183:0.40200001 184:1.6059999 185:0 186:0 187:0 188:0 189:0 190:0.40200001 191:0 192:0.40200001 193:0 194:0 195:0.40200001 196:0.40200001 197:0.40200001 198:0.40200001 199:0 200:0 201:0.40200001 202:0 203:0 204:0 205:0.40200001 206:0 207:0 208:0 209:0 210:0 211:0 212:0 213:0.40200001 214:0 215:0 216:0.80299997 217:0 218:0 219:0 220:0 221:0.40200001 222:0.80299997 223:0 224:0.40200001 225:0.80299997 226:0.40200001 227:0 228:0.40200001 229:0 230:0.40200001 231:0 232:0.80299997 233:0.80299997 234:0.40200001 235:0 236:0 237:0.40200001 238:0 239:0 240:0.40200001 241:0 242:0.80299997 243:0.40200001 244:0 245:0 246:2.0079999 247:0 248:1.205 249:0 250:0.40200001 251:0.40200001 252:0.40200001 253:0.40200001 254:0.40200001 255:0 256:0 257:1.6059999 258:0 259:0 260:0.80299997 261:0 262:0.40200001 263:0.40200001 264:0 265:0.40200001 266:0.40200001 267:0 268:0 269:0 270:0 271:0 272:0 273:0 274:0.40200001 275:0.40200001 276:0.80299997 277:0.40200001 278:0 279:0 280:0.40200001 281:0 282:0.40200001 283:0 284:0 285:0.40200001 286:0.40200001 287:0 288:0.40200001 289:0 290:0.40200001 291:0 292:0 293:0.40200001 294:0 295:0.40200001 296:0 297:0.40200001 298:0.40200001 299:0 300:0 301:0 302:0 303:0 304:0 305:0.40200001 306:0.40200001 307:0.40200001 308:0 309:0 310:0.40200001 311:0 312:0.40200001 313:0 314:0 315:0.40200001 316:0 317:1.205 318:0.40200001 319:0.80299997 320:0.40200001 321:0 322:0.80299997 323:0.80299997 324:0 325:0.80299997 326:0.40200001 327:0.40200001 328:0 329:0.40200001 330:0.80299997 331:0 332:1.6059999 333:0.40200001 334:0.40200001 335:0 336:0.80299997 337:1.6059999 338:0.40200001 339:0 340:0.40200001 341:0.80299997 342:0 343:0 344:0 345:0.80299997 346:0 347:0.40200001 348:0.40200001 349:0 350:0.40200001 351:0.40200001 352:0 353:0.40200001 354:0 355:0 356:0 357:0.40200001 358:0 359:0.40200001 360:0 361:0.80299997 362:0.40200001 363:0.40200001 364:0 365:0.40200001 366:0.80299997 367:0 368:0 369:0 370:0 371:0 372:0 373:0 374:0 375:0 376:0 377:0.40200001 378:0 379:0.40200001 380:0 381:0.40200001 382:0.40200001 383:0 384:0 385:0 386:0.40200001 387:0 388:0 389:0.40200001 390:0 391:0 392:0 393:0.40200001 394:0 395:0 396:0.40200001 397:0.80299997 398:0 399:0 400:0 #
-4.7608135587494988527623718255199 1:1.984 2:0 3:0.39700001 4:0 5:0.79400003 6:0.39700001 7:0 8:0.79400003 9:0 10:0.39700001 11:0 12:1.1900001 13:0.39700001 14:0.39700001 15:0.39700001 16:0 17:0.79400003 18:0.79400003 19:0 20:0 21:0 22:0.39700001 23:0 24:0 25:0.39700001 26:0.79400003 27:0 28:0 29:0 30:0 31:0 32:0 33:0.39700001 34:0 35:0 36:0 37:0 38:0.39700001 39:0 40:0.39700001 41:1.1900001 42:0.39700001 43:0.39700001 44:0 45:0 46:0.39700001 47:0 48:0 49:0 50:0.79400003 51:0 52:0.39700001 53:0 54:0.79400003 55:0.79400003 56:0 57:0.39700001 58:0.39700001 59:0 60:0 61:0 62:0.39700001 63:0.39700001 64:0 65:0.39700001 66:0 67:0 68:0.39700001 69:0.39700001 70:0.39700001 71:0.39700001 72:0.39700001 73:0.39700001 74:0 75:0 76:0 77:0.39700001 78:0 79:0 80:0 81:0 82:0.39700001 83:0 84:0 85:0.79400003 86:0.79400003 87:0 88:0.39700001 89:0.39700001 90:0.79400003 91:0 92:0.39700001 93:0.39700001 94:0 95:0 96:0.39700001 97:0.39700001 98:0.39700001 99:0.39700001 100:0.39700001 101:0 102:0 103:0.39700001 104:0.39700001 105:0.79400003 106:1.1900001 107:0 108:1.1900001 109:0 110:0 111:0.79400003 112:0 113:0.39700001 114:1.1900001 115:1.587 116:1.587 117:0.79400003 118:0.39700001 119:0 120:1.1900001 121:0 122:0 123:0.39700001 124:0.39700001 125:0 126:0 127:0 128:0 129:0 130:0 131:0 132:0 133:0 134:0 135:0 136:0 137:0 138:0 139:0 140:0 141:0.79400003 142:0 143:0 144:0.39700001 145:0 146:1.984 147:0 148:0.79400003 149:0 150:0 151:0 152:0.39700001 153:0 154:0.39700001 155:0 156:0.39700001 157:0.39700001 158:0.39700001 159:0.39700001 160:0 161:0.39700001 162:0 163:0 164:0.39700001 165:0 166:0 167:0 168:0 169:0 170:0 171:0 172:0.39700001 173:0.39700001 174:0 175:0 176:0 177:0.39700001 178:0 179:0 180:0 181:0.39700001 182:0 183:0.39700001 184:0 185:1.1900001 186:0.39700001 187:0 188:0 189:0.39700001 190:0 191:0 192:0.39700001 193:0 194:0 195:0 196:0.39700001 197:0.79400003 198:0.39700001 199:0 200:0 201:0.39700001 202:0 203:0 204:0.39700001 205:0 206:0 207:0 208:0 209:0 210:0.79400003 211:0 212:0 213:0 214:0 215:0 216:0 217:0.39700001 218:0 219:0 220:0 221:0 222:0 223:1.1900001 224:0.39700001 225:0.39700001 226:0.79400003 227:0 228:0.39700001 229:0.39700001 230:0.39700001 231:0 232:0.79400003 233:0.39700001 234:0.39700001 235:1.1900001 236:0.39700001 237:0 238:0.39700001 239:0 240:0.39700001 241:0.39700001 242:0 243:0.39700001 244:0 245:0.39700001 246:1.1900001 247:0 248:0.39700001 249:0 250:0 251:0.39700001 252:0 253:0 254:0.39700001 255:0 256:0.79400003 257:0 258:0 259:0 260:0 261:0.39700001 262:0 263:0.39700001 264:0.39700001 265:0 266:0.79400003 267:0 268:0 269:0 270:0.39700001 271:0 272:0.39700001 273:0 274:0 275:0.39700001 276:0.39700001 277:0.39700001 278:0 279:0 280:0 281:0 282:0.39700001 283:0 284:0 285:0 286:0.39700001 287:0 288:0.39700001 289:0.39700001 290:0 291:0 292:1.587 293:0 294:0.39700001 295:0.79400003 296:0 297:0 298:0.39700001 299:0.39700001 300:0.79400003 301:0.79400003 302:0 303:0.79400003 304:0 305:0.79400003 306:0.39700001 307:0.79400003 308:0.39700001 309:0 310:0.79400003 311:0 312:0 313:0.39700001 314:0 315:0 316:0.39700001 317:0 318:0 319:0 320:0 321:1.1900001 322:0 323:0.39700001 324:0 325:0 326:1.587 327:0 328:0.39700001 329:0 330:0 331:0 332:0.79400003 333:0.79400003 334:0 335:0 336:0.79400003 337:0.79400003 338:0 339:0 340:0.39700001 341:0.79400003 342:0 343:0 344:0.39700001 345:0.39700001 346:0 347:0 348:0.79400003 349:0 350:0 351:0 352:0.39700001 353:0.39700001 354:0 355:0.39700001 356:0 357:0.39700001 358:0 359:0 360:0 361:0 362:0 363:0 364:0 365:0.39700001 366:0 367:0 368:0 369:0 370:0 371:0.39700001 372:0 373:0 374:0 375:0 376:0 377:0.39700001 378:0 379:0 380:0 381:0 382:0.79400003 383:0.39700001 384:0.39700001 385:0 386:0.79400003 387:0 388:0 389:0 390:0 391:0 392:0.39700001 393:0 394:0 395:0.39700001 396:0 397:0.39700001 398:0 399:0 400:0.79400003 #
0.46548968686826697194192092865705 1:0 2:0.41 3:0.41 4:0.41 5:0.41 6:0.41 7:0 8:0.81999999 9:0 10:0.41 11:0 12:0.81999999 13:0.41 14:0 15:0 16:0 17:0.41 18:0 19:0 20:0.41 21:0 22:0.81999999 23:0.41 24:0.41 25:0 26:0.81999999 27:0.41 28:0.41 29:1.23 30:0.41 31:0 32:0 33:1.23 34:0 35:0.81999999 36:0 37:0.41 38:0 39:0 40:0 41:0 42:0 43:0.41 44:0.41 45:0 46:0.81999999 47:0 48:0 49:0.41 50:0.41 51:0.41 52:0 53:0 54:0 55:0.41 56:0.41 57:0.41 58:0.41 59:0 60:0 61:0.41 62:0.41 63:0 64:0 65:0 66:0.41 67:0 68:0 69:0 70:0 71:0.41 72:0.41 73:0.41 74:0.41 75:0 76:0.41 77:0 78:0.41 79:0 80:0 81:0.41 82:0.41 83:0.81999999 84:0 85:0 86:0 87:0.41 88:0 89:0.41 90:0.81999999 91:0 92:0.41 93:0 94:0 95:0 96:0.41 97:0 98:0 99:0 100:0.41 101:0.41 102:0.81999999 103:0.41 104:0.81999999 105:0.81999999 106:2.4590001 107:0 108:0.41 109:0.81999999 110:0.41 111:0 112:0.41 113:0 114:1.23 115:0.81999999 116:0.41 117:0.41 118:0.81999999 119:0 120:0 121:0 122:0 123:0 124:0 125:0.81999999 126:0 127:0 128:0.41 129:0 130:0.41 131:0 132:0 133:0 134:0 135:0 136:0 137:0 138:0 139:0 140:0 141:0 142:0.81999999 143:0.41 144:0 145:0.41 146:0 147:0.41 148:0 149:0 150:1.23 151:0 152:0 153:0 154:0.41 155:0 156:0.41 157:0 158:0 159:0.81999999 160:0 161:0.81999999 162:0.41 163:0 164:0.81999999 165:0 166:0.41 167:0 168:0 169:0 170:0 171:0 172:0 173:0.81999999 174:0 175:0 176:0.81999999 177:0.41 178:0 179:0.41 180:0.41 181:0.41 182:0.41 183:0.41 184:0.41 185:1.23 186:1.23 187:0.41 188:0.41 189:0.41 190:0.41 191:0 192:0.41 193:0.41 194:0.41 195:0 196:0.41 197:0 198:1.23 199:0 200:0.41 201:0 202:0 203:0 204:0 205:0 206:0 207:0 208:0 209:0.41 210:0 211:0 212:0 213:0.81999999 214:0 215:0 216:0 217:0.41 218:0.41 219:0 220:0 221:0 222:1.23 223:0 224:0 225:0 226:0.41 227:0 228:0.41 229:0 230:0.81999999 231:0 232:0.41 233:0.41 234:0 235:0 236:0 237:0 238:0 239:0 240:0 241:0.41 242:0 243:0.41 244:0 245:0 246:0.41 247:0 248:0.41 249:1.6390001 250:0.41 251:0 252:0 253:0.81999999 254:0 255:0.41 256:0.41 257:0.41 258:0.81999999 259:0 260:0 261:0 262:0.41 263:0 264:0 265:0 266:0 267:0 268:0 269:0 270:0.41 271:0.41 272:0.41 273:0 274:0 275:0 276:0.41 277:0.41 278:0.41 279:0 280:0.41 281:0.41 282:0 283:0 284:0 285:0 286:0.41 287:0 288:0.41 289:0 290:0 291:0 292:0 293:0 294:0.41 295:0 296:0 297:0 298:0.41 299:0 300:0.41 301:0.81999999 302:0 303:0 304:0 305:0 306:0.81999999 307:0 308:0.81999999 309:0 310:0.81999999 311:0.41 312:0 313:0.81999999 314:0 315:0 316:1.6390001 317:0.81999999 318:0 319:0 320:0.81999999 321:0 322:0.81999999 323:0 324:0 325:0.41 326:1.23 327:0 328:0 329:0 330:0.81999999 331:0 332:0 333:0 334:0.41 335:0 336:0.41 337:0.41 338:0.81999999 339:0 340:0 341:0.41 342:0 343:0.41 344:0.41 345:0.41 346:1.23 347:0 348:0.41 349:0.41 350:0.41 351:0 352:0.41 353:0 354:0 355:0 356:0.81999999 357:0.41 358:0.81999999 359:0 360:0 361:0 362:0 363:0 364:0 365:0 366:0.41 367:0 368:0 369:0 370:0 371:0 372:0 373:0.41 374:0 375:0 376:0.41 377:0 378:0 379:0 380:0 381:0.81999999 382:0.41 383:0.41 384:0 385:0 386:0 387:0 388:0 389:0 390:0.81999999 391:0 392:0 393:0 394:0 395:0 396:0.41 397:0.41 398:0 399:0 400:0 #
-0.58844747927132501352787130599609 1:0 2:0 3:0 4:0 5:0 6:0 7:0 8:0 9:0 10:0 11:0 12:0 13:0 14:0 15:0 16:0 17:0 18:0 19:0 20:0 21:0 22:0 23:0 24:0 25:0 26:0 27:0 28:0 29:0 30:0 31:0 32:0 33:0 34:0 35:0 36:0 37:0 38:0 39:0 40:0 41:0 42:0 43:0 44:0 45:0 46:0 47:0 48:0 49:0 50:0 51:0 52:0 53:0 54:0 55:0 56:0 57:0 58:0 59:0 60:0 61:0 62:0 63:0 64:0 65:0 66:0 67:12.5 68:0 69:0 70:0 71:0 72:0 73:0 74:0 75:0 76:0 77:0 78:0 79:0 80:0 81:0 82:0 83:0 84:0 85:0 86:0 87:0 88:0 89:0 90:0 91:0 92:0 93:0 94:0 95:0 96:0 97:0 98:0 99:0 100:0 101:0 102:0 103:0 104:0 105:0 106:0 107:0 108:0 109:0 110:0 111:0 112:0 113:12.5 114:0 115:0 116:0 117:0 118:0 119:0 120:0 121:0 122:0 123:0 124:0 125:0 126:0 127:0 128:0 129:12.5 130:0 131:0 132:0 133:0 134:0 135:0 136:0 137:0 138:0 139:0 140:0 141:0 142:0 143:0 144:0 145:0 146:0 147:0 148:0 149:0 150:0 151:0 152:0 153:0 154:0 155:0 156:0 157:0 158:0 159:0 160:0 161:0 162:0 163:0 164:0 165:0 166:0 167:0 168:0 169:0 170:12.5 171:0 172:0 173:0 174:0 175:0 176:0 177:0 178:0 179:0 180:0 181:0 182:0 183:0 184:0 185:12.5 186:0 187:0 188:0 189:0 190:0 191:0 192:0 193:0 194:0 195:0 196:0 197:0 198:0 199:0 200:0 201:0 202:0 203:0 204:0 205:0 206:0 207:0 208:0 209:0 210:0 211:0 212:0 213:0 214:0 215:0 216:0 217:0 218:0 219:0 220:0 221:0 222:0 223:0 224:0 225:0 226:0 227:0 228:0 229:0 230:0 231:0 232:0 233:0 234:0 235:0 236:0 237:0 238:0 239:0 240:0 241:0 242:0 243:0 244:12.5 245:0 246:0 247:0 248:0 249:0 250:0 251:0 252:0 253:12.5 254:0 255:0 256:0 257:0 258:0 259:0 260:0 261:0 262:0 263:0 264:0 265:0 266:0 267:0 268:0 269:0 270:0 271:0 272:0 273:0 274:0 275:0 276:0 277:0 278:0 279:0 280:0 281:0 282:0 283:0 284:0 285:0 286:0 287:0 288:0 289:0 290:0 291:0 292:0 293:0 294:0 295:0 296:0 297:0 298:0 299:0 300:0 301:0 302:0 303:0 304:0 305:0 306:12.5 307:0 308:0 309:0 310:0 311:0 312:0 313:0 314:0 315:0 316:0 317:0 318:0 319:0 320:0 321:0 322:0 323:0 324:0 325:0 326:0 327:0 328:0 329:0 330:0 331:0 332:0 333:0 334:0 335:0 336:0 337:0 338:0 339:0 340:0 341:0 342:0 343:0 344:0 345:0 346:0 347:0 348:0 349:0 350:0 351:0 352:0 353:0 354:0 355:0 356:0 357:0 358:0 359:0 360:0 361:0 362:0 363:0 364:0 365:0 366:0 367:0 368:0 369:0 370:0 371:0 372:0 373:0 374:0 375:0 376:0 377:0 378:0 379:0 380:0 381:0 382:0 383:0 384:0 385:0 386:0 387:0 388:0 389:0 390:0 391:0 392:0 393:0 394:0 395:0 396:0 397:0 398:0 399:0 400:0 #
1.4165205894591716972996664480888 1:14.286 2:0 3:0 4:0 5:0 6:14.286 7:0 8:0 9:0 10:0 11:0 12:0 13:0 14:0 15:0 16:0 17:0 18:0 19:0 20:0 21:0 22:0 23:0 24:0 25:0 26:0 27:0 28:0 29:0 30:0 31:0 32:0 33:0 34:0 35:0 36:0 37:0 38:0 39:0 40:0 41:0 42:0 43:0 44:0 45:0 46:0 47:0 48:0 49:0 50:0 51:0 52:0 53:0 54:0 55:0 56:0 57:0 58:0 59:0 60:0 61:0 62:0 63:0 64:0 65:0 66:0 67:0 68:0 69:0 70:0 71:0 72:0 73:0 74:0 75:0 76:0 77:0 78:0 79:0 80:0 81:0 82:0 83:0 84:0 85:0 86:0 87:0 88:0 89:0 90:0 91:0 92:0 93:0 94:0 95:0 96:0 97:0 98:0 99:0 100:0 101:0 102:0 103:0 104:0 105:0 106:0 107:0 108:0 109:0 110:14.286 111:0 112:0 113:0 114:0 115:0 116:0 117:0 118:0 119:0 120:0 121:0 122:0 123:0 124:0 125:0 126:0 127:0 128:0 129:0 130:0 131:0 132:0 133:0 134:0 135:0 136:0 137:0 138:0 139:0 140:0 141:14.286 142:0 143:0 144:0 145:0 146:0 147:0 148:0 149:0 150:0 151:0 152:0 153:0 154:0 155:0 156:0 157:0 158:0 159:0 160:0 161:0 162:0 163:0 164:0 165:0 166:0 167:0 168:0 169:0 170:0 171:0 172:0 173:0 174:0 175:0 176:0 177:0 178:0 179:0 180:0 181:0 182:0 183:0 184:0 185:0 186:0 187:0 188:14.286 189:0 190:0 191:0 192:0 193:0 194:0 195:0 196:0 197:0 198:0 199:0 200:0 201:0 202:0 203:0 204:0 205:0 206:0 207:0 208:0 209:0 210:0 211:0 212:0 213:0 214:0 215:0 216:0 217:0 218:0 219:0 220:0 221:0 222:0 223:0 224:0 225:0 226:0 227:0 228:0 229:0 230:0 231:0 232:0 233:0 234:0 235:0 236:0 237:0 238:0 239:0 240:0 241:0 242:0 243:0 244:0 245:0 246:0 247:0 248:0 249:0 250:0 251:0 252:0 253:0 254:0 255:0 256:0 257:0 258:0 259:14.286 260:0 261:0 262:0 263:0 264:0 265:0 266:0 267:0 268:0 269:0 270:0 271:0 272:0 273:0 274:0 275:0 276:0 277:0 278:0 279:0 280:0 281:0 282:0 283:0 284:0 285:0 286:0 287:0 288:0 289:0 290:0 291:0 292:0 293:0 294:0 295:0 296:0 297:0 298:0 299:0 300:0 301:0 302:0 303:0 304:0 305:0 306:0 307:0 308:0 309:0 310:0 311:0 312:0 313:0 314:0 315:0 316:0 317:0 318:0 319:0 320:0 321:0 322:0 323:0 324:0 325:0 326:0 327:0 328:0 329:0 330:0 331:0 332:0 333:0 334:0 335:0 336:0 337:0 338:0 339:0 340:0 341:0 342:0 343:0 344:0 345:0 346:0 347:0 348:0 349:0 350:0 351:0 352:0 353:0 354:0 355:0 356:0 357:0 358:0 359:0 360:0 361:0 362:0 363:0 364:0 365:0 366:0 367:0 368:0 369:0 370:14.286 371:0 372:0 373:0 374:0 375:0 376:0 377:0 378:0 379:0 380:0 381:0 382:0 383:0 384:0 385:0 386:0 387:0 388:0 389:0 390:0 391:0 392:0 393:0 394:0 395:0 396:0 397:0 398:0 399:0 400:0 #
0.17506330415819787438280741298513 1:3.448 2:0 3:0 4:0 5:0 6:0 7:0 8:3.448 9:0 10:0 11:0 12:0 13:0 14:0 15:0 16:0 17:0 18:0 19:0 20:0 21:0 22:0 23:0 24:0 25:0 26:3.448 27:0 28:0 29:0 30:0 31:0 32:0 33:0 34:0 35:0 36:6.8969998 37:0 38:6.8969998 39:0 40:3.448 41:0 42:0 43:0 44:0 45:0 46:0 47:0 48:0 49:0 50:0 51:0 52:0 53:0 54:0 55:0 56:0 57:0 58:0 59:0 60:0 61:0 62:0 63:0 64:0 65:0 66:0 67:0 68:0 69:0 70:0 71:0 72:0 73:0 74:0 75:0 76:3.448 77:0 78:0 79:0 80:0 81:0 82:0 83:0 84:0 85:0 86:0 87:0 88:0 89:0 90:0 91:0 92:0 93:0 94:0 95:0 96:0 97:0 98:0 99:0 100:0 101:0 102:6.8969998 103:0 104:3.448 105:0 106:0 107:0 108:3.448 109:0 110:0 111:0 112:0 113:0 114:0 115:0 116:0 117:0 118:0 119:0 120:0 121:0 122:0 123:0 124:0 125:0 126:0 127:0 128:0 129:0 130:0 131:0 132:0 133:0 134:0 135:0 136:0 137:0 138:0 139:0 140:0 141:0 142:3.448 143:0 144:0 145:0 146:6.8969998 147:0 148:0 149:0 150:0 151:0 152:0 153:3.448 154:0 155:0 156:0 157:0 158:0 159:0 160:0 161:0 162:0 163:0 164:0 165:0 166:0 167:0 168:3.448 169:0 170:0 171:0 172:0 173:0 174:0 175:0 176:0 177:0 178:0 179:0 180:0 181:0 182:0 183:0 184:0 185:0 186:0 187:0 188:0 189:0 190:0 191:0 192:0 193:0 194:0 195:0 196:0 197:0 198:0 199:0 200:0 201:0 202:0 203:0 204:0 205:0 206:0 207:0 208:0 209:0 210:0 211:0 212:0 213:0 214:0 215:0 216:0 217:0 218:0 219:0 220:0 221:0 222:0 223:0 224:0 225:0 226:0 227:0 228:0 229:3.448 230:0 231:0 232:0 233:0 234:0 235:0 236:0 237:0 238:0 239:0 240:0 241:0 242:3.448 243:0 244:0 245:0 246:0 247:0 248:0 249:0 250:0 251:0 252:0 253:0 254:0 255:0 256:0 257:0 258:0 259:0 260:0 261:0 262:0 263:0 264:0 265:0 266:0 267:0 268:0 269:0 270:0 271:0 272:0 273:0 274:0 275:0 276:0 277:0 278:0 279:0 280:0 281:0 282:0 283:0 284:0 285:0 286:0 287:0 288:0 289:0 290:0 291:0 292:3.448 293:0 294:0 295:0 296:0 297:0 298:0 299:0 300:0 301:3.448 302:6.8969998 303:0 304:0 305:0 306:0 307:0 308:0 309:0 310:0 311:0 312:3.448 313:0 314:0 315:0 316:0 317:0 318:0 319:0 320:0 321:0 322:0 323:0 324:0 325:0 326:0 327:0 328:0 329:0 330:0 331:0 332:0 333:0 334:0 335:0 336:0 337:0 338:0 339:0 340:0 341:0 342:0 343:0 344:0 345:0 346:0 347:0 348:0 349:0 350:0 351:0 352:0 353:0 354:0 355:0 356:3.448 357:0 358:0 359:3.448 360:0 361:0 362:0 363:0 364:0 365:0 366:0 367:0 368:3.448 369:0 370:0 371:0 372:0 373:0 374:0 375:0 376:0 377:0 378:0 379:0 380:0 381:0 382:0 383:0 384:0 385:0 386:0 387:0 388:0 389:0 390:0 391:0 392:0 393:0 394:0 395:3.448 396:0 397:0 398:0 399:0 400:0 #
1.6757764206424718977928023377899 1:0.99000001 2:0 3:0 4:0 5:0.99000001 6:0 7:0 8:0 9:0 10:3.96 11:0 12:0 13:0 14:0 15:0 16:0.99000001 17:0 18:0 19:0 20:0 21:0 22:0 23:0 24:0 25:0.99000001 26:0.99000001 27:0 28:0.99000001 29:0.99000001 30:0 31:0 32:0 33:0 34:0 35:0 36:0.99000001 37:0 38:0 39:0 40:0.99000001 41:0.99000001 42:0 43:0 44:0 45:0 46:0 47:0 48:0 49:0 50:0 51:0 52:0.99000001 53:0 54:0 55:0 56:0 57:1.98 58:0.99000001 59:0 60:0 61:0 62:0 63:0.99000001 64:0.99000001 65:0 66:0 67:0 68:0 69:0.99000001 70:0.99000001 71:0 72:0 73:0 74:0 75:0 76:0.99000001 77:0 78:0 79:0 80:0 81:0.99000001 82:0 83:0.99000001 84:0.99000001 85:0.99000001 86:0 87:0 88:0 89:0 90:0 91:0 92:0.99000001 93:1.98 94:0 95:0 96:0 97:0 98:0 99:0 100:0 101:0 102:0.99000001 103:0 104:0.99000001 105:0 106:0.99000001 107:0 108:0.99000001 109:0 110:0 111:0 112:1.98 113:0 114:0 115:0 116:0 117:0 118:0 119:0 120:0 121:0 122:0 123:0 124:0 125:0 126:0 127:0 128:0 129:0 130:0 131:0 132:0 133:0 134:0 135:0 136:0 137:0.99000001 138:0 139:0 140:0 141:0 142:0 143:0 144:0.99000001 145:0.99000001 146:0 147:0 148:0 149:0 150:0 151:0.99000001 152:0 153:0.99000001 154:0 155:0 156:0.99000001 157:0.99000001 158:0 159:0 160:0 161:0 162:0 163:1.98 164:0 165:0 166:0 167:0 168:0 169:0.99000001 170:0 171:0 172:0.99000001 173:0 174:0 175:0 176:0 177:2.97 178:0 179:0 180:0 181:0.99000001 182:0.99000001 183:0 184:0.99000001 185:0 186:0 187:0 188:0.99000001 189:1.98 190:0.99000001 191:0.99000001 192:0 193:0.99000001 194:0 195:0 196:0.99000001 197:0 198:1.98 199:0 200:0 201:0 202:0 203:0 204:0 205:0 206:0 207:0 208:0 209:0 210:1.98 211:0 212:0 213:0 214:0 215:0 216:0.99000001 217:0 218:0 219:0 220:0 221:0 222:0 223:0 224:0 225:0.99000001 226:0.99000001 227:0 228:1.98 229:0 230:0.99000001 231:0 232:0 233:0.99000001 234:0 235:0 236:1.98 237:0 238:0 239:0 240:0 241:0.99000001 242:1.98 243:0 244:0 245:0 246:0.99000001 247:0 248:0 249:0 250:0.99000001 251:0 252:0 253:0 254:0 255:0.99000001 256:0 257:0 258:0 259:0 260:0 261:0 262:0 263:0 264:0 265:0 266:0 267:0 268:0 269:0 270:0 271:0 272:0 273:0 274:0 275:0 276:0 277:0 278:0 279:0 280:0 281:0 282:0 283:0 284:0 285:0 286:0.99000001 287:0 288:0 289:0 290:0 291:0 292:0 293:0 294:0 295:0 296:0 297:0 298:0 299:0 300:0 301:0.99000001 302:1.98 303:0.99000001 304:0 305:0.99000001 306:0 307:0.99000001 308:0 309:0 310:0.99000001 311:0 312:0.99000001 313:0 314:0 315:0 316:0 317:0 318:0 319:0 320:0 321:0 322:0 323:0 324:0 325:0 326:0 327:0 328:0 329:0.99000001 330:0.99000001 331:0.99000001 332:1.98 333:0.99000001 334:0 335:0 336:0 337:0 338:0.99000001 339:0 340:0 341:0 342:0 343:0 344:0 345:0.99000001 346:0.99000001 347:0 348:0.99000001 349:0.99000001 350:0 351:0 352:0 353:0 354:0 355:0 356:0 357:0 358:0 359:0 360:0 361:0 362:0 363:0 364:0 365:0 366:0 367:0 368:0 369:0 370:0 371:0 372:0 373:0 374:0 375:0 376:0 377:0 378:0 379:0 380:0 381:0 382:0 383:0 384:0 385:0 386:0 387:0 388:0 389:0 390:0 391:0 392:0.99000001 393:0 394:0 395:0 396:0 397:0 398:0 399:0 400:0.99000001 #
-0.53055722917673575622643511451315 1:0 2:0 3:0 4:0 5:0 6:0 7:0 8:0 9:0 10:0 11:0 12:0 13:0 14:0 15:0 16:0 17:0 18:0 19:0 20:0 21:0 22:0 23:0 24:0 25:0 26:0 27:0 28:0 29:0 30:0 31:0 32:0 33:0 34:0 35:0 36:0 37:0 38:0 39:0 40:0 41:0 42:0 43:0 44:0 45:0 46:0 47:0 48:0 49:0 50:0 51:0 52:0 53:0 54:0 55:0 56:0 57:0 58:0 59:0 60:0 61:0 62:0 63:0 64:0 65:0 66:0 67:0 68:0 69:0 70:0 71:0 72:0 73:0 74:0 75:0 76:0 77:0 78:0 79:0 80:0 81:0 82:0 83:0 84:0 85:0 86:0 87:0 88:0 89:0 90:0 91:0 92:0 93:0 94:0 95:0 96:0 97:0 98:0 99:0 100:0 101:0 102:0 103:0 104:0 105:0 106:0 107:0 108:0 109:0 110:0 111:0 112:0 113:0 114:20 115:0 116:0 117:0 118:0 119:0 120:0 121:0 122:0 123:0 124:0 125:0 126:0 127:0 128:0 129:0 130:0 131:0 132:0 133:0 134:0 135:0 136:0 137:0 138:0 139:0 140:0 141:0 142:0 143:0 144:0 145:0 146:0 147:0 148:0 149:0 150:0 151:0 152:0 153:0 154:0 155:0 156:0 157:0 158:0 159:0 160:0 161:0 162:0 163:0 164:0 165:0 166:0 167:0 168:0 169:0 170:0 171:0 172:0 173:0 174:0 175:0 176:0 177:0 178:0 179:0 180:0 181:0 182:0 183:0 184:0 185:0 186:0 187:0 188:0 189:0 190:0 191:0 192:0 193:0 194:0 195:0 196:0 197:0 198:0 199:0 200:0 201:0 202:0 203:0 204:0 205:0 206:0 207:0 208:0 209:0 210:0 211:0 212:0 213:0 214:0 215:0 216:0 217:0 218:0 219:0 220:0 221:0 222:0 223:0 224:0 225:0 226:0 227:0 228:0 229:0 230:0 231:0 232:0 233:0 234:0 235:0 236:0 237:0 238:0 239:0 240:0 241:0 242:0 243:0 244:0 245:0 246:0 247:0 248:0 249:0 250:0 251:0 252:0 253:20 254:20 255:0 256:0 257:0 258:0 259:0 260:0 261:0 262:0 263:0 264:0 265:0 266:0 267:0 268:0 269:0 270:0 271:0 272:0 273:0 274:0 275:0 276:0 277:0 278:20 279:0 280:0 281:0 282:0 283:0 284:0 285:0 286:0 287:0 288:0 289:0 290:0 291:0 292:0 293:0 294:0 295:0 296:0 297:0 298:0 299:0 300:0 301:0 302:0 303:0 304:0 305:0 306:0 307:0 308:0 309:0 310:0 311:0 312:0 313:0 314:0 315:0 316:0 317:0 318:0 319:0 320:0 321:0 322:0 323:0 324:0 325:0 326:0 327:0 328:0 329:0 330:0 331:0 332:0 333:0 334:0 335:0 336:0 337:0 338:0 339:0 340:0 341:0 342:0 343:0 344:0 345:0 346:0 347:0 348:0 349:0 350:0 351:0 352:0 353:20 354:0 355:0 356:0 357:0 358:0 359:0 360:0 361:0 362:0 363:0 364:0 365:0 366:0 367:0 368:0 369:0 370:0 371:0 372:0 373:0 374:0 375:0 376:0 377:0 378:0 379:0 380:0 381:0 382:0 383:0 384:0 385:0 386:0 387:0 388:0 389:0 390:0 391:0 392:0 393:0 394:0 395:0 396:0 397:0 398:0 399:0 400:0 #
0.37377626061293417469855171475501 1:1.163 2:0.58099997 3:0 4:0.58099997 5:0 6:2.9070001 7:0 8:0 9:0 10:0.58099997 11:0.58099997 12:0 13:0 14:0 15:0.58099997 16:0.58099997 17:2.326 18:1.163 19:0 20:0.58099997 21:0 22:0 23:0 24:0 25:0 26:1.163 27:0 28:0 29:0 30:0 31:0 32:0 33:1.163 34:0 35:1.163 36:2.326 37:0 38:0 39:0 40:0 41:0.58099997 42:0.58099997 43:0 44:0 45:1.163 46:0.58099997 47:0 48:0.58099997 49:0 50:0 51:0 52:0 53:0.58099997 54:0.58099997 55:0 56:0 57:0 58:0 59:0 60:0 61:0 62:0 63:0 64:0 65:0 66:0 67:0 68:0 69:0 70:0.58099997 71:0 72:0 73:0 74:0 75:0 76:0 77:0 78:0 79:0 80:0.58099997 81:0.58099997 82:0.58099997 83:0 84:0.58099997 85:0 86:0 87:0 88:0 89:0 90:0.58099997 91:0 92:1.744 93:0 94:0 95:0 96:0.58099997 97:0 98:0 99:0 100:0.58099997 101:1.163 102:0.58099997 103:1.163 104:0 105:1.163 106:4.0700002 107:0 108:0.58099997 109:0 110:0 111:0 112:0.58099997 113:0 114:1.163 115:1.163 116:1.744 117:1.163 118:0 119:0 120:0 121:0.58099997 122:0 123:0 124:0 125:0 126:0 127:0 128:0 129:0 130:0 131:0 132:0 133:0.58099997 134:0 135:0 136:0 137:0 138:0 139:0 140:0 141:0 142:0 143:0.58099997 144:0 145:0 146:0.58099997 147:0 148:0 149:0.58099997 150:0 151:0 152:0.58099997 153:0.58099997 154:0 155:0 156:0.58099997 157:0.58099997 158:0 159:1.163 160:0 161:0.58099997 162:0 163:0 164:0 165:0 166:0 167:0 168:0 169:0 170:0 171:0 172:0.58099997 173:0 174:0 175:0 176:0 177:0 178:0 179:0 180:0 181:1.744 182:0 183:0 184:0 185:0.58099997 186:0.58099997 187:0 188:0 189:0 190:1.163 191:0 192:0 193:0 194:0.58099997 195:0 196:1.163 197:0 198:0 199:0 200:0 201:0.58099997 202:0 203:0.58099997 204:0 205:0 206:0 207:0 208:0 209:0 210:0 211:0 212:0 213:0 214:0 215:0 216:0 217:0 218:0 219:0 220:0 221:0 222:0.58099997 223:0.58099997 224:0 225:0 226:0.58099997 227:0 228:0.58099997 229:0 230:0.58099997 231:0 232:1.744 233:0 234:0 235:0 236:0 237:0 238:0.58099997 239:0 240:0.58099997 241:1.744 242:0 243:0 244:0 245:0 246:0 247:0 248:0 249:0 250:0 251:0 252:0.58099997 253:1.744 254:0.58099997 255:0 256:0.58099997 257:0 258:0.58099997 259:0 260:0 261:1.163 262:0.58099997 263:0.58099997 264:0 265:0 266:0 267:0.58099997 268:0.58099997 269:0 270:0.58099997 271:0 272:0 273:0 274:0 275:0 276:0 277:0.58099997 278:0 279:0 280:0 281:0 282:0 283:0.58099997 284:0 285:0 286:0 287:0 288:0.58099997 289:0 290:0 291:0 292:0 293:0.58099997 294:0 295:0 296:0 297:1.163 298:0 299:0 300:0 301:1.163 302:2.326 303:0 304:0 305:0.58099997 306:1.744 307:0 308:0.58099997 309:0 310:0.58099997 311:0 312:0 313:0 314:0 315:0 316:0.58099997 317:1.163 318:0.58099997 319:0 320:0 321:0 322:0 323:0 324:0 325:1.163 326:1.744 327:0.58099997 328:1.163 329:0.58099997 330:0.58099997 331:0 332:0 333:0 334:0.58099997 335:0 336:1.163 337:0 338:0 339:0 340:0 341:0 342:0 343:0 344:0 345:0.58099997 346:0.58099997 347:0 348:0.58099997 349:0 350:0.58099997 351:0 352:0 353:0.58099997 354:0 355:0 356:0 357:0 358:0 359:0 360:0 361:0.58099997 362:0 363:0 364:0 365:0 366:0 367:0 368:0 369:0 370:0 371:0 372:0 373:0.58099997 374:0 375:0 376:0 377:0 378:0 379:0 380:0 381:0 382:0 383:0.58099997 384:0 385:0 386:0 387:0 388:0 389:0 390:0 391:0 392:0 393:0 394:1.163 395:0 396:0 397:0.58099997 398:0 399:0 400:0 #
-7 1:1.163 2:0.58099997 3:0 4:0.58099997 5:0 6:2.326 7:0 8:0 9:0 10:1.163 11:0.58099997 12:0 13:0 14:0 15:0.58099997 16:0.58099997 17:2.326 18:0.58099997 19:0 20:0.58099997 21:0 22:0 23:0 24:0 25:0 26:1.163 27:0 28:0 29:0 30:0 31:0 32:0 33:1.163 34:0.58099997 35:0.58099997 36:2.326 37:0 38:0 39:0 40:0 41:0.58099997 42:0.58099997 43:0 44:0 45:1.163 46:0.58099997 47:0 48:0.58099997 49:0 50:0 51:0 52:0 53:0.58099997 54:0 55:0 56:0 57:0 58:0.58099997 59:0 60:0 61:0 62:0 63:0 64:0 65:0 66:0 67:0 68:0 69:0 70:0 71:0 72:0 73:0 74:0 75:0 76:0 77:0 78:0 79:0 80:0.58099997 81:1.163 82:0.58099997 83:0 84:0 85:0 86:0 87:0 88:0 89:0 90:0.58099997 91:0 92:1.744 93:0 94:0 95:0 96:0.58099997 97:0.58099997 98:0 99:0 100:0.58099997 101:0.58099997 102:0.58099997 103:1.163 104:0 105:1.744 106:3.4879999 107:0 108:0.58099997 109:0 110:0 111:0 112:0.58099997 113:0 114:1.163 115:1.163 116:2.326 117:0.58099997 118:0 119:0 120:0 121:0.58099997 122:0 123:0 124:0 125:0 126:0 127:0 128:0 129:0 130:0 131:0 132:0 133:0.58099997 134:0 135:0 136:0 137:0 138:0 139:0 140:0 141:0 142:0 143:0.58099997 144:0 145:0 146:0.58099997 147:0 148:0 149:0.58099997 150:0 151:0 152:0.58099997 153:0.58099997 154:0 155:0 156:0.58099997 157:0.58099997 158:0 159:1.163 160:0 161:0 162:0 163:0 164:0 165:0 166:0 167:0 168:0 169:0 170:0 171:0 172:0.58099997 173:0 174:0 175:0 176:0 177:0 178:0 179:0 180:0 181:1.744 182:0 183:0 184:0 185:0.58099997 186:0.58099997 187:0 188:0 189:0 190:1.163 191:0 192:0 193:0 194:0.58099997 195:0 196:1.163 197:0 198:0 199:0 200:0 201:0.58099997 202:0 203:0.58099997 204:0 205:0 206:0 207:0 208:0 209:0 210:0 211:0 212:0 213:0 214:0 215:0 216:0 217:0 218:0 219:0 220:0 221:0 222:0.58099997 223:0.58099997 224:0 225:0 226:0.58099997 227:0 228:0.58099997 229:0 230:0.58099997 231:0 232:1.744 233:0 234:0 235:0 236:0 237:0 238:0.58099997 239:0 240:0.58099997 241:1.744 242:0 243:0 244:0 245:0 246:0 247:0 248:0 249:0 250:0 251:0 252:0.58099997 253:1.744 254:0.58099997 255:0 256:0.58099997 257:0.58099997 258:1.163 259:0 260:0 261:1.163 262:0.58099997 263:0.58099997 264:0 265:0 266:0 267:0.58099997 268:0.58099997 269:0 270:0.58099997 271:0 272:0 273:0 274:0.58099997 275:0 276:0 277:0.58099997 278:0 279:0 280:0 281:0 282:0 283:0.58099997 284:0 285:0 286:0 287:0 288:0.58099997 289:0 290:0 291:0 292:0 293:0.58099997 294:0 295:0 296:0 297:0.58099997 298:0 299:0 300:0 301:0.58099997 302:2.326 303:0 304:0 305:0.58099997 306:2.326 307:0 308:0.58099997 309:0 310:0.58099997 311:0 312:0 313:0.58099997 314:0 315:0 316:0.58099997 317:1.163 318:0.58099997 319:0 320:0 321:0 322:0 323:0 324:0 325:1.163 326:1.744 327:0.58099997 328:1.163 329:0 330:0 331:0 332:0 333:0 334:1.163 335:0 336:1.163 337:0 338:0 339:0 340:0 341:0.58099997 342:0 343:0 344:0 345:0.58099997 346:0.58099997 347:0 348:0.58099997 349:0 350:0.58099997 351:0 352:0 353:0.58099997 354:0 355:0 356:0 357:0 358:0 359:0 360:0 361:0.58099997 362:0 363:0 364:0 365:0 366:0 367:0 368:0 369:0 370:0 371:0 372:0 373:0.58099997 374:0 375:0 376:0 377:0 378:0 379:0 380:0 381:0 382:0 383:0.58099997 384:0 385:0 386:0 387:0 388:0 389:0 390:0 391:0.58099997 392:0 393:0 394:0.58099997 395:0 396:0 397:0.58099997 398:0 399:0 400:0 #
-7 1:1.163 2:0.58099997 3:0 4:0.58099997 5:0 6:2.326 7:0 8:0 9:0 10:0.58099997 11:0.58099997 12:0 13:0 14:0 15:0.58099997 16:0.58099997 17:1.744 18:1.163 19:0 20:0.58099997 21:0 22:0 23:0 24:0 25:0 26:1.163 27:0 28:0 29:0 30:0 31:0 32:0 33:1.163 34:0.58099997 35:0.58099997 36:2.326 37:0 38:0 39:0 40:0 41:0.58099997 42:0.58099997 43:0 44:0 45:1.163 46:0.58099997 47:0 48:0.58099997 49:0 50:0 51:0 52:0 53:0.58099997 54:0 55:0 56:0 57:0 58:0.58099997 59:0 60:0 61:0 62:0 63:0 64:0 65:0.58099997 66:0 67:0 68:0 69:0 70:0.58099997 71:0 72:0 73:0 74:0 75:0 76:0 77:0 78:0 79:0 80:0 81:0.58099997 82:0.58099997 83:0 84:0.58099997 85:0 86:0 87:0 88:0 89:0 90:0.58099997 91:0 92:1.744 93:0 94:0 95:0 96:0.58099997 97:0.58099997 98:0 99:0 100:0.58099997 101:0.58099997 102:0.58099997 103:1.163 104:0 105:1.163 106:3.4879999 107:0 108:0.58099997 109:0 110:0 111:0 112:0.58099997 113:0 114:1.163 115:1.163 116:2.9070001 117:0.58099997 118:0 119:0 120:0 121:0.58099997 122:0 123:0 124:0 125:0 126:0 127:0 128:0 129:0 130:0 131:0 132:0 133:0.58099997 134:0 135:0 136:0 137:0 138:0 139:0 140:0 141:0 142:0 143:0.58099997 144:0 145:0 146:0.58099997 147:0 148:0 149:0.58099997 150:0 151:0 152:0.58099997 153:0.58099997 154:0 155:0 156:0.58099997 157:0.58099997 158:0 159:1.163 160:0 161:0 162:0 163:0 164:0 165:0 166:0 167:0 168:0 169:0 170:0 171:0 172:0.58099997 173:0 174:0 175:0 176:0 177:0 178:0 179:0 180:0 181:1.744 182:0 183:0 184:0 185:0.58099997 186:0.58099997 187:0 188:0 189:0 190:1.163 191:0 192:0 193:0 194:0.58099997 195:0 196:1.163 197:0 198:0 199:0 200:0 201:0 202:0 203:0.58099997 204:0 205:0 206:0 207:0 208:0 209:0 210:0 211:0 212:0 213:0 214:0 215:0 216:0.58099997 217:0 218:0 219:0 220:0 221:0 222:0.58099997 223:0.58099997 224:0 225:0 226:0.58099997 227:0 228:0.58099997 229:0 230:0.58099997 231:0 232:1.744 233:0 234:0 235:0 236:0 237:0 238:0.58099997 239:0 240:0.58099997 241:1.744 242:0 243:0 244:0 245:0 246:0 247:0 248:0 249:0 250:0 251:0 252:0.58099997 253:1.744 254:0.58099997 255:0 256:0.58099997 257:0.58099997 258:0.58099997 259:0 260:0 261:1.163 262:0.58099997 263:0.58099997 264:0 265:0 266:0 267:0.58099997 268:0.58099997 269:0 270:0.58099997 271:0 272:0 273:0 274:0.58099997 275:0 276:0 277:0.58099997 278:0 279:0 280:0 281:0 282:0 283:0.58099997 284:0 285:0 286:0 287:0 288:0.58099997 289:0 290:0 291:0 292:0 293:0.58099997 294:0 295:0 296:0 297:0.58099997 298:0 299:0 300:0 301:1.163 302:2.326 303:0 304:0 305:0.58099997 306:2.326 307:0 308:0.58099997 309:0 310:0.58099997 311:0 312:0 313:0 314:0 315:0 316:0.58099997 317:2.326 318:0.58099997 319:0 320:0 321:0 322:0 323:0 324:0 325:1.163 326:1.744 327:0.58099997 328:1.163 329:0 330:0 331:0 332:0 333:0 334:1.163 335:0 336:1.163 337:0 338:0 339:0 340:0 341:0.58099997 342:0 343:0 344:0 345:0.58099997 346:0.58099997 347:0 348:0.58099997 349:0 350:0.58099997 351:0 352:0 353:0.58099997 354:0 355:0 356:0 357:0 358:0 359:0 360:0 361:0.58099997 362:0 363:0 364:0 365:0 366:0 367:0 368:0 369:0 370:0 371:0 372:0 373:0.58099997 374:0 375:0 376:0 377:0 378:0 379:0 380:0 381:0 382:0 383:0.58099997 384:0 385:0 386:0 387:0 388:0 389:0 390:0 391:0.58099997 392:0 393:0 394:0.58099997 395:0 396:0 397:0 398:0 399:0 400:0 #
-7 1:1.1900001 2:0.59500003 3:0 4:0.59500003 5:0 6:2.9760001 7:0 8:0 9:0 10:1.1900001 11:0.59500003 12:0.59500003 13:0 14:0 15:0 16:0.59500003 17:2.9760001 18:1.1900001 19:0 20:0.59500003 21:1.1900001 22:0 23:0 24:0 25:0 26:0.59500003 27:0 28:0 29:0 30:0 31:0 32:0.59500003 33:1.1900001 34:0 35:0.59500003 36:1.1900001 37:0.59500003 38:0 39:0 40:0 41:1.1900001 42:0.59500003 43:0 44:0 45:1.1900001 46:0.59500003 47:0 48:0.59500003 49:0 50:0 51:0 52:0 53:0 54:0 55:0 56:0 57:0 58:0.59500003 59:0 60:0 61:0 62:0 63:0 64:0 65:0 66:0 67:0 68:0 69:0 70:0 71:0 72:0 73:0 74:0 75:0 76:0 77:0 78:0 79:0 80:0.59500003 81:0.59500003 82:0.59500003 83:0 84:0 85:0 86:0 87:0 88:0 89:0 90:0.59500003 91:0 92:1.1900001 93:0 94:0.59500003 95:0.59500003 96:0.59500003 97:0.59500003 98:0 99:0 100:0.59500003 101:1.1900001 102:0.59500003 103:0.59500003 104:0 105:1.786 106:1.786 107:0 108:0.59500003 109:0 110:0 111:0 112:0.59500003 113:0 114:0.59500003 115:1.786 116:1.1900001 117:0.59500003 118:0.59500003 119:0 120:0 121:0.59500003 122:0 123:0 124:0 125:0 126:0 127:0.59500003 128:0 129:0 130:0 131:0 132:0 133:0.59500003 134:0 135:0 136:0 137:0 138:0 139:0 140:0 141:0 142:0 143:0.59500003 144:0 145:0 146:0.59500003 147:0 148:0 149:0 150:0 151:0 152:0.59500003 153:0.59500003 154:0 155:0 156:0.59500003 157:1.1900001 158:0 159:0.59500003 160:0 161:0 162:0.59500003 163:0 164:0 165:0 166:0 167:0 168:0 169:0 170:0 171:0 172:0 173:0 174:0.59500003 175:0 176:0 177:0 178:0 179:0 180:0 181:1.786 182:0 183:0 184:0 185:0.59500003 186:0 187:0 188:0 189:0.59500003 190:1.1900001 191:0 192:0.59500003 193:0 194:0 195:0 196:1.1900001 197:0 198:0 199:0 200:0 201:0.59500003 202:0 203:0.59500003 204:0 205:0 206:0 207:0 208:0 209:0 210:0 211:0 212:0 213:0 214:0 215:0 216:0 217:0 218:0 219:0 220:0 221:0 222:1.1900001 223:0 224:0 225:0 226:1.1900001 227:0 228:0.59500003 229:0 230:0.59500003 231:0.59500003 232:1.1900001 233:0 234:0 235:0 236:1.1900001 237:0 238:0.59500003 239:0 240:0.59500003 241:1.786 242:0 243:0.59500003 244:0 245:0 246:0 247:0 248:0 249:0 250:0.59500003 251:0 252:0.59500003 253:0 254:0 255:0 256:0 257:0 258:0.59500003 259:0 260:0 261:0 262:0 263:0.59500003 264:0 265:0 266:0 267:0 268:0.59500003 269:0 270:0.59500003 271:0 272:0 273:0.59500003 274:0 275:0 276:0.59500003 277:0 278:0 279:0 280:0 281:0 282:0 283:0.59500003 284:0 285:0 286:0.59500003 287:0 288:1.1900001 289:0 290:0 291:0 292:0 293:0 294:0 295:0 296:0 297:0.59500003 298:0 299:0 300:0 301:1.786 302:1.786 303:0 304:0 305:0.59500003 306:0.59500003 307:0 308:0 309:0.59500003 310:0 311:0 312:1.1900001 313:0 314:0.59500003 315:0 316:1.1900001 317:0.59500003 318:0.59500003 319:0 320:0 321:0 322:0 323:0 324:0 325:1.1900001 326:1.786 327:0.59500003 328:0.59500003 329:0 330:0.59500003 331:0 332:0.59500003 333:0 334:0 335:0 336:1.1900001 337:0 338:0.59500003 339:0 340:0 341:1.1900001 342:0 343:0 344:0 345:0.59500003 346:0.59500003 347:0 348:0.59500003 349:0 350:0.59500003 351:0 352:0 353:0.59500003 354:0 355:0 356:0 357:0 358:0 359:0.59500003 360:0 361:0 362:0 363:0 364:0 365:0 366:0.59500003 367:0 368:0 369:0 370:0 371:0 372:0 373:0.59500003 374:0 375:0 376:0 377:0 378:0 379:0 380:0 381:0 382:0 383:0.59500003 384:0 385:0 386:0 387:0.59500003 388:0 389:0 390:0 391:0 392:0 393:0 394:0.59500003 395:0 396:0 397:0.59500003 398:0 399:0 400:0 #
5.7682696380927271917471443885006 1:0.80299997 2:0 3:0 4:0.40200001 5:0.40200001 6:0.40200001 7:0 8:0 9:0 10:0.40200001 11:0 12:0.40200001 13:0.40200001 14:0 15:0.40200001 16:0.40200001 17:0.40200001 18:0 19:0 20:0.40200001 21:0 22:0.40200001 23:0 24:0 25:0 26:0.80299997 27:0.40200001 28:0 29:0.40200001 30:0.40200001 31:0 32:0.80299997 33:1.6059999 34:0.80299997 35:0 36:0 37:0.80299997 38:0.40200001 39:0 40:0 41:0.40200001 42:0.40200001 43:0.40200001 44:0 45:0.40200001 46:0.80299997 47:0 48:0.40200001 49:0 50:0.40200001 51:0 52:0 53:0.40200001 54:0 55:0 56:0 57:0 58:0 59:0 60:0.40200001 61:0 62:0.80299997 63:0 64:0 65:0 66:0 67:0 68:0 69:0 70:0 71:0.40200001 72:0 73:0 74:0 75:0.40200001 76:0 77:0.40200001 78:0.80299997 79:0 80:0.40200001 81:0 82:0.40200001 83:0.40200001 84:0.40200001 85:0.80299997 86:0.80299997 87:0 88:0 89:0.40200001 90:0.40200001 91:0 92:0.40200001 93:0.40200001 94:0 95:0 96:0.40200001 97:0.40200001 98:0.40200001 99:0.80299997 100:0 101:0.40200001 102:0.40200001 103:0.40200001 104:0.40200001 105:0.40200001 106:2.0079999 107:0 108:0 109:0.80299997 110:0 111:0 112:0 113:1.6059999 114:0.80299997 115:1.205 116:0.80299997 117:0.40200001 118:0.80299997 119:0.80299997 120:0 121:0 122:0 123:0 124:0 125:0 126:0 127:0 128:0 129:0 130:0.40200001 131:0 132:0.80299997 133:0.40200001 134:0 135:0 136:0 137:0 138:0 139:0 140:0 141:0 142:0 143:0.40200001 144:0 145:0 146:0.40200001 147:0 148:0 149:0 150:0 151:0 152:0.40200001 153:0.40200001 154:0.40200001 155:0 156:0.40200001 157:0 158:0 159:0.40200001 160:0 161:0 162:0.40200001 163:0 164:0 165:0 166:0.40200001 167:0 168:0 169:0 170:0 171:0.40200001 172:0 173:0.40200001 174:0.40200001 175:0 176:0 177:0 178:0.40200001 179:0 180:0 181:0.80299997 182:0 183:0.40200001 184:1.6059999 185:0 186:0 187:0 188:0 189:0 190:0.40200001 191:0 192:0.40200001 193:0 194:0 195:0.40200001 196:0.40200001 197:0.40200001 198:0.40200001 199:0 200:0 201:0.40200001 202:0 203:0 204:0 205:0.40200001 206:0 207:0 208:0 209:0 210:0 211:0 212:0 213:0.40200001 214:0 215:0 216:0.80299997 217:0 218:0 219:0 220:0 221:0.40200001 222:0.80299997 223:0 224:0.40200001 225:0.80299997 226:0.40200001 227:0 228:0.80299997 229:0 230:0.40200001 231:0 232:0.80299997 233:0.80299997 234:0.40200001 235:0 236:0 237:0.40200001 238:0 239:0 240:0 241:0 242:0.80299997 243:0.40200001 244:0 245:0 246:2.0079999 247:0 248:0.80299997 249:0 250:0.40200001 251:0.40200001 252:0.40200001 253:0.80299997 254:0.40200001 255:0 256:0 257:1.6059999 258:0 259:0 260:0.80299997 261:0 262:0.40200001 263:0.40200001 264:0 265:0.40200001 266:0.40200001 267:0 268:0 269:0 270:0 271:0 272:0 273:0 274:0.40200001 275:0.40200001 276:0.80299997 277:0.40200001 278:0 279:0 280:0.40200001 281:0 282:0.40200001 283:0 284:0 285:0.40200001 286:0.80299997 287:0 288:0.40200001 289:0 290:0.40200001 291:0 292:0 293:0 294:0 295:0.40200001 296:0 297:0.40200001 298:0.40200001 299:0 300:0 301:0 302:0 303:0 304:0 305:0.40200001 306:0.40200001 307:0.40200001 308:0 309:0 310:0.40200001 311:0 312:0.40200001 313:0 314:0 315:0.40200001 316:0 317:1.205 318:0.40200001 319:0.80299997 320:0.40200001 321:0 322:0.80299997 323:0.80299997 324:0 325:0.80299997 326:0.40200001 327:0.40200001 328:0 329:0.40200001 330:0.80299997 331:0 332:1.6059999 333:0.40200001 334:0.40200001 335:0 336:0.80299997 337:1.6059999 338:0.40200001 339:0 340:0.40200001 341:0.80299997 342:0 343:0 344:0 345:0.80299997 346:0 347:0.40200001 348:0.40200001 349:0 350:0.40200001 351:0.40200001 352:0 353:0.40200001 354:0 355:0 356:0 357:0.40200001 358:0 359:0.40200001 360:0 361:0.80299997 362:0.40200001 363:0.40200001 364:0 365:0.40200001 366:0.80299997 367:0 368:0 369:0 370:0 371:0 372:0 373:0 374:0 375:0 376:0 377:0.40200001 378:0 379:0.40200001 380:0 381:0.40200001 382:0.40200001 383:0 384:0 385:0 386:0.40200001 387:0 388:0 389:0.40200001 390:0 391:0 392:0 393:0.40200001 394:0 395:0 396:0.40200001 397:0.80299997 398:0 399:0 400:0 #
-0.13951845359497494492018176970305 1:0 2:0 3:0 4:0 5:0 6:0 7:0 8:0 9:0 10:0 11:0 12:0 13:0 14:0 15:0 16:0 17:0 18:0 19:0 20:0 21:0 22:0 23:0 24:0 25:0 26:0 27:0 28:0 29:0 30:0 31:0 32:0 33:0 34:0 35:0 36:0 37:0 38:0 39:0 40:0 41:0 42:0 43:0 44:0 45:0 46:0 47:0 48:0 49:0 50:0 51:0 52:0 53:0 54:0 55:0 56:0 57:0 58:0 59:0 60:0 61:0 62:0 63:0 64:0 65:0 66:0 67:0 68:0 69:0 70:0 71:0 72:0 73:0 74:0 75:0 76:0 77:0 78:0 79:0 80:0 81:0 82:0 83:0 84:0 85:0 86:0 87:0 88:0 89:0 90:0 91:0 92:0 93:0 94:0 95:0 96:7.1430001 97:0 98:0 99:0 100:0 101:0 102:0 103:0 104:0 105:0 106:0 107:0 108:0 109:0 110:0 111:0 112:0 113:0 114:0 115:0 116:0 117:0 118:0 119:0 120:0 121:0 122:0 123:0 124:0 125:0 126:0 127:0 128:0 129:0 130:0 131:0 132:0 133:0 134:0 135:0 136:0 137:0 138:0 139:0 140:0 141:0 142:0 143:0 144:0 145:0 146:0 147:0 148:0 149:0 150:0 151:0 152:0 153:0 154:0 155:0 156:0 157:0 158:0 159:0 160:0 161:0 162:0 163:0 164:0 165:0 166:0 167:0 168:0 169:0 170:0 171:0 172:0 173:0 174:0 175:0 176:0 177:0 178:0 179:0 180:0 181:0 182:0 183:0 184:0 185:0 186:0 187:0 188:0 189:0 190:0 191:0 192:0 193:7.1430001 194:0 195:0 196:0 197:0 198:0 199:0 200:0 201:0 202:0 203:0 204:0 205:0 206:0 207:0 208:0 209:0 210:0 211:0 212:0 213:0 214:0 215:0 216:0 217:0 218:0 219:0 220:0 221:0 222:0 223:0 224:0 225:0 226:0 227:0 228:0 229:0 230:0 231:0 232:0 233:0 234:0 235:0 236:0 237:0 238:0 239:0 240:0 241:0 242:0 243:0 244:0 245:7.1430001 246:0 247:0 248:0 249:0 250:7.1430001 251:0 252:0 253:7.1430001 254:7.1430001 255:0 256:0 257:0 258:0 259:0 260:0 261:0 262:0 263:0 264:0 265:0 266:0 267:0 268:0 269:0 270:0 271:0 272:0 273:14.286 274:35.714001 275:0 276:0 277:0 278:0 279:0 280:0 281:0 282:0 283:0 284:0 285:0 286:0 287:0 288:0 289:0 290:0 291:0 292:0 293:0 294:0 295:0 296:0 297:0 298:0 299:0 300:0 301:0 302:0 303:0 304:0 305:0 306:0 307:0 308:0 309:0 310:0 311:0 312:0 313:0 314:7.1430001 315:0 316:0 317:0 318:0 319:0 320:0 321:0 322:0 323:0 324:0 325:0 326:0 327:0 328:0 329:0 330:0 331:0 332:0 333:0 334:0 335:0 336:0 337:0 338:0 339:0 340:0 341:0 342:0 343:0 344:0 345:0 346:0 347:0 348:0 349:0 350:0 351:0 352:0 353:0 354:0 355:0 356:0 357:0 358:0 359:0 360:0 361:0 362:0 363:0 364:0 365:0 366:0 367:0 368:0 369:0 370:0 371:0 372:0 373:0 374:0 375:0 376:0 377:0 378:0 379:0 380:0 381:0 382:0 383:0 384:0 385:0 386:0 387:0 388:0 389:0 390:0 391:0 392:0 393:0 394:0 395:0 396:0 397:0 398:0 399:0 400:0 #
-7 1:0.80000001 2:0 3:0 4:0.40000001 5:0.40000001 6:0.40000001 7:0.40000001 8:0 9:0.40000001 10:0.40000001 11:0 12:0.40000001 13:0.40000001 14:0 15:0.40000001 16:0.40000001 17:0.40000001 18:0 19:0 20:0 21:0 22:0.40000001 23:0 24:0 25:0 26:0.80000001 27:0.40000001 28:0 29:0.40000001 30:0 31:0 32:0.80000001 33:1.6 34:0.40000001 35:0 36:0 37:1.6 38:0 39:0 40:0 41:0.40000001 42:0.40000001 43:0.40000001 44:0 45:0.40000001 46:0.80000001 47:0 48:0.40000001 49:0 50:0 51:0 52:0 53:0.40000001 54:0 55:0 56:0 57:0 58:0 59:0 60:0.40000001 61:0 62:0.80000001 63:0 64:0 65:0 66:0 67:0 68:0 69:0 70:0.40000001 71:0.40000001 72:0 73:0 74:0 75:0.40000001 76:0 77:0.40000001 78:0.80000001 79:0 80:0.40000001 81:0 82:0.40000001 83:0.40000001 84:0.40000001 85:0.40000001 86:0.80000001 87:0 88:0 89:0.40000001 90:0.80000001 91:0 92:0.40000001 93:0.40000001 94:0 95:0 96:0.40000001 97:0.40000001 98:0.40000001 99:0.80000001 100:0 101:0.40000001 102:0.40000001 103:0.40000001 104:0.40000001 105:0.40000001 106:2 107:0 108:0.40000001 109:0.80000001 110:0 111:0 112:0 113:1.6 114:0.80000001 115:1.2 116:0.80000001 117:0.40000001 118:0.80000001 119:0.80000001 120:0 121:0 122:0 123:0 124:0.40000001 125:0 126:0.40000001 127:0 128:0 129:0 130:0.40000001 131:0 132:0.80000001 133:0 134:0 135:0 136:0 137:0 138:0 139:0 140:0 141:0 142:0 143:0.40000001 144:0 145:0 146:0 147:0 148:0 149:0 150:0 151:0 152:0.40000001 153:0.40000001 154:0.40000001 155:0 156:0.40000001 157:0 158:0 159:0.40000001 160:0 161:0 162:0.40000001 163:0 164:0 165:0 166:0.40000001 167:0 168:0 169:0 170:0 171:0.80000001 172:0 173:0.80000001 174:0.40000001 175:0 176:0 177:0 178:0.40000001 179:0 180:0 181:0.80000001 182:0 183:0.40000001 184:1.2 185:0 186:0 187:0 188:0 189:0 190:0.40000001 191:0 192:0.40000001 193:0 194:0 195:0.40000001 196:0.40000001 197:0.40000001 198:0.40000001 199:0 200:0 201:0.40000001 202:0 203:0 204:0 205:0.40000001 206:0 207:0 208:0 209:0 210:0 211:0 212:0 213:0.40000001 214:0 215:0 216:0.80000001 217:0 218:0 219:0 220:0 221:0 222:0.80000001 223:0 224:0.40000001 225:0.80000001 226:0.40000001 227:0 228:0.40000001 229:0 230:0.40000001 231:0 232:0.80000001 233:0.40000001 234:0.40000001 235:0 236:0 237:0.40000001 238:0 239:0 240:0.40000001 241:0 242:0.80000001 243:0.40000001 244:0 245:0 246:2 247:0 248:0.40000001 249:0 250:0.40000001 251:0.40000001 252:0.40000001 253:0.40000001 254:0.40000001 255:0 256:0 257:1.6 258:0.40000001 259:0 260:0.80000001 261:0 262:0.40000001 263:0.40000001 264:0 265:0.40000001 266:0.40000001 267:0 268:0 269:0 270:0 271:0 272:0 273:0 274:0.40000001 275:0.40000001 276:0.40000001 277:0.40000001 278:0 279:0 280:0.40000001 281:0 282:0.40000001 283:0 284:0 285:0 286:0.40000001 287:0 288:0.40000001 289:0 290:0.40000001 291:0 292:0 293:0.40000001 294:0 295:0.40000001 296:0 297:0.40000001 298:0.40000001 299:0.40000001 300:0 301:0.40000001 302:0 303:0 304:0 305:0.40000001 306:0.40000001 307:0.40000001 308:0 309:0 310:0.40000001 311:0 312:0.40000001 313:0 314:0 315:0.40000001 316:0 317:0.80000001 318:0.40000001 319:0.80000001 320:0.40000001 321:0.40000001 322:0.40000001 323:0.40000001 324:0.40000001 325:1.2 326:0.40000001 327:0.40000001 328:0 329:0.80000001 330:0.40000001 331:0 332:0.80000001 333:0.40000001 334:0.40000001 335:0 336:1.2 337:1.6 338:0.40000001 339:0 340:0.80000001 341:0.40000001 342:0 343:0 344:0 345:0.80000001 346:0.40000001 347:0.40000001 348:0.40000001 349:0 350:0.40000001 351:0.40000001 352:0 353:0.40000001 354:0 355:0 356:0 357:0.40000001 358:0 359:0.40000001 360:0 361:0.80000001 362:0.40000001 363:0.40000001 364:0 365:0.80000001 366:0.80000001 367:0 368:0 369:0 370:0 371:0 372:0 373:0 374:0 375:0 376:0 377:0.40000001 378:0 379:0.40000001 380:0 381:0.80000001 382:0.40000001 383:0 384:0 385:0 386:0.40000001 387:0 388:0 389:0.40000001 390:0 391:0 392:0 393:0.40000001 394:0 395:0 396:0.40000001 397:0.80000001 398:0 399:0 400:0 #
-7 1:0.41999999 2:1.681 3:0 4:0.41999999 5:0 6:1.681 7:0 8:0 9:0 10:0 11:0 12:1.261 13:0.41999999 14:0 15:0.41999999 16:0.83999997 17:0.41999999 18:0.41999999 19:0 20:0.83999997 21:0 22:0.41999999 23:0 24:0.41999999 25:0 26:0.41999999 27:0 28:0 29:0.83999997 30:0 31:0 32:0.83999997 33:2.1010001 34:0 35:0.41999999 36:0 37:0.41999999 38:0.83999997 39:0 40:0 41:0.83999997 42:0.83999997 43:0.41999999 44:0.41999999 45:0.83999997 46:0.83999997 47:0 48:0 49:0.41999999 50:0.41999999 51:0.41999999 52:0 53:0 54:0.83999997 55:0 56:0 57:0.41999999 58:0.41999999 59:0 60:0.41999999 61:0 62:0 63:0 64:0 65:0.41999999 66:0 67:0 68:0.41999999 69:0 70:0.41999999 71:0 72:0 73:0 74:0 75:0.41999999 76:0 77:0.83999997 78:0 79:0 80:0 81:0 82:0.41999999 83:0.41999999 84:0.41999999 85:0 86:0 87:0 88:0.41999999 89:0.41999999 90:0.41999999 91:0 92:0.41999999 93:0 94:0 95:0 96:0 97:1.261 98:0 99:0.41999999 100:0.41999999 101:1.261 102:0.41999999 103:1.681 104:0 105:0.41999999 106:2.5209999 107:0 108:0.83999997 109:0.41999999 110:0.41999999 111:0.41999999 112:0.41999999 113:0.41999999 114:0.41999999 115:0.83999997 116:0.41999999 117:0.41999999 118:0.41999999 119:0.41999999 120:0.41999999 121:0 122:0 123:0 124:0 125:0 126:0 127:0 128:0.41999999 129:0 130:0 131:0 132:0 133:0 134:0 135:0 136:0 137:0 138:0 139:0 140:0 141:0.41999999 142:0 143:0 144:0 145:0.41999999 146:0 147:0.41999999 148:0 149:0 150:0.41999999 151:0 152:0 153:0 154:0 155:0.41999999 156:0.41999999 157:0.83999997 158:0 159:0 160:0 161:0 162:0 163:0.41999999 164:0 165:0 166:0 167:0 168:0 169:0 170:0.83999997 171:0 172:0.41999999 173:0.41999999 174:0 175:0 176:0.41999999 177:0 178:0.41999999 179:0 180:0.41999999 181:0.83999997 182:0 183:0 184:0 185:0.41999999 186:0.83999997 187:0 188:0 189:0.41999999 190:0 191:0 192:0.41999999 193:0 194:0 195:0.83999997 196:0 197:0.83999997 198:1.261 199:0 200:0 201:0.83999997 202:0 203:0.41999999 204:0 205:0 206:0 207:0 208:0 209:0 210:0.41999999 211:0 212:0 213:0 214:0 215:0 216:0 217:0 218:0 219:0 220:0 221:0.83999997 222:0.41999999 223:0.41999999 224:0 225:0.41999999 226:0.83999997 227:0 228:0.41999999 229:0 230:0 231:0 232:0.83999997 233:0 234:0 235:0 236:0 237:0.41999999 238:0.83999997 239:0 240:0.41999999 241:0.41999999 242:0 243:0.83999997 244:0.41999999 245:0 246:0.83999997 247:0 248:0 249:0.41999999 250:0 251:0 252:0 253:0.83999997 254:0 255:0 256:0.41999999 257:0.41999999 258:0.41999999 259:0 260:0 261:0 262:0 263:0 264:0 265:0 266:0.41999999 267:0 268:0 269:0 270:0.41999999 271:0 272:0.41999999 273:0 274:0 275:0 276:0 277:0 278:0 279:0 280:0.41999999 281:0 282:0.83999997 283:0 284:0 285:0.83999997 286:0.41999999 287:0 288:0.41999999 289:0 290:0 291:0 292:0.41999999 293:0.41999999 294:0.41999999 295:0 296:0 297:0.41999999 298:0 299:0 300:0 301:0.41999999 302:0 303:0.41999999 304:0 305:0 306:2.1010001 307:0 308:0.41999999 309:0 310:0.41999999 311:0 312:0 313:0 314:0 315:0.83999997 316:0.41999999 317:0.41999999 318:0 319:0 320:0.41999999 321:0.41999999 322:0.83999997 323:1.261 324:0 325:0.83999997 326:1.261 327:0 328:0 329:0 330:1.681 331:0 332:0 333:0.41999999 334:0 335:0 336:0.83999997 337:0.41999999 338:0.41999999 339:0 340:0 341:0.41999999 342:0 343:0.41999999 344:0 345:0.41999999 346:0.41999999 347:0 348:0 349:0.41999999 350:0 351:0.83999997 352:0 353:0.41999999 354:0 355:0 356:0.83999997 357:0.83999997 358:0.41999999 359:0.41999999 360:0 361:0.83999997 362:0 363:0 364:0 365:0 366:0 367:0 368:0 369:0 370:0 371:0 372:0 373:0 374:0 375:0 376:0.41999999 377:0 378:0 379:0 380:0 381:0.83999997 382:0.41999999 383:0.83999997 384:0.41999999 385:0 386:0 387:0 388:0 389:0 390:0 391:0 392:0.41999999 393:0 394:0 395:0 396:0.83999997 397:0 398:0 399:0 400:0 #
-7 1:0.95700002 2:0 3:0.47799999 4:0.95700002 5:0.95700002 6:0.95700002 7:0 8:0 9:0.47799999 10:0 11:0 12:0 13:0 14:0 15:0 16:0 17:0.95700002 18:0 19:0 20:0 21:0 22:0 23:0 24:0 25:1.4349999 26:1.4349999 27:0 28:0 29:0 30:0.47799999 31:0.47799999 32:1.4349999 33:0 34:0 35:0 36:1.4349999 37:2.392 38:0 39:0 40:0 41:0 42:0 43:0 44:0 45:0 46:0 47:0 48:0.47799999 49:0.47799999 50:0 51:0 52:0 53:0 54:0 55:0 56:1.4349999 57:0 58:0 59:0 60:0 61:0.47799999 62:0 63:0 64:0 65:0.47799999 66:0 67:0 68:0.47799999 69:0 70:0 71:1.4349999 72:0.47799999 73:0 74:0 75:0 76:0 77:2.8710001 78:0.47799999 79:0 80:0 81:0 82:0 83:0 84:0 85:0 86:1.914 87:0 88:0 89:0 90:1.4349999 91:0 92:0 93:0 94:0 95:0 96:0.47799999 97:0.47799999 98:0.47799999 99:0 100:0 101:0.95700002 102:1.4349999 103:0 104:1.914 105:0 106:2.392 107:0 108:0 109:0.95700002 110:1.4349999 111:0 112:0 113:0 114:0 115:0 116:0 117:1.4349999 118:0 119:0 120:0 121:0 122:0 123:0 124:0 125:0 126:0 127:0 128:0 129:0 130:0 131:0.95700002 132:0 133:0 134:0 135:0 136:0 137:0 138:0 139:0 140:0 141:0.47799999 142:1.4349999 143:0 144:0 145:0 146:0 147:0 148:0 149:0 150:0.47799999 151:0 152:0 153:0 154:0.47799999 155:0 156:0 157:0 158:0 159:0 160:0 161:0.47799999 162:0 163:0 164:1.914 165:0.47799999 166:1.4349999 167:0 168:0 169:0 170:0 171:0 172:0 173:0 174:0 175:0 176:0 177:1.4349999 178:0 179:0 180:0 181:0.47799999 182:0 183:0 184:0 185:0 186:0.47799999 187:0.95700002 188:0 189:2.8710001 190:0.95700002 191:0 192:0 193:2.8710001 194:0 195:0 196:0.47799999 197:0.47799999 198:1.4349999 199:0 200:0 201:0.47799999 202:0 203:0 204:0 205:1.4349999 206:0 207:0 208:0 209:0 210:0 211:0 212:0 213:0 214:1.4349999 215:0.47799999 216:0.47799999 217:0 218:0 219:0 220:0 221:0 222:0.47799999 223:0.47799999 224:0 225:0 226:0 227:0 228:0.47799999 229:0 230:0 231:0 232:0 233:0 234:0 235:0 236:0 237:1.4349999 238:0 239:0 240:0 241:0 242:0 243:0 244:0 245:0 246:1.4349999 247:0 248:1.4349999 249:0 250:0.47799999 251:0.95700002 252:0 253:0 254:0 255:0 256:0 257:0 258:1.4349999 259:0 260:0 261:0 262:0 263:0 264:0 265:0 266:0 267:0 268:0 269:0.47799999 270:1.4349999 271:0 272:0 273:0 274:0 275:0 276:0 277:0 278:0 279:0 280:0 281:0 282:0 283:1.4349999 284:0 285:0 286:0 287:0 288:0 289:0 290:0 291:0 292:0 293:0 294:0 295:0 296:0 297:0 298:0 299:0 300:0 301:0.47799999 302:1.4349999 303:0 304:1.914 305:0 306:0 307:0 308:0 309:0 310:1.914 311:0 312:0 313:0 314:0 315:0 316:0 317:0 318:0 319:0 320:0 321:0 322:2.8710001 323:0 324:0 325:0 326:0 327:0 328:0 329:0 330:1.4349999 331:0.47799999 332:0.47799999 333:1.4349999 334:0 335:1.4349999 336:1.4349999 337:0.95700002 338:0.47799999 339:1.4349999 340:0 341:0.47799999 342:1.4349999 343:0 344:0 345:0 346:0.47799999 347:0 348:0 349:0.47799999 350:0.95700002 351:0 352:0.47799999 353:0 354:0 355:0 356:0 357:0 358:0 359:0 360:0 361:0 362:0 363:0 364:0 365:0 366:0 367:0 368:0 369:0 370:0 371:0 372:0 373:1.4349999 374:0 375:0 376:0 377:0 378:0 379:0 380:0 381:0 382:0 383:0 384:0 385:0 386:0 387:0 388:0 389:0 390:0 391:0 392:0 393:0 394:0 395:0 396:0 397:0 398:0 399:0 400:0 #
5.5525770956023450253269402310252 1:0 2:0.68000001 3:0 4:0.68000001 5:0 6:2.721 7:0 8:0 9:0 10:1.3609999 11:0.68000001 12:0.68000001 13:0 14:0 15:0 16:0 17:2.721 18:0 19:0 20:0.68000001 21:1.3609999 22:0 23:0 24:0 25:0 26:0.68000001 27:0 28:0 29:0 30:0 31:0 32:0.68000001 33:1.3609999 34:0 35:0.68000001 36:1.3609999 37:0.68000001 38:0 39:0 40:0 41:1.3609999 42:0.68000001 43:0 44:0 45:1.3609999 46:0.68000001 47:0 48:0.68000001 49:0 50:0 51:0 52:0 53:0 54:0 55:0 56:0 57:0 58:0.68000001 59:0 60:0 61:0 62:0 63:0 64:0 65:0 66:0 67:0 68:0 69:0 70:0 71:0 72:0 73:0 74:0 75:0 76:0 77:0 78:0 79:0 80:0.68000001 81:0 82:0.68000001 83:0 84:0 85:0 86:0 87:0 88:0 89:0 90:0 91:0 92:0.68000001 93:0 94:0.68000001 95:0.68000001 96:0.68000001 97:0.68000001 98:0 99:0 100:0.68000001 101:0.68000001 102:0.68000001 103:0.68000001 104:0 105:1.3609999 106:2.0409999 107:0 108:0.68000001 109:0 110:0 111:0 112:0.68000001 113:0 114:0.68000001 115:2.0409999 116:1.3609999 117:0.68000001 118:0.68000001 119:0 120:0.68000001 121:0.68000001 122:0 123:0 124:0 125:0 126:0 127:0.68000001 128:0 129:0 130:0 131:0 132:0 133:0.68000001 134:0 135:0 136:0 137:0 138:0 139:0 140:0 141:0 142:0 143:0.68000001 144:0 145:0 146:0.68000001 147:0 148:0 149:0 150:0 151:0 152:0.68000001 153:0.68000001 154:0 155:0 156:0.68000001 157:1.3609999 158:0 159:0.68000001 160:0 161:0 162:0.68000001 163:0 164:0 165:0 166:0 167:0 168:0 169:0 170:0 171:0 172:0 173:0 174:0.68000001 175:0 176:0 177:0 178:0 179:0 180:0 181:1.3609999 182:0 183:0 184:0 185:0 186:0 187:0 188:0 189:0.68000001 190:0 191:0 192:0.68000001 193:0 194:0 195:0 196:1.3609999 197:0 198:0 199:0 200:0 201:0 202:0 203:0.68000001 204:0 205:0 206:0 207:0 208:0 209:0 210:0 211:0 212:0 213:0 214:0 215:0 216:0 217:0 218:0 219:0 220:0 221:0 222:1.3609999 223:0.68000001 224:0 225:0 226:1.3609999 227:0 228:0.68000001 229:0 230:0.68000001 231:0 232:1.3609999 233:0 234:0 235:0 236:1.3609999 237:0 238:0.68000001 239:0 240:0.68000001 241:2.0409999 242:0 243:0.68000001 244:0 245:0 246:0 247:0 248:0 249:0 250:0 251:0 252:0.68000001 253:0 254:0 255:0 256:0 257:0 258:0.68000001 259:0 260:0 261:0 262:0 263:0.68000001 264:0 265:0 266:0 267:0 268:0.68000001 269:0 270:0.68000001 271:0 272:0 273:0.68000001 274:0 275:0 276:0.68000001 277:0 278:0 279:0 280:0 281:0 282:0 283:0.68000001 284:0 285:0 286:0.68000001 287:0 288:1.3609999 289:0 290:0 291:0 292:0 293:0 294:0 295:0 296:0 297:0.68000001 298:0 299:0 300:0 301:0.68000001 302:2.0409999 303:0 304:0 305:0.68000001 306:0.68000001 307:0 308:0 309:0.68000001 310:0 311:0 312:1.3609999 313:0 314:0.68000001 315:0 316:0.68000001 317:0.68000001 318:0.68000001 319:0 320:0 321:0 322:0 323:0 324:0 325:1.3609999 326:2.0409999 327:0.68000001 328:0.68000001 329:0 330:1.3609999 331:0 332:0.68000001 333:0 334:0 335:0 336:0.68000001 337:0 338:0.68000001 339:0 340:0 341:1.3609999 342:0 343:0 344:0 345:0 346:0.68000001 347:0 348:0.68000001 349:0 350:0 351:0 352:0 353:0.68000001 354:0 355:0 356:0 357:0 358:0 359:0.68000001 360:0 361:0 362:0 363:0 364:0 365:0 366:0.68000001 367:0 368:0 369:0 370:0 371:0 372:0 373:0.68000001 374:0 375:0 376:0 377:0 378:0 379:0 380:0 381:0 382:0 383:0.68000001 384:0 385:0 386:0 387:0.68000001 388:0 389:0 390:0 391:0 392:0.68000001 393:0 394:0.68000001 395:0 396:0 397:0.68000001 398:0 399:0 400:0 #
0.93646295930458123280004656407982 1:1.163 2:0.58099997 3:0 4:0.58099997 5:0 6:2.326 7:0 8:0 9:0 10:1.163 11:0.58099997 12:0 13:0 14:0 15:0.58099997 16:0.58099997 17:2.326 18:0.58099997 19:0 20:0.58099997 21:0 22:0 23:0 24:0 25:0 26:1.163 27:0 28:0 29:0 30:0 31:0 32:0 33:1.163 34:0.58099997 35:0.58099997 36:2.326 37:0 38:0 39:0 40:0 41:0.58099997 42:0.58099997 43:0 44:0 45:1.163 46:0.58099997 47:0 48:0.58099997 49:0 50:0 51:0 52:0 53:0.58099997 54:0 55:0 56:0 57:0 58:0.58099997 59:0 60:0 61:0 62:0 63:0 64:0 65:0 66:0 67:0 68:0 69:0 70:0 71:0 72:0 73:0 74:0 75:0 76:0 77:0 78:0 79:0 80:0.58099997 81:1.163 82:0.58099997 83:0 84:0 85:0 86:0 87:0 88:0 89:0 90:0.58099997 91:0 92:1.744 93:0 94:0 95:0 96:0.58099997 97:0.58099997 98:0 99:0 100:0.58099997 101:0.58099997 102:0.58099997 103:1.163 104:0 105:1.744 106:3.4879999 107:0 108:0.58099997 109:0 110:0 111:0 112:0.58099997 113:0 114:1.163 115:1.163 116:2.326 117:0.58099997 118:0 119:0 120:0 121:0.58099997 122:0 123:0 124:0 125:0 126:0 127:0 128:0 129:0 130:0 131:0 132:0 133:0.58099997 134:0 135:0 136:0 137:0 138:0 139:0 140:0 141:0 142:0 143:0.58099997 144:0 145:0 146:0.58099997 147:0 148:0 149:0.58099997 150:0 151:0 152:0.58099997 153:0.58099997 154:0 155:0 156:0.58099997 157:0.58099997 158:0 159:1.163 160:0 161:0 162:0 163:0 164:0 165:0 166:0 167:0 168:0 169:0 170:0 171:0 172:0.58099997 173:0 174:0 175:0 176:0 177:0 178:0 179:0 180:0 181:1.744 182:0 183:0 184:0 185:0.58099997 186:0.58099997 187:0 188:0 189:0 190:1.163 191:0 192:0 193:0 194:0.58099997 195:0 196:1.163 197:0 198:0 199:0 200:0 201:0.58099997 202:0 203:0.58099997 204:0 205:0 206:0 207:0 208:0 209:0 210:0 211:0 212:0 213:0 214:0 215:0 216:0 217:0 218:0 219:0 220:0 221:0 222:0.58099997 223:0.58099997 224:0 225:0 226:0.58099997 227:0 228:0.58099997 229:0 230:0.58099997 231:0 232:1.744 233:0 234:0 235:0 236:0 237:0 238:0.58099997 239:0 240:0.58099997 241:1.744 242:0 243:0 244:0 245:0 246:0 247:0 248:0 249:0 250:0 251:0 252:0.58099997 253:1.744 254:0.58099997 255:0 256:0.58099997 257:0 258:1.163 259:0 260:0 261:1.163 262:0.58099997 263:0.58099997 264:0 265:0 266:0 267:0.58099997 268:0.58099997 269:0 270:0.58099997 271:0 272:0 273:0 274:0 275:0 276:0 277:1.163 278:0 279:0 280:0 281:0 282:0 283:0.58099997 284:0 285:0 286:0 287:0 288:0.58099997 289:0 290:0 291:0 292:0 293:0.58099997 294:0 295:0 296:0 297:0.58099997 298:0 299:0 300:0 301:0.58099997 302:2.326 303:0 304:0 305:0.58099997 306:2.326 307:0 308:0.58099997 309:0 310:0.58099997 311:0 312:0 313:0.58099997 314:0 315:0 316:0.58099997 317:1.163 318:0.58099997 319:0 320:0 321:0 322:0 323:0 324:0 325:1.163 326:1.744 327:0.58099997 328:1.163 329:0 330:0.58099997 331:0 332:0 333:0 334:1.163 335:0 336:1.163 337:0 338:0 339:0 340:0 341:0.58099997 342:0 343:0 344:0 345:0.58099997 346:0.58099997 347:0 348:0.58099997 349:0 350:0.58099997 351:0 352:0 353:0.58099997 354:0 355:0 356:0 357:0 358:0 359:0 360:0 361:0.58099997 362:0 363:0 364:0 365:0 366:0 367:0 368:0 369:0 370:0 371:0 372:0 373:0.58099997 374:0 375:0 376:0 377:0 378:0 379:0 380:0 381:0 382:0 383:0.58099997 384:0 385:0 386:0 387:0 388:0 389:0 390:0 391:0 392:0 393:0 394:1.163 395:0 396:0 397:0.58099997 398:0 399:0 400:0 #
0.36754388908273183389496807649266 1:0 2:2 3:0 4:0 5:0 6:0 7:2 8:0 9:2 10:0 11:0 12:0 13:0 14:0 15:0 16:0 17:0 18:0 19:0 20:0 21:0 22:0 23:0 24:2 25:0 26:2 27:0 28:4 29:2 30:0 31:0 32:2 33:0 34:0 35:0 36:0 37:0 38:0 39:0 40:2 41:0 42:0 43:0 44:0 45:0 46:0 47:0 48:0 49:0 50:0 51:0 52:0 53:0 54:0 55:0 56:0 57:0 58:0 59:0 60:0 61:0 62:0 63:0 64:0 65:0 66:2 67:0 68:0 69:2 70:0 71:0 72:0 73:0 74:0 75:0 76:0 77:0 78:0 79:0 80:0 81:0 82:0 83:0 84:0 85:0 86:0 87:0 88:0 89:0 90:0 91:0 92:0 93:4 94:0 95:0 96:0 97:0 98:0 99:0 100:0 101:2 102:0 103:0 104:0 105:0 106:0 107:0 108:0 109:0 110:0 111:0 112:2 113:0 114:0 115:0 116:2 117:2 118:2 119:0 120:0 121:0 122:0 123:0 124:0 125:0 126:2 127:0 128:0 129:2 130:0 131:0 132:0 133:0 134:0 135:0 136:0 137:0 138:0 139:0 140:0 141:0 142:2 143:0 144:0 145:0 146:0 147:0 148:0 149:0 150:0 151:0 152:2 153:0 154:0 155:0 156:0 157:0 158:0 159:0 160:0 161:0 162:2 163:0 164:0 165:0 166:0 167:2 168:0 169:0 170:2 171:0 172:2 173:2 174:0 175:0 176:0 177:0 178:0 179:0 180:0 181:0 182:2 183:0 184:2 185:0 186:0 187:0 188:0 189:0 190:0 191:0 192:0 193:0 194:0 195:0 196:0 197:0 198:0 199:0 200:0 201:0 202:0 203:0 204:0 205:0 206:0 207:0 208:0 209:0 210:0 211:0 212:0 213:0 214:0 215:0 216:0 217:0 218:0 219:0 220:0 221:2 222:0 223:0 224:0 225:0 226:0 227:0 228:0 229:0 230:2 231:0 232:0 233:0 234:2 235:0 236:2 237:0 238:0 239:0 240:2 241:2 242:2 243:0 244:0 245:0 246:0 247:0 248:0 249:0 250:0 251:0 252:0 253:0 254:0 255:0 256:2 257:0 258:0 259:0 260:0 261:0 262:2 263:0 264:0 265:0 266:0 267:0 268:0 269:2 270:0 271:0 272:0 273:0 274:0 275:0 276:0 277:0 278:0 279:0 280:0 281:0 282:0 283:0 284:0 285:0 286:0 287:0 288:0 289:0 290:0 291:0 292:0 293:0 294:0 295:0 296:0 297:0 298:0 299:0 300:0 301:0 302:2 303:0 304:0 305:0 306:4 307:0 308:0 309:0 310:0 311:0 312:2 313:0 314:0 315:0 316:0 317:0 318:0 319:0 320:0 321:0 322:0 323:0 324:0 325:0 326:0 327:0 328:0 329:0 330:0 331:0 332:0 333:0 334:0 335:0 336:0 337:0 338:0 339:2 340:0 341:0 342:2 343:0 344:0 345:2 346:0 347:0 348:0 349:0 350:0 351:0 352:0 353:0 354:0 355:0 356:0 357:0 358:0 359:0 360:0 361:0 362:0 363:0 364:0 365:0 366:0 367:0 368:0 369:0 370:0 371:0 372:0 373:0 374:0 375:0 376:2 377:0 378:0 379:0 380:0 381:0 382:0 383:0 384:0 385:2 386:0 387:0 388:0 389:0 390:0 391:0 392:0 393:0 394:0 395:0 396:0 397:0 398:2 399:0 400:0 #
-7 1:1.1900001 2:0.59500003 3:0 4:0.59500003 5:0 6:2.9760001 7:0 8:0 9:0 10:1.1900001 11:0.59500003 12:0.59500003 13:0 14:0 15:0 16:0.59500003 17:2.9760001 18:1.1900001 19:0 20:0.59500003 21:1.1900001 22:0 23:0 24:0 25:0 26:0.59500003 27:0 28:0 29:0 30:0 31:0 32:0.59500003 33:1.1900001 34:0 35:0.59500003 36:1.1900001 37:0.59500003 38:0 39:0 40:0 41:1.1900001 42:0.59500003 43:0 44:0 45:1.1900001 46:0.59500003 47:0 48:0.59500003 49:0 50:0 51:0 52:0 53:0 54:0 55:0 56:0 57:0 58:0.59500003 59:0 60:0 61:0 62:0 63:0 64:0 65:0 66:0 67:0 68:0 69:0 70:0 71:0 72:0 73:0 74:0 75:0 76:0 77:0 78:0 79:0 80:0.59500003 81:0.59500003 82:0.59500003 83:0 84:0 85:0.59500003 86:0 87:0 88:0 89:0 90:0.59500003 91:0 92:0.59500003 93:0 94:0.59500003 95:0.59500003 96:0.59500003 97:0.59500003 98:0 99:0 100:0.59500003 101:1.1900001 102:0.59500003 103:0.59500003 104:0 105:1.1900001 106:1.786 107:0 108:0.59500003 109:0 110:0 111:0 112:0.59500003 113:0 114:0.59500003 115:1.786 116:1.1900001 117:0.59500003 118:0.59500003 119:0 120:0.59500003 121:0.59500003 122:0 123:0 124:0 125:0 126:0 127:0.59500003 128:0 129:0 130:0 131:0 132:0 133:0.59500003 134:0 135:0 136:0 137:0 138:0 139:0 140:0 141:0 142:0 143:0.59500003 144:0 145:0 146:0.59500003 147:0 148:0 149:0 150:0 151:0 152:0.59500003 153:0.59500003 154:0 155:0 156:0.59500003 157:1.1900001 158:0 159:0.59500003 160:0 161:0 162:0.59500003 163:0 164:0 165:0 166:0 167:0 168:0 169:0 170:0 171:0 172:0 173:0 174:0.59500003 175:0 176:0 177:0 178:0 179:0 180:0 181:1.786 182:0 183:0 184:0 185:0.59500003 186:0 187:0 188:0 189:0.59500003 190:0.59500003 191:0 192:0.59500003 193:0 194:0 195:0 196:1.1900001 197:0 198:0 199:0 200:0 201:0.59500003 202:0 203:0.59500003 204:0 205:0 206:0 207:0 208:0 209:0 210:0 211:0 212:0 213:0 214:0 215:0 216:0 217:0 218:0 219:0 220:0 221:0 222:1.1900001 223:0 224:0 225:0 226:1.1900001 227:0 228:0.59500003 229:0 230:0.59500003 231:0.59500003 232:1.1900001 233:0 234:0 235:0 236:1.1900001 237:0 238:0.59500003 239:0 240:0.59500003 241:1.786 242:0 243:0.59500003 244:0 245:0 246:0 247:0 248:0 249:0 250:0.59500003 251:0 252:0.59500003 253:0 254:0 255:0 256:0 257:0 258:0.59500003 259:0 260:0 261:0 262:0 263:0.59500003 264:0 265:0 266:0 267:0 268:0.59500003 269:0 270:0.59500003 271:0 272:0 273:0.59500003 274:0 275:0 276:0.59500003 277:0 278:0 279:0 280:0 281:0 282:0 283:0.59500003 284:0 285:0 286:0.59500003 287:0 288:1.1900001 289:0 290:0 291:0 292:0 293:0 294:0 295:0 296:0 297:0.59500003 298:0 299:0 300:0 301:1.786 302:1.786 303:0 304:0 305:0.59500003 306:0.59500003 307:0 308:0 309:0.59500003 310:0 311:0 312:1.1900001 313:0 314:0.59500003 315:0 316:1.1900001 317:0.59500003 318:0.59500003 319:0 320:0 321:0 322:0 323:0 324:0 325:1.1900001 326:1.786 327:0.59500003 328:0.59500003 329:0 330:0.59500003 331:0 332:0.59500003 333:0 334:0 335:0 336:1.1900001 337:0 338:0.59500003 339:0 340:0 341:1.1900001 342:0 343:0 344:0 345:0.59500003 346:0.59500003 347:0 348:0.59500003 349:0 350:0.59500003 351:0 352:0 353:0.59500003 354:0 355:0 356:0 357:0 358:0 359:0.59500003 360:0 361:0 362:0 363:0 364:0 365:0 366:0.59500003 367:0 368:0 369:0 370:0 371:0 372:0 373:0.59500003 374:0 375:0 376:0 377:0 378:0 379:0 380:0 381:0 382:0 383:0.59500003 384:0 385:0 386:0 387:0.59500003 388:0 389:0 390:0 391:0 392:0.59500003 393:0 394:0.59500003 395:0 396:0 397:0.59500003 398:0 399:0 400:0 #
-7 1:1.786 2:0 3:0 4:0.59500003 5:0 6:1.1900001 7:0 8:0.59500003 9:0 10:1.1900001 11:0.59500003 12:0 13:0 14:0 15:0 16:1.1900001 17:1.786 18:0.59500003 19:0 20:0.59500003 21:0.59500003 22:0 23:0 24:0 25:0 26:0.59500003 27:0 28:0 29:0 30:0 31:0 32:0.59500003 33:1.1900001 34:0.59500003 35:0.59500003 36:1.1900001 37:0.59500003 38:0 39:0 40:0 41:1.1900001 42:0.59500003 43:0 44:0 45:0.59500003 46:0 47:0 48:0.59500003 49:0 50:0 51:0.59500003 52:0 53:0.59500003 54:0.59500003 55:0 56:0.59500003 57:0 58:0.59500003 59:0 60:0.59500003 61:0 62:0 63:0 64:0 65:0.59500003 66:0 67:0.59500003 68:0 69:0 70:0 71:0 72:0 73:0 74:0 75:0 76:0 77:0 78:0 79:0 80:0 81:0.59500003 82:0.59500003 83:0 84:0 85:0 86:0 87:0 88:0 89:0 90:0.59500003 91:0 92:0.59500003 93:0 94:0 95:0 96:1.1900001 97:0.59500003 98:0 99:0 100:0 101:0.59500003 102:0.59500003 103:1.1900001 104:0.59500003 105:0 106:2.381 107:0 108:0 109:0 110:0 111:0 112:0 113:0 114:1.786 115:1.1900001 116:1.1900001 117:0.59500003 118:0 119:0 120:0.59500003 121:0 122:0 123:0.59500003 124:0 125:0 126:0 127:0 128:0 129:0 130:0 131:0 132:0 133:0 134:0.59500003 135:0 136:0.59500003 137:0 138:0 139:0 140:0 141:0 142:0 143:0.59500003 144:0 145:0 146:0.59500003 147:0 148:0 149:0 150:0 151:0 152:0 153:0.59500003 154:0 155:0 156:0.59500003 157:1.1900001 158:0 159:0.59500003 160:0 161:0 162:0 163:0 164:0 165:0 166:0 167:0 168:0 169:0 170:0 171:0 172:0 173:0 174:0 175:0 176:0 177:0.59500003 178:0 179:0 180:0 181:1.786 182:0 183:0.59500003 184:0 185:0.59500003 186:0 187:0 188:0 189:0 190:1.1900001 191:0 192:0.59500003 193:0 194:0.59500003 195:0 196:1.1900001 197:0 198:0 199:0 200:0 201:0.59500003 202:0 203:0.59500003 204:0 205:0 206:0 207:0 208:0 209:0 210:0 211:0 212:0 213:0 214:0 215:0 216:0 217:0 218:0 219:0 220:0 221:0 222:0.59500003 223:0 224:0 225:0 226:0.59500003 227:0 228:0 229:0 230:0.59500003 231:0 232:0.59500003 233:0 234:0 235:0 236:1.1900001 237:0.59500003 238:0.59500003 239:0 240:0.59500003 241:1.786 242:0 243:1.1900001 244:0 245:0 246:0 247:0 248:0 249:0.59500003 250:0.59500003 251:0 252:0 253:0 254:0 255:0 256:0 257:0 258:0.59500003 259:0 260:0 261:0 262:0.59500003 263:0 264:0 265:0 266:0.59500003 267:0 268:0.59500003 269:0 270:0.59500003 271:0 272:0 273:1.1900001 274:0.59500003 275:0 276:0 277:1.1900001 278:0 279:0 280:0 281:0 282:0 283:0.59500003 284:0 285:0 286:0 287:0 288:0.59500003 289:0 290:0 291:0 292:0 293:0 294:0 295:0 296:0 297:0.59500003 298:0 299:0 300:0 301:1.1900001 302:2.9760001 303:0 304:0 305:0.59500003 306:1.786 307:0 308:0.59500003 309:0 310:0 311:0 312:0.59500003 313:0 314:0 315:0 316:1.1900001 317:1.1900001 318:0.59500003 319:0 320:0 321:0 322:0 323:0 324:0 325:1.1900001 326:1.786 327:0.59500003 328:0.59500003 329:0 330:1.1900001 331:0 332:1.786 333:0 334:0 335:0 336:0.59500003 337:0 338:1.1900001 339:0.59500003 340:0 341:0 342:0 343:0 344:0 345:0.59500003 346:0.59500003 347:0 348:0.59500003 349:0 350:0.59500003 351:0 352:0 353:0.59500003 354:0 355:0 356:0 357:0 358:0 359:0.59500003 360:0.59500003 361:0 362:0 363:0 364:0 365:0 366:0.59500003 367:0 368:0 369:0 370:0 371:0 372:0 373:0.59500003 374:0 375:0 376:0 377:0.59500003 378:0 379:0 380:0 381:0 382:0 383:0.59500003 384:0 385:0 386:0 387:0.59500003 388:0 389:0 390:0 391:0 392:0.59500003 393:0 394:0.59500003 395:0 396:0 397:0.59500003 398:0 399:0 400:0.59500003 #
-4.2497939065112779744026738626417 1:0 2:0 3:0 4:0 5:0 6:0 7:0 8:3.448 9:0 10:0 11:0 12:0 13:0 14:0 15:0 16:0 17:0 18:0 19:0 20:0 21:0 22:0 23:0 24:0 25:0 26:3.448 27:0 28:3.448 29:3.448 30:0 31:0 32:0 33:0 34:0 35:0 36:3.448 37:0 38:3.448 39:0 40:3.448 41:0 42:0 43:0 44:0 45:0 46:0 47:0 48:0 49:0 50:0 51:0 52:0 53:0 54:0 55:0 56:0 57:0 58:0 59:0 60:0 61:0 62:0 63:0 64:0 65:0 66:0 67:0 68:0 69:0 70:0 71:0 72:0 73:0 74:0 75:0 76:3.448 77:0 78:0 79:0 80:0 81:0 82:0 83:0 84:0 85:0 86:0 87:0 88:0 89:0 90:0 91:0 92:0 93:0 94:0 95:0 96:0 97:0 98:0 99:0 100:0 101:3.448 102:3.448 103:0 104:3.448 105:0 106:0 107:0 108:3.448 109:0 110:0 111:0 112:0 113:0 114:0 115:0 116:0 117:0 118:0 119:0 120:0 121:0 122:0 123:0 124:0 125:0 126:0 127:0 128:0 129:0 130:0 131:0 132:0 133:0 134:0 135:0 136:0 137:0 138:0 139:0 140:0 141:0 142:0 143:0 144:0 145:0 146:3.448 147:0 148:0 149:0 150:0 151:0 152:0 153:6.8969998 154:0 155:0 156:3.448 157:0 158:0 159:0 160:0 161:0 162:0 163:0 164:0 165:0 166:0 167:0 168:0 169:0 170:0 171:0 172:3.448 173:0 174:0 175:0 176:3.448 177:0 178:3.448 179:0 180:0 181:0 182:0 183:0 184:0 185:0 186:0 187:0 188:0 189:0 190:0 191:0 192:0 193:0 194:0 195:0 196:0 197:0 198:0 199:0 200:0 201:0 202:0 203:0 204:0 205:0 206:0 207:0 208:0 209:0 210:0 211:0 212:0 213:0 214:0 215:0 216:0 217:0 218:0 219:0 220:0 221:0 222:0 223:0 224:0 225:0 226:0 227:0 228:0 229:0 230:0 231:0 232:0 233:0 234:0 235:0 236:0 237:0 238:0 239:0 240:0 241:0 242:6.8969998 243:0 244:0 245:0 246:0 247:0 248:0 249:0 250:0 251:0 252:0 253:0 254:0 255:0 256:0 257:0 258:0 259:0 260:0 261:0 262:0 263:0 264:0 265:0 266:0 267:0 268:0 269:0 270:0 271:0 272:0 273:0 274:0 275:0 276:0 277:0 278:0 279:0 280:0 281:0 282:0 283:0 284:0 285:0 286:0 287:0 288:0 289:0 290:0 291:0 292:0 293:0 294:0 295:0 296:0 297:0 298:0 299:0 300:0 301:0 302:6.8969998 303:0 304:0 305:0 306:3.448 307:0 308:0 309:3.448 310:0 311:0 312:0 313:0 314:0 315:0 316:0 317:0 318:0 319:0 320:0 321:0 322:0 323:0 324:0 325:0 326:0 327:0 328:0 329:0 330:0 331:0 332:0 333:0 334:0 335:0 336:0 337:0 338:0 339:0 340:0 341:0 342:3.448 343:0 344:0 345:0 346:0 347:0 348:0 349:0 350:0 351:0 352:0 353:0 354:0 355:0 356:0 357:0 358:0 359:3.448 360:0 361:0 362:0 363:0 364:0 365:0 366:0 367:0 368:3.448 369:0 370:0 371:0 372:0 373:0 374:0 375:0 376:0 377:0 378:0 379:0 380:0 381:0 382:0 383:0 384:0 385:0 386:0 387:0 388:0 389:3.448 390:0 391:0 392:0 393:0 394:0 395:0 396:0 397:0 398:0 399:0 400:0 #
4.6167992773850485832554113585502 1:1.974 2:0.65799999 3:0.65799999 4:0.65799999 5:1.316 6:0.65799999 7:0 8:0 9:0 10:0 11:0 12:1.316 13:0 14:0 15:0 16:0 17:0 18:0 19:0 20:0 21:0.65799999 22:0 23:1.316 24:0 25:1.316 26:1.316 27:0 28:0.65799999 29:0 30:0.65799999 31:0 32:1.316 33:0 34:0 35:0 36:0 37:1.316 38:0 39:0 40:0 41:0 42:0 43:0 44:0 45:0 46:0.65799999 47:0 48:0 49:0.65799999 50:0 51:0 52:0 53:1.316 54:0 55:0 56:0 57:0 58:0.65799999 59:0 60:0 61:0.65799999 62:0 63:0 64:0 65:0 66:0 67:0 68:1.316 69:0 70:0.65799999 71:1.316 72:0 73:0 74:0 75:0 76:0 77:2.632 78:0 79:0 80:0 81:0 82:0 83:0 84:0 85:0 86:1.974 87:0 88:0 89:0 90:1.316 91:0 92:0 93:0 94:0 95:0 96:0 97:0 98:0.65799999 99:0 100:0 101:1.316 102:1.316 103:0 104:1.316 105:0 106:1.316 107:0 108:0 109:0 110:2.632 111:0 112:0 113:0 114:0 115:0 116:0 117:1.316 118:1.316 119:0 120:0 121:0 122:0 123:0 124:0 125:0 126:0 127:0 128:0 129:0 130:0 131:0 132:0 133:0 134:0 135:0 136:0 137:0 138:0 139:0 140:0 141:0.65799999 142:1.316 143:0 144:0 145:0 146:0 147:0 148:0 149:0 150:0.65799999 151:0 152:0 153:0 154:0.65799999 155:0 156:0 157:0 158:0 159:0 160:0 161:0.65799999 162:0 163:0 164:1.316 165:0 166:1.974 167:0 168:0 169:0 170:0 171:0 172:0 173:0 174:0 175:0 176:1.316 177:0.65799999 178:0 179:0 180:0 181:0.65799999 182:0.65799999 183:0 184:0 185:0 186:0 187:0 188:0 189:3.289 190:1.316 191:0 192:0 193:2.632 194:0 195:0 196:0.65799999 197:1.316 198:0.65799999 199:0 200:0 201:0 202:0 203:0 204:0 205:1.316 206:0 207:0 208:0 209:0 210:0 211:0 212:0 213:0 214:1.316 215:0 216:0 217:0 218:0 219:0 220:0 221:0 222:0 223:0 224:0.65799999 225:0 226:0.65799999 227:0 228:0.65799999 229:0 230:0 231:0 232:0 233:0 234:0 235:0 236:0 237:1.316 238:0.65799999 239:0 240:0 241:0 242:0 243:0.65799999 244:0 245:0 246:1.316 247:0 248:0.65799999 249:0 250:0 251:0 252:0 253:0 254:0 255:0.65799999 256:0 257:0 258:1.974 259:1.316 260:0 261:0 262:0 263:0 264:0 265:0 266:0 267:0 268:0 269:0 270:1.316 271:0 272:0 273:0 274:0 275:0.65799999 276:0 277:0 278:0 279:0 280:0 281:0.65799999 282:0 283:0.65799999 284:0.65799999 285:0 286:0 287:0 288:0 289:0 290:0 291:0 292:0.65799999 293:0 294:0 295:0.65799999 296:0 297:0 298:0 299:0 300:0 301:0 302:0 303:0 304:1.974 305:0 306:0 307:0 308:0 309:0 310:0.65799999 311:0 312:0 313:0 314:0 315:0 316:0.65799999 317:0 318:0 319:0 320:0 321:0 322:2.632 323:0 324:0 325:0 326:0 327:0 328:0 329:0 330:1.316 331:1.316 332:0 333:1.316 334:0 335:1.316 336:0.65799999 337:1.316 338:0 339:0 340:0 341:0.65799999 342:1.974 343:0 344:0 345:0 346:0.65799999 347:0 348:0 349:1.316 350:0.65799999 351:0 352:0.65799999 353:0 354:0 355:0 356:0 357:0 358:0.65799999 359:0 360:0 361:0 362:0 363:0 364:0 365:0 366:0 367:0 368:0 369:0 370:0 371:0 372:0 373:1.316 374:0 375:0 376:0 377:0 378:0 379:0 380:0 381:0 382:0 383:0 384:0 385:0 386:0 387:0 388:0 389:0 390:0 391:0 392:0 393:0 394:0 395:0 396:0 397:0 398:0 399:0 400:0 #
0.093605011252253511599974444834515 1:0.41999999 2:1.681 3:0 4:0.41999999 5:0 6:1.681 7:0 8:0 9:0 10:0 11:0 12:1.261 13:0.41999999 14:0 15:0.41999999 16:0.83999997 17:0.41999999 18:0.41999999 19:0 20:0.83999997 21:0 22:0.41999999 23:0 24:0.41999999 25:0 26:0.41999999 27:0 28:0 29:0.83999997 30:0 31:0 32:0.83999997 33:2.1010001 34:0 35:0.41999999 36:0 37:0.41999999 38:0.83999997 39:0 40:0 41:0.83999997 42:0.83999997 43:0.41999999 44:0.41999999 45:0.83999997 46:1.261 47:0 48:0 49:0.41999999 50:0.41999999 51:0.41999999 52:0 53:0 54:0.83999997 55:0 56:0 57:0 58:0.41999999 59:0 60:0.41999999 61:0 62:0 63:0 64:0 65:0.41999999 66:0 67:0 68:0.41999999 69:0 70:0.41999999 71:0 72:0 73:0 74:0 75:0.41999999 76:0 77:0.83999997 78:0 79:0 80:0 81:0 82:0.41999999 83:0.41999999 84:0.41999999 85:0 86:0 87:0 88:0.41999999 89:0.41999999 90:0.41999999 91:0 92:0.41999999 93:0 94:0 95:0 96:0 97:1.261 98:0 99:0.41999999 100:0.41999999 101:1.261 102:0.83999997 103:1.681 104:0 105:0.41999999 106:2.5209999 107:0 108:0.83999997 109:0.41999999 110:0.41999999 111:0 112:0.41999999 113:0.41999999 114:0.41999999 115:0.83999997 116:0.41999999 117:0.41999999 118:0.41999999 119:0.41999999 120:0.41999999 121:0 122:0 123:0 124:0 125:0 126:0 127:0 128:0.41999999 129:0 130:0 131:0 132:0 133:0 134:0 135:0 136:0 137:0 138:0 139:0 140:0 141:0.41999999 142:0 143:0 144:0 145:0.41999999 146:0 147:0.41999999 148:0 149:0 150:0.41999999 151:0 152:0 153:0 154:0 155:0.41999999 156:0.41999999 157:0.83999997 158:0 159:0 160:0 161:0 162:0 163:0.41999999 164:0 165:0 166:0 167:0 168:0 169:0 170:0.83999997 171:0 172:0.41999999 173:0.41999999 174:0 175:0 176:0.41999999 177:0 178:0.41999999 179:0 180:0.41999999 181:0.83999997 182:0 183:0 184:0 185:0.41999999 186:0.83999997 187:0 188:0 189:0.41999999 190:0 191:0 192:0.41999999 193:0 194:0 195:0.83999997 196:0 197:0.83999997 198:1.261 199:0 200:0 201:0.83999997 202:0 203:0.41999999 204:0 205:0 206:0 207:0 208:0 209:0 210:0.41999999 211:0 212:0 213:0 214:0 215:0 216:0 217:0 218:0 219:0 220:0 221:0.83999997 222:0.41999999 223:0.41999999 224:0 225:0.41999999 226:0.83999997 227:0 228:0.41999999 229:0 230:0 231:0 232:0.83999997 233:0 234:0 235:0 236:0 237:0.41999999 238:0.83999997 239:0 240:0.41999999 241:0.41999999 242:0 243:0.83999997 244:0.41999999 245:0 246:0.41999999 247:0 248:0 249:0.41999999 250:0 251:0 252:0 253:0.83999997 254:0 255:0 256:0.41999999 257:0.83999997 258:0.41999999 259:0 260:0 261:0 262:0 263:0 264:0 265:0 266:0.41999999 267:0 268:0 269:0 270:0.41999999 271:0 272:0.41999999 273:0 274:0 275:0 276:0 277:0 278:0 279:0 280:0.41999999 281:0 282:0.83999997 283:0 284:0 285:0.83999997 286:0.41999999 287:0 288:0.41999999 289:0 290:0 291:0 292:0.41999999 293:0.41999999 294:0.41999999 295:0 296:0 297:0.41999999 298:0 299:0 300:0 301:0.41999999 302:0 303:0.41999999 304:0 305:0 306:2.1010001 307:0 308:0.41999999 309:0 310:0.41999999 311:0 312:0 313:0 314:0 315:0.83999997 316:0.41999999 317:0.41999999 318:0 319:0 320:0.41999999 321:0.41999999 322:0.83999997 323:1.261 324:0 325:0.83999997 326:1.261 327:0 328:0 329:0 330:1.681 331:0 332:0 333:0.41999999 334:0 335:0 336:0.83999997 337:0.41999999 338:0.41999999 339:0 340:0 341:0.41999999 342:0 343:0.41999999 344:0 345:0.41999999 346:0.41999999 347:0 348:0 349:0.41999999 350:0 351:0.83999997 352:0 353:0.41999999 354:0 355:0 356:0.83999997 357:0.83999997 358:0.41999999 359:0.41999999 360:0 361:0.83999997 362:0 363:0 364:0 365:0 366:0 367:0 368:0 369:0 370:0 371:0 372:0 373:0 374:0 375:0 376:0.41999999 377:0 378:0 379:0 380:0 381:0.83999997 382:0.41999999 383:0.83999997 384:0.41999999 385:0 386:0 387:0 388:0 389:0 390:0 391:0 392:0.41999999 393:0 394:0 395:0 396:0.83999997 397:0 398:0 399:0 400:0 #
0.53241387322419253536054384312592 1:1.299 2:0 3:0.64899999 4:0.64899999 5:1.299 6:0.64899999 7:0 8:0 9:0.64899999 10:0 11:0 12:1.299 13:0 14:0 15:0 16:0 17:0 18:0 19:0 20:0 21:0 22:0 23:0.64899999 24:0 25:1.299 26:1.299 27:0 28:0 29:0 30:0.64899999 31:0 32:1.299 33:0 34:0 35:0 36:1.299 37:1.948 38:0 39:0 40:0 41:0 42:0 43:0 44:0 45:0 46:0.64899999 47:0 48:0 49:0.64899999 50:0 51:0 52:0 53:0.64899999 54:0 55:0 56:0 57:0 58:0 59:0 60:0 61:0.64899999 62:0 63:0 64:0 65:0 66:0 67:0 68:1.299 69:0 70:0.64899999 71:1.299 72:0 73:0 74:0 75:0 76:0 77:2.5969999 78:0 79:0 80:0 81:0 82:0 83:0 84:0 85:0 86:1.948 87:0 88:0 89:0 90:1.299 91:0 92:0 93:0 94:0 95:0 96:0 97:0.64899999 98:0.64899999 99:0 100:0 101:1.299 102:1.299 103:0 104:1.299 105:0 106:1.299 107:0 108:0 109:0 110:2.5969999 111:0 112:0 113:0 114:0 115:0 116:0 117:1.299 118:1.299 119:0 120:0 121:0 122:0 123:0 124:0 125:0 126:0 127:0 128:0 129:0 130:0 131:0 132:0 133:0 134:0 135:0 136:0 137:0 138:0 139:0 140:0 141:0.64899999 142:1.299 143:0 144:0 145:0 146:0 147:0 148:0 149:0 150:0.64899999 151:0 152:0 153:0 154:0.64899999 155:0 156:0 157:0 158:0 159:0 160:0 161:0.64899999 162:0 163:0 164:1.299 165:0.64899999 166:1.948 167:0 168:0 169:0 170:0 171:0 172:0 173:0 174:0 175:0.64899999 176:1.948 177:0 178:0 179:0 180:0 181:0.64899999 182:0.64899999 183:0 184:0 185:0 186:0 187:0 188:0 189:3.247 190:1.299 191:0 192:0 193:2.5969999 194:0 195:0 196:0.64899999 197:1.299 198:0.64899999 199:0 200:0 201:0.64899999 202:0 203:0 204:0 205:1.299 206:0 207:0 208:0 209:0 210:0 211:0 212:0 213:0 214:1.299 215:0 216:0 217:0 218:0 219:0 220:0 221:0 222:0 223:0 224:0.64899999 225:0 226:0.64899999 227:0 228:0.64899999 229:0 230:0 231:0 232:0 233:0 234:0 235:0 236:0 237:1.299 238:0.64899999 239:0 240:0 241:0 242:0 243:0 244:0 245:0 246:1.299 247:0 248:1.299 249:0.64899999 250:0 251:0 252:0 253:0 254:0 255:0 256:0.64899999 257:1.299 258:0 259:0.64899999 260:0 261:0 262:0 263:0 264:0 265:0 266:0 267:0 268:0 269:0 270:1.299 271:0 272:0 273:0 274:0 275:0.64899999 276:0 277:0 278:0 279:0 280:0 281:0.64899999 282:0 283:0.64899999 284:0.64899999 285:0 286:0 287:0 288:0 289:0 290:0 291:0 292:0.64899999 293:0 294:0 295:0 296:0 297:0 298:0 299:0 300:0 301:0 302:0.64899999 303:0 304:1.948 305:0 306:0 307:0 308:0 309:0 310:0.64899999 311:0 312:0 313:0 314:0 315:0 316:1.948 317:0 318:0 319:0.64899999 320:0 321:0 322:4.5450001 323:0 324:0 325:0 326:0 327:0 328:0 329:0.64899999 330:1.299 331:1.299 332:0 333:1.299 334:0 335:1.299 336:0 337:1.299 338:0 339:0 340:0 341:0 342:0 343:0 344:0 345:0 346:0.64899999 347:0 348:0 349:1.299 350:0.64899999 351:0 352:0.64899999 353:0 354:0 355:0 356:0 357:0 358:0.64899999 359:0 360:0 361:0 362:0 363:0 364:0 365:0 366:0 367:0 368:0 369:0 370:0 371:0 372:0 373:1.299 374:0 375:0 376:0 377:0 378:0 379:0 380:0 381:0 382:0 383:0 384:0 385:0 386:0 387:0 388:0 389:0 390:0 391:0 392:0 393:0 394:0 395:0 396:0 397:0 398:0 399:0 400:0 #
-7 1:0.41 2:1.23 3:0.41 4:0.41 5:0 6:0.41 7:0.41 8:0.81999999 9:0 10:0 11:0 12:0.41 13:0 14:0 15:0.41 16:2.049 17:1.23 18:0.41 19:0 20:0.81999999 21:0.81999999 22:0.41 23:0 24:0 25:0 26:0 27:0 28:0 29:0 30:0.41 31:0.41 32:0.81999999 33:2.4590001 34:0 35:0 36:0.41 37:0.41 38:0.41 39:0 40:0 41:0.81999999 42:0.81999999 43:0.41 44:0 45:0.41 46:0.81999999 47:0 48:0 49:0.41 50:0 51:0 52:0 53:0 54:0.41 55:0 56:0 57:0.41 58:0.41 59:0 60:0 61:0 62:0 63:0 64:0 65:0.41 66:0 67:0 68:0.41 69:0 70:0.81999999 71:0 72:0 73:0 74:0 75:0 76:0 77:0.41 78:0 79:0 80:0 81:0 82:0.41 83:0 84:0.41 85:0 86:0.81999999 87:0.41 88:0 89:0.41 90:0 91:0 92:0.81999999 93:0 94:0.41 95:0 96:0 97:0.41 98:0.41 99:0.41 100:0.41 101:0.81999999 102:0.41 103:0.41 104:0 105:0.81999999 106:2.049 107:0 108:0 109:0.41 110:0 111:0 112:0.41 113:0.41 114:0.81999999 115:0.41 116:0.81999999 117:1.6390001 118:0 119:0 120:0 121:0.41 122:0 123:0 124:0 125:0 126:0 127:0 128:0 129:0 130:0 131:0 132:0.41 133:0 134:0 135:0 136:0 137:0 138:0 139:0 140:0 141:0 142:0 143:0 144:0 145:0.41 146:0 147:0 148:0 149:0 150:0.41 151:0 152:0 153:0.81999999 154:0 155:0 156:0.41 157:0.41 158:0 159:0 160:0 161:0 162:0 163:0 164:0 165:0.81999999 166:0.41 167:0 168:0 169:0.41 170:0 171:0 172:0.41 173:0.41 174:0 175:0.41 176:0 177:0.81999999 178:0 179:0 180:0 181:0.81999999 182:0 183:0.41 184:0 185:0 186:0 187:0 188:0 189:0 190:0 191:0 192:0 193:0.41 194:0.41 195:0 196:2.049 197:0.81999999 198:0.81999999 199:0 200:0 201:0 202:0.41 203:0 204:0 205:0 206:0 207:0 208:0 209:0.41 210:0 211:0.41 212:0 213:0 214:0 215:0 216:0.41 217:0 218:0.41 219:0 220:0 221:0.81999999 222:0.41 223:0 224:0 225:0 226:1.6390001 227:0 228:0.41 229:0 230:0.41 231:0 232:0.41 233:0 234:0 235:0 236:0 237:0.41 238:0.41 239:0 240:0.81999999 241:1.23 242:0 243:0.41 244:0 245:0 246:0.41 247:0 248:0 249:0.41 250:0 251:0.81999999 252:0.41 253:1.23 254:1.6390001 255:0 256:0.41 257:0.41 258:0.41 259:0.41 260:0.41 261:0.41 262:0 263:0.41 264:0 265:0 266:0.41 267:0 268:0 269:0.81999999 270:0.81999999 271:0 272:0.41 273:0 274:0 275:0 276:0 277:0 278:0.41 279:0 280:0.41 281:0 282:0 283:0 284:0 285:0.41 286:0.41 287:0 288:0 289:0 290:0 291:0 292:0 293:0 294:0 295:0 296:0 297:0.41 298:0 299:0 300:0 301:0.41 302:0.41 303:0.81999999 304:0.81999999 305:1.23 306:0.81999999 307:0 308:0 309:0 310:1.23 311:0 312:0 313:0 314:0.41 315:0 316:0 317:0.81999999 318:0.81999999 319:0 320:0.41 321:0.81999999 322:0.81999999 323:0.41 324:0 325:0.81999999 326:1.23 327:0 328:0.81999999 329:0 330:1.23 331:0 332:0.41 333:2.049 334:0 335:0 336:0.41 337:0.41 338:0 339:0 340:0 341:0.41 342:0.81999999 343:0.41 344:0 345:0 346:0 347:0 348:0 349:0.41 350:0.41 351:0 352:0.41 353:0.41 354:0 355:0 356:0.41 357:0.41 358:1.23 359:0.41 360:0 361:0.41 362:0 363:0 364:0 365:0 366:0 367:0 368:0 369:0 370:0 371:0 372:0.41 373:0.41 374:0 375:0 376:0 377:0 378:0 379:0 380:0 381:0.81999999 382:0.41 383:0.81999999 384:0 385:0 386:0 387:0 388:0 389:0 390:0 391:0.41 392:0 393:0 394:0 395:0 396:0.81999999 397:0 398:0 399:0 400:0 #
-0.51327253881332302043460913409945 1:0 2:0 3:0 4:0 5:0 6:0 7:0 8:0 9:0 10:0 11:0 12:0 13:0 14:0 15:0 16:0 17:0 18:0 19:0 20:0 21:0 22:0 23:0 24:0 25:0 26:0 27:0 28:0 29:0 30:0 31:0 32:0 33:0 34:0 35:0 36:0 37:0 38:0 39:9.0909996 40:0 41:0 42:0 43:0 44:0 45:0 46:0 47:0 48:0 49:0 50:0 51:0 52:0 53:0 54:0 55:0 56:0 57:0 58:0 59:0 60:0 61:0 62:0 63:0 64:0 65:0 66:0 67:0 68:0 69:0 70:0 71:0 72:0 73:0 74:0 75:0 76:0 77:0 78:0 79:0 80:0 81:0 82:9.0909996 83:0 84:0 85:0 86:0 87:0 88:0 89:0 90:0 91:0 92:0 93:0 94:0 95:0 96:0 97:0 98:0 99:0 100:0 101:0 102:0 103:0 104:0 105:0 106:0 107:0 108:0 109:0 110:0 111:0 112:0 113:0 114:0 115:0 116:9.0909996 117:0 118:0 119:0 120:0 121:0 122:0 123:0 124:0 125:0 126:9.0909996 127:0 128:0 129:0 130:0 131:0 132:0 133:0 134:0 135:0 136:0 137:0 138:0 139:0 140:0 141:0 142:0 143:0 144:0 145:0 146:0 147:9.0909996 148:0 149:0 150:0 151:0 152:0 153:0 154:0 155:0 156:0 157:0 158:0 159:0 160:0 161:0 162:0 163:0 164:0 165:0 166:0 167:0 168:0 169:0 170:0 171:0 172:0 173:0 174:0 175:0 176:9.0909996 177:0 178:0 179:0 180:0 181:0 182:0 183:0 184:0 185:0 186:0 187:0 188:0 189:0 190:0 191:0 192:0 193:0 194:0 195:0 196:0 197:0 198:0 199:0 200:0 201:0 202:0 203:0 204:0 205:0 206:0 207:0 208:0 209:0 210:0 211:0 212:0 213:0 214:0 215:9.0909996 216:0 217:0 218:0 219:0 220:0 221:0 222:0 223:0 224:0 225:0 226:0 227:0 228:0 229:0 230:0 231:0 232:0 233:0 234:0 235:0 236:0 237:0 238:0 239:0 240:0 241:0 242:0 243:0 244:0 245:0 246:0 247:0 248:0 249:0 250:0 251:0 252:0 253:0 254:0 255:0 256:0 257:0 258:0 259:0 260:0 261:0 262:0 263:0 264:0 265:0 266:0 267:0 268:0 269:9.0909996 270:0 271:0 272:0 273:0 274:0 275:0 276:0 277:0 278:0 279:0 280:0 281:0 282:0 283:0 284:0 285:9.0909996 286:0 287:0 288:0 289:0 290:0 291:0 292:0 293:0 294:0 295:0 296:0 297:0 298:0 299:0 300:0 301:0 302:0 303:0 304:0 305:0 306:0 307:0 308:9.0909996 309:0 310:0 311:0 312:0 313:0 314:0 315:0 316:0 317:0 318:0 319:0 320:0 321:0 322:0 323:0 324:0 325:0 326:0 327:0 328:0 329:0 330:0 331:0 332:0 333:0 334:0 335:0 336:0 337:0 338:0 339:0 340:0 341:0 342:0 343:0 344:0 345:0 346:0 347:0 348:0 349:0 350:0 351:0 352:0 353:0 354:0 355:0 356:0 357:0 358:0 359:0 360:0 361:0 362:0 363:0 364:0 365:0 366:0 367:0 368:0 369:0 370:0 371:0 372:0 373:0 374:9.0909996 375:0 376:0 377:0 378:0 379:0 380:0 381:0 382:0 383:0 384:0 385:0 386:0 387:0 388:0 389:0 390:0 391:0 392:0 393:0 394:0 395:0 396:0 397:0 398:0 399:0 400:0 #
-2.0450635259432461410256109957118 1:0 2:0 3:0 4:0 5:0 6:0 7:0 8:0 9:0 10:0 11:0 12:0 13:0 14:0 15:0 16:0 17:0 18:0 19:0 20:0 21:0 22:1.031 23:1.031 24:1.031 25:1.031 26:1.031 27:0 28:0 29:0 30:1.031 31:0 32:0 33:0 34:0 35:2.062 36:0 37:0 38:0 39:1.031 40:0 41:0 42:0 43:1.031 44:0 45:0 46:0 47:0 48:0 49:0 50:0 51:1.031 52:0 53:0 54:0 55:1.031 56:0 57:1.031 58:0 59:0 60:1.031 61:0 62:1.031 63:1.031 64:0 65:0 66:2.062 67:0 68:0 69:0 70:0 71:0 72:0 73:0 74:0 75:0 76:0 77:0 78:0 79:0 80:0 81:0 82:0 83:0 84:0 85:0 86:0 87:0 88:1.031 89:0 90:2.062 91:0 92:0 93:0 94:0 95:0 96:0 97:1.031 98:0 99:1.031 100:0 101:0 102:1.031 103:0 104:0 105:0 106:3.0929999 107:0 108:0 109:1.031 110:4.1240001 111:0 112:0 113:2.062 114:0 115:1.031 116:1.031 117:0 118:0 119:0 120:1.031 121:0 122:0 123:0 124:0 125:0 126:0 127:0 128:0 129:0 130:0 131:0 132:0 133:0 134:0 135:0 136:0 137:1.031 138:0 139:0 140:0 141:0 142:0 143:0 144:0 145:2.062 146:1.031 147:0 148:0 149:0 150:0 151:0 152:0 153:0 154:0 155:1.031 156:0 157:0 158:0 159:0 160:0 161:0 162:0 163:0 164:0 165:0 166:0 167:0 168:0 169:0 170:0 171:0 172:2.062 173:0 174:0 175:1.031 176:0 177:1.031 178:0 179:0 180:0 181:0 182:2.062 183:1.031 184:1.031 185:0 186:0 187:0 188:2.062 189:1.031 190:1.031 191:0 192:0 193:0 194:0 195:0 196:2.062 197:0 198:1.031 199:0 200:0 201:0 202:0 203:0 204:1.031 205:0 206:0 207:0 208:0 209:0 210:0 211:0 212:0 213:0 214:0 215:1.031 216:0 217:0 218:0 219:0 220:0 221:0 222:0 223:0 224:0 225:0 226:2.062 227:0 228:0 229:0 230:2.062 231:0 232:0 233:0 234:0 235:0 236:0 237:0 238:0 239:0 240:0 241:0 242:1.031 243:0 244:0 245:0 246:1.031 247:0 248:1.031 249:0 250:0 251:0 252:1.031 253:2.062 254:0 255:0 256:1.031 257:0 258:0 259:0 260:0 261:0 262:0 263:0 264:0 265:0 266:0 267:0 268:0 269:0 270:0 271:0 272:0 273:0 274:0 275:0 276:0 277:0 278:0 279:0 280:0 281:0 282:2.062 283:0 284:1.031 285:0 286:1.031 287:0 288:0 289:0 290:0 291:0 292:0 293:1.031 294:0 295:0 296:1.031 297:0 298:0 299:0 300:1.031 301:0 302:0 303:1.031 304:0 305:1.031 306:0 307:1.031 308:0 309:1.031 310:1.031 311:0 312:0 313:1.031 314:0 315:0 316:0 317:0 318:0 319:0 320:1.031 321:0 322:1.031 323:0 324:0 325:0 326:1.031 327:0 328:0 329:0 330:0 331:1.031 332:0 333:1.031 334:0 335:0 336:1.031 337:1.031 338:0 339:0 340:0 341:0 342:0 343:0 344:0 345:0 346:0 347:0 348:0 349:0 350:0 351:0 352:1.031 353:0 354:0 355:0 356:0 357:0 358:0 359:0 360:0 361:0 362:0 363:0 364:0 365:0 366:0 367:0 368:0 369:1.031 370:0 371:0 372:0 373:0 374:0 375:0 376:1.031 377:0 378:0 379:0 380:0 381:0 382:0 383:0 384:0 385:0 386:2.062 387:0 388:0 389:0 390:0 391:0 392:0 393:0 394:0 395:0 396:0 397:2.062 398:0 399:0 400:0 #
0.79847964416051342428914949778118 1:3.5710001 2:0 3:0 4:0 5:0 6:0 7:0 8:7.1430001 9:0 10:0 11:0 12:0 13:0 14:0 15:0 16:0 17:0 18:0 19:0 20:0 21:0 22:0 23:0 24:0 25:0 26:3.5710001 27:0 28:3.5710001 29:3.5710001 30:0 31:0 32:0 33:0 34:0 35:0 36:3.5710001 37:0 38:3.5710001 39:0 40:3.5710001 41:0 42:0 43:0 44:0 45:0 46:0 47:0 48:0 49:0 50:0 51:0 52:0 53:0 54:0 55:0 56:0 57:0 58:0 59:0 60:0 61:0 62:0 63:0 64:0 65:0 66:0 67:0 68:0 69:0 70:0 71:0 72:0 73:0 74:0 75:0 76:3.5710001 77:0 78:0 79:0 80:0 81:0 82:0 83:0 84:0 85:0 86:0 87:0 88:0 89:0 90:0 91:0 92:0 93:0 94:0 95:0 96:0 97:0 98:0 99:0 100:0 101:0 102:3.5710001 103:0 104:3.5710001 105:0 106:0 107:0 108:0 109:0 110:0 111:0 112:0 113:0 114:0 115:0 116:0 117:0 118:0 119:0 120:0 121:0 122:0 123:0 124:0 125:0 126:0 127:0 128:0 129:0 130:0 131:0 132:0 133:0 134:0 135:0 136:0 137:0 138:0 139:0 140:0 141:0 142:0 143:0 144:0 145:0 146:3.5710001 147:0 148:0 149:0 150:0 151:0 152:0 153:7.1430001 154:0 155:0 156:3.5710001 157:0 158:0 159:0 160:0 161:0 162:0 163:0 164:0 165:0 166:0 167:0 168:0 169:0 170:0 171:0 172:3.5710001 173:0 174:0 175:0 176:0 177:0 178:3.5710001 179:0 180:0 181:0 182:0 183:0 184:0 185:0 186:0 187:0 188:0 189:0 190:0 191:0 192:0 193:0 194:0 195:0 196:0 197:0 198:0 199:0 200:0 201:0 202:0 203:0 204:0 205:0 206:0 207:0 208:0 209:0 210:0 211:0 212:0 213:0 214:0 215:0 216:0 217:0 218:0 219:0 220:0 221:0 222:0 223:0 224:0 225:0 226:0 227:0 228:0 229:3.5710001 230:0 231:0 232:0 233:0 234:0 235:0 236:0 237:0 238:0 239:0 240:0 241:0 242:7.1430001 243:0 244:0 245:0 246:0 247:0 248:0 249:0 250:0 251:0 252:0 253:0 254:0 255:0 256:0 257:0 258:0 259:0 260:0 261:0 262:0 263:0 264:0 265:0 266:0 267:0 268:0 269:0 270:0 271:0 272:0 273:0 274:0 275:0 276:0 277:0 278:0 279:0 280:0 281:0 282:0 283:0 284:0 285:0 286:0 287:0 288:0 289:0 290:0 291:0 292:0 293:0 294:0 295:0 296:0 297:0 298:0 299:0 300:0 301:3.5710001 302:7.1430001 303:0 304:0 305:0 306:0 307:0 308:0 309:0 310:0 311:0 312:0 313:0 314:0 315:0 316:0 317:0 318:0 319:0 320:0 321:0 322:0 323:0 324:0 325:0 326:0 327:0 328:0 329:0 330:0 331:0 332:0 333:0 334:0 335:0 336:0 337:0 338:0 339:0 340:0 341:0 342:3.5710001 343:0 344:0 345:0 346:0 347:0 348:0 349:0 350:0 351:0 352:0 353:0 354:0 355:0 356:0 357:0 358:0 359:3.5710001 360:0 361:0 362:0 363:0 364:0 365:0 366:0 367:0 368:3.5710001 369:0 370:0 371:0 372:0 373:0 374:0 375:0 376:0 377:0 378:0 379:0 380:0 381:0 382:0 383:0 384:0 385:0 386:0 387:0 388:0 389:0 390:0 391:0 392:0 393:0 394:0 395:3.5710001 396:0 397:0 398:0 399:0 400:0 #
1.4288885714419852224210671920446 1:3.5710001 2:0 3:0 4:0 5:0 6:0 7:0 8:7.1430001 9:0 10:0 11:0 12:0 13:0 14:0 15:0 16:0 17:0 18:0 19:0 20:0 21:0 22:0 23:0 24:0 25:0 26:3.5710001 27:0 28:3.5710001 29:3.5710001 30:0 31:0 32:0 33:0 34:0 35:0 36:3.5710001 37:0 38:3.5710001 39:0 40:3.5710001 41:0 42:0 43:0 44:0 45:0 46:0 47:0 48:0 49:0 50:0 51:0 52:0 53:0 54:0 55:0 56:0 57:0 58:0 59:0 60:0 61:0 62:0 63:0 64:0 65:0 66:0 67:0 68:0 69:0 70:0 71:0 72:0 73:0 74:0 75:0 76:3.5710001 77:0 78:0 79:0 80:0 81:0 82:0 83:0 84:0 85:0 86:0 87:0 88:0 89:0 90:0 91:0 92:0 93:0 94:0 95:0 96:0 97:0 98:0 99:0 100:0 101:0 102:3.5710001 103:0 104:3.5710001 105:0 106:0 107:0 108:0 109:0 110:0 111:0 112:0 113:0 114:0 115:0 116:0 117:0 118:0 119:0 120:0 121:0 122:0 123:0 124:0 125:0 126:0 127:0 128:0 129:0 130:0 131:0 132:0 133:0 134:0 135:0 136:0 137:0 138:0 139:0 140:0 141:0 142:0 143:0 144:0 145:0 146:3.5710001 147:0 148:0 149:0 150:0 151:0 152:0 153:7.1430001 154:0 155:0 156:3.5710001 157:0 158:0 159:0 160:0 161:0 162:0 163:0 164:0 165:0 166:0 167:0 168:0 169:0 170:0 171:0 172:3.5710001 173:0 174:0 175:0 176:0 177:0 178:3.5710001 179:0 180:0 181:0 182:0 183:0 184:0 185:0 186:0 187:0 188:0 189:0 190:0 191:0 192:0 193:0 194:0 195:0 196:0 197:0 198:0 199:0 200:0 201:0 202:0 203:0 204:0 205:0 206:0 207:0 208:0 209:0 210:0 211:0 212:0 213:0 214:0 215:0 216:0 217:0 218:0 219:0 220:0 221:0 222:0 223:0 224:0 225:0 226:0 227:0 228:0 229:0 230:0 231:0 232:0 233:0 234:0 235:0 236:0 237:0 238:0 239:0 240:0 241:0 242:7.1430001 243:0 244:0 245:0 246:0 247:0 248:0 249:0 250:0 251:0 252:0 253:0 254:0 255:0 256:0 257:0 258:0 259:0 260:0 261:0 262:0 263:0 264:0 265:0 266:0 267:0 268:0 269:0 270:0 271:0 272:0 273:0 274:0 275:0 276:0 277:0 278:0 279:0 280:0 281:3.5710001 282:0 283:0 284:0 285:0 286:0 287:0 288:0 289:0 290:0 291:0 292:0 293:0 294:0 295:0 296:0 297:0 298:0 299:0 300:0 301:3.5710001 302:7.1430001 303:0 304:0 305:0 306:0 307:0 308:0 309:0 310:0 311:0 312:0 313:0 314:0 315:0 316:0 317:0 318:0 319:0 320:0 321:0 322:0 323:0 324:0 325:0 326:0 327:0 328:0 329:0 330:0 331:0 332:0 333:0 334:0 335:0 336:0 337:0 338:0 339:0 340:0 341:0 342:3.5710001 343:0 344:0 345:0 346:0 347:0 348:0 349:0 350:0 351:0 352:0 353:0 354:0 355:0 356:0 357:0 358:0 359:3.5710001 360:0 361:0 362:0 363:0 364:0 365:0 366:0 367:0 368:3.5710001 369:0 370:0 371:0 372:0 373:0 374:0 375:0 376:0 377:0 378:0 379:0 380:0 381:0 382:0 383:0 384:0 385:0 386:0 387:0 388:0 389:0 390:0 391:0 392:0 393:0 394:0 395:3.5710001 396:0 397:0 398:0 399:0 400:0 #
0.43735872471147313467199069236813 1:0.68000001 2:0 3:0 4:0.68000001 5:0 6:1.3609999 7:0 8:0.68000001 9:0 10:1.3609999 11:0.68000001 12:0 13:0 14:0 15:0 16:0 17:1.3609999 18:0 19:0 20:0.68000001 21:0.68000001 22:0 23:0 24:0 25:0 26:0.68000001 27:0 28:0 29:0 30:0 31:0 32:0.68000001 33:1.3609999 34:0.68000001 35:0.68000001 36:1.3609999 37:0.68000001 38:0 39:0 40:0 41:1.3609999 42:0.68000001 43:0.68000001 44:0 45:0.68000001 46:0 47:0 48:0.68000001 49:0 50:0 51:0 52:0 53:0.68000001 54:0.68000001 55:0 56:0.68000001 57:0 58:0.68000001 59:0 60:0.68000001 61:0 62:0 63:0 64:0 65:0.68000001 66:0 67:0.68000001 68:0 69:0 70:0 71:0 72:0 73:0 74:0 75:0 76:0 77:0 78:0 79:0 80:0 81:0 82:0.68000001 83:0 84:0 85:0 86:0 87:0 88:0 89:0 90:0 91:0 92:0.68000001 93:0 94:0 95:0 96:1.3609999 97:0.68000001 98:0 99:0 100:0 101:0.68000001 102:0.68000001 103:1.3609999 104:0.68000001 105:0 106:2.721 107:0 108:0 109:0 110:0 111:0 112:0 113:0 114:2.0409999 115:1.3609999 116:1.3609999 117:0.68000001 118:0 119:0 120:0.68000001 121:0 122:0 123:0.68000001 124:0 125:0 126:0 127:0 128:0 129:0 130:0 131:0 132:0 133:0 134:0.68000001 135:0 136:0.68000001 137:0 138:0 139:0 140:0 141:0 142:0 143:0.68000001 144:0 145:0 146:0.68000001 147:0 148:0 149:0 150:0 151:0 152:0 153:0.68000001 154:0 155:0 156:0.68000001 157:1.3609999 158:0 159:0.68000001 160:0 161:0 162:0 163:0 164:0 165:0 166:0 167:0 168:0 169:0 170:0 171:0 172:0 173:0 174:0 175:0 176:0 177:0.68000001 178:0 179:0 180:0 181:1.3609999 182:0 183:0.68000001 184:0 185:0 186:0 187:0 188:0 189:0 190:0 191:0 192:0.68000001 193:0 194:0.68000001 195:0 196:1.3609999 197:0 198:0 199:0 200:0 201:0 202:0 203:0.68000001 204:0 205:0 206:0 207:0 208:0 209:0 210:0 211:0 212:0 213:0 214:0 215:0 216:0 217:0 218:0 219:0 220:0 221:0 222:0.68000001 223:0 224:0 225:0 226:0.68000001 227:0 228:0 229:0 230:0.68000001 231:0 232:0.68000001 233:0 234:0 235:0 236:1.3609999 237:0.68000001 238:0.68000001 239:0 240:0.68000001 241:2.0409999 242:0 243:1.3609999 244:0 245:0 246:0 247:0 248:0 249:0.68000001 250:0 251:0 252:0 253:0 254:0 255:0 256:0 257:0 258:0.68000001 259:0 260:0 261:0 262:0.68000001 263:0 264:0 265:0 266:0.68000001 267:0 268:0.68000001 269:0 270:0.68000001 271:0 272:0 273:1.3609999 274:0.68000001 275:0 276:0 277:1.3609999 278:0 279:0 280:0 281:0 282:0 283:0.68000001 284:0 285:0 286:0 287:0 288:0.68000001 289:0 290:0 291:0 292:0 293:0 294:0 295:0 296:0 297:0.68000001 298:0 299:0 300:0 301:0 302:3.401 303:0 304:0 305:0.68000001 306:2.0409999 307:0 308:0.68000001 309:0 310:0 311:0 312:0.68000001 313:0 314:0 315:0 316:0.68000001 317:0.68000001 318:0.68000001 319:0 320:0 321:0 322:0 323:0 324:0 325:1.3609999 326:2.0409999 327:0.68000001 328:0.68000001 329:0 330:2.0409999 331:0 332:2.0409999 333:0 334:0 335:0 336:0 337:0 338:0.68000001 339:0.68000001 340:0 341:0 342:0 343:0 344:0 345:0 346:0.68000001 347:0 348:0.68000001 349:0 350:0 351:0 352:0 353:0.68000001 354:0 355:0 356:0 357:0 358:0 359:0.68000001 360:0.68000001 361:0 362:0 363:0 364:0 365:0 366:0.68000001 367:0 368:0 369:0 370:0 371:0 372:0 373:0.68000001 374:0 375:0 376:0 377:0.68000001 378:0 379:0 380:0 381:0 382:0 383:0.68000001 384:0 385:0 386:0 387:0.68000001 388:0 389:0 390:0 391:0 392:0.68000001 393:0 394:0.68000001 395:0 396:0 397:0.68000001 398:0 399:0 400:0.68000001 #
