SVM-light Version V6.02
2 # kernel type
3 # kernel parameter -d 
0.0001 # kernel parameter -g 
1 # kernel parameter -s 
1 # kernel parameter -r 
empty# kernel parameter -u 
20 # highest feature index 
115 # number of training documents 
71 # number of support vectors plus 1 
-1.1145225 # threshold b, each following line is a SV (starting with alpha*y)
-7 1:9.302 2:0 3:4.651 4:6.9770002 5:9.302 6:9.302 7:2.326 8:2.326 9:0 10:13.953 11:2.326 12:0 13:4.651 14:6.9770002 15:2.326 16:6.9770002 17:9.302 18:4.651 19:0 20:4.651 #
-7 1:13.514 2:16.216 3:5.4050002 4:0 5:10.811 6:8.1079998 7:0 8:0 9:2.7030001 10:8.1079998 11:0 12:5.4050002 13:8.1079998 14:2.7030001 15:2.7030001 16:5.4050002 17:2.7030001 18:8.1079998 19:0 20:0 #
6.6286078685770064566895598545671 1:3.3329999 2:20 3:3.3329999 4:3.3329999 5:0 6:10 7:0 8:10 9:10 10:3.3329999 11:0 12:0 13:6.6669998 14:0 15:0 16:13.333 17:3.3329999 18:6.6669998 19:3.3329999 20:3.3329999 #
-7 1:4.4439998 2:17.778 3:6.6669998 4:4.4439998 5:2.2219999 6:8.8889999 7:0 8:2.2219999 9:13.333 10:11.111 11:0 12:0 13:4.4439998 14:0 15:8.8889999 16:8.8889999 17:4.4439998 18:0 19:0 20:2.2219999 #
21 1:6.9439998 2:12.5 3:4.1669998 4:6.9439998 5:8.3330002 6:6.9439998 7:2.7780001 8:1.3890001 9:5.5560002 10:11.111 11:2.7780001 12:4.1669998 13:1.3890001 14:1.3890001 15:6.9439998 16:2.7780001 17:6.9439998 18:4.1669998 19:1.3890001 20:1.3890001 #
9.0227979568158218626194866374135 1:6.6669998 2:20 3:0 4:3.3329999 5:0 6:6.6669998 7:0 8:6.6669998 9:0 10:6.6669998 11:0 12:6.6669998 13:6.6669998 14:0 15:3.3329999 16:10 17:6.6669998 18:10 19:0 20:6.6669998 #
21 1:3.306 2:0 3:5.7849998 4:2.4790001 5:4.9590001 6:18.181999 7:2.4790001 8:9.0909996 9:1.653 10:5.7849998 11:1.653 12:5.7849998 13:2.4790001 14:1.653 15:4.132 16:15.702 17:4.9590001 18:3.306 19:0 20:6.612 #
7.9995931856738025089725852012634 1:3.3329999 2:20 3:0 4:3.3329999 5:0 6:10 7:0 8:6.6669998 9:6.6669998 10:3.3329999 11:0 12:3.3329999 13:6.6669998 14:0 15:3.3329999 16:13.333 17:3.3329999 18:10 19:3.3329999 20:3.3329999 #
3.0039252916104999258095631375909 1:6.4520001 2:19.355 3:0 4:3.2260001 5:0 6:6.4520001 7:0 8:9.677 9:9.677 10:3.2260001 11:0 12:3.2260001 13:6.4520001 14:3.2260001 15:0 16:6.4520001 17:6.4520001 18:9.677 19:0 20:6.4520001 #
-7 1:3.2260001 2:19.355 3:0 4:3.2260001 5:3.2260001 6:9.677 7:0 8:9.677 9:6.4520001 10:3.2260001 11:0 12:3.2260001 13:6.4520001 14:0 15:3.2260001 16:12.903 17:0 18:12.903 19:0 20:3.2260001 #
-7 1:0 2:20.690001 3:0 4:3.448 5:0 6:17.240999 7:0 8:3.448 9:0 10:3.448 11:0 12:6.8969998 13:10.345 14:0 15:3.448 16:6.8969998 17:13.793 18:10.345 19:0 20:0 #
-7 1:3.3329999 2:20 3:0 4:3.3329999 5:3.3329999 6:16.667 7:0 8:0 9:13.333 10:0 11:0 12:6.6669998 13:6.6669998 14:0 15:0 16:6.6669998 17:6.6669998 18:10 19:3.3329999 20:0 #
21 1:25 2:0 3:2.5 4:0 5:7.5 6:5 7:2.5 8:2.5 9:2.5 10:7.5 11:2.5 12:12.5 13:5 14:5 15:7.5 16:5 17:5 18:2.5 19:0 20:0 #
21 1:5.4050002 2:16.216 3:10.811 4:2.7030001 5:2.7030001 6:10.811 7:0 8:2.7030001 9:2.7030001 10:5.4050002 11:0 12:2.7030001 13:5.4050002 14:0 15:8.1079998 16:5.4050002 17:10.811 18:5.4050002 19:0 20:2.7030001 #
-7 1:5.263 2:0 3:10.526 4:0 5:0 6:0 7:0 8:5.263 9:0 10:15.789 11:0 12:31.579 13:5.263 14:10.526 15:5.263 16:5.263 17:5.263 18:0 19:0 20:0 #
-5.1308818717198718672989343758672 1:10 2:0 3:20 4:0 5:0 6:10 7:0 8:0 9:0 10:0 11:0 12:20 13:20 14:0 15:0 16:10 17:0 18:10 19:0 20:0 #
-7 1:10 2:0 3:10 4:10 5:0 6:10 7:10 8:10 9:0 10:0 11:10 12:0 13:0 14:10 15:0 16:10 17:0 18:0 19:10 20:0 #
21 1:5 2:5 3:5 4:10 5:5 6:10 7:15 8:0 9:10 10:0 11:5 12:0 13:0 14:25 15:0 16:5 17:0 18:0 19:0 20:0 #
21 1:5.3330002 2:12 3:6.6669998 4:6.6669998 5:6.6669998 6:5.3330002 7:2.6670001 8:0 9:9.3330002 10:10.667 11:1.3329999 12:4 13:1.3329999 14:2.6670001 15:5.3330002 16:4 17:8 18:5.3330002 19:1.3329999 20:1.3329999 #
6.6802412395211376860970631241798 1:0 2:20.690001 3:0 4:3.448 5:3.448 6:13.793 7:0 8:3.448 9:10.345 10:3.448 11:0 12:3.448 13:10.345 14:0 15:0 16:6.8969998 17:10.345 18:3.448 19:0 20:6.8969998 #
-7 1:2.2219999 2:17.778 3:2.2219999 4:2.2219999 5:0 6:11.111 7:2.2219999 8:4.4439998 9:11.111 10:6.6669998 11:4.4439998 12:2.2219999 13:0 14:2.2219999 15:8.8889999 16:2.2219999 17:11.111 18:0 19:2.2219999 20:6.6669998 #
-7 1:6.6669998 2:20 3:0 4:3.3329999 5:3.3329999 6:10 7:0 8:13.333 9:6.6669998 10:0 11:0 12:3.3329999 13:6.6669998 14:0 15:3.3329999 16:6.6669998 17:6.6669998 18:6.6669998 19:0 20:3.3329999 #
-7 1:0 2:20.690001 3:0 4:3.448 5:0 6:17.240999 7:0 8:0 9:0 10:3.448 11:0 12:6.8969998 13:10.345 14:0 15:3.448 16:0 17:20.690001 18:10.345 19:3.448 20:0 #
10.044617005003850351840810617432 1:0 2:10 3:20 4:40 5:0 6:0 7:0 8:0 9:0 10:0 11:0 12:0 13:0 14:10 15:20 16:0 17:0 18:0 19:0 20:0 #
21 1:0 2:19.355 3:3.2260001 4:3.2260001 5:0 6:9.677 7:0 8:6.4520001 9:9.677 10:3.2260001 11:0 12:0 13:6.4520001 14:0 15:0 16:16.129 17:3.2260001 18:12.903 19:3.2260001 20:3.2260001 #
-7 1:15.789 2:0 3:0 4:10.526 5:10.526 6:0 7:5.263 8:5.263 9:0 10:5.263 11:0 12:10.526 13:5.263 14:15.789 15:0 16:5.263 17:0 18:0 19:0 20:10.526 #
-7 1:8.1630001 2:8.1630001 3:2.0409999 4:2.0409999 5:4.0819998 6:8.1630001 7:4.0819998 8:2.0409999 9:4.0819998 10:2.0409999 11:2.0409999 12:6.1220002 13:10.204 14:0 15:10.204 16:10.204 17:4.0819998 18:4.0819998 19:0 20:8.1630001 #
-7 1:9.302 2:0 3:4.651 4:6.9770002 5:6.9770002 6:9.302 7:2.326 8:4.651 9:0 10:9.302 11:2.326 12:0 13:4.651 14:6.9770002 15:2.326 16:11.628 17:9.302 18:4.651 19:0 20:4.651 #
21 1:0 2:20 3:3.3329999 4:3.3329999 5:3.3329999 6:16.667 7:0 8:3.3329999 9:0 10:3.3329999 11:0 12:6.6669998 13:13.333 14:0 15:3.3329999 16:0 17:13.333 18:6.6669998 19:3.3329999 20:0 #
-7 1:4.4439998 2:8.8889999 3:0 4:17.778 5:0 6:6.6669998 7:2.2219999 8:0 9:2.2219999 10:2.2219999 11:0 12:0 13:4.4439998 14:8.8889999 15:26.667 16:2.2219999 17:2.2219999 18:8.8889999 19:0 20:2.2219999 #
-7 1:0 2:20.690001 3:3.448 4:6.8969998 5:0 6:13.793 7:0 8:0 9:0 10:3.448 11:0 12:3.448 13:6.8969998 14:0 15:3.448 16:3.448 17:17.240999 18:10.345 19:3.448 20:3.448 #
-7 1:0 2:20.690001 3:3.448 4:3.448 5:0 6:13.793 7:0 8:0 9:0 10:3.448 11:0 12:3.448 13:10.345 14:0 15:3.448 16:3.448 17:17.240999 18:10.345 19:3.448 20:3.448 #
-7 1:3.3329999 2:20 3:6.6669998 4:3.3329999 5:3.3329999 6:16.667 7:0 8:0 9:0 10:0 11:0 12:6.6669998 13:13.333 14:0 15:0 16:0 17:16.667 18:6.6669998 19:3.3329999 20:0 #
6.0870799056176565500209107995033 1:10 2:10 3:10 4:10 5:0 6:0 7:0 8:0 9:10 10:10 11:0 12:10 13:0 14:0 15:10 16:0 17:10 18:0 19:0 20:10 #
7.2146727513013502175454050302505 1:10 2:0 3:10 4:10 5:0 6:0 7:0 8:0 9:10 10:10 11:0 12:10 13:0 14:10 15:0 16:0 17:20 18:0 19:0 20:10 #
-7 1:0 2:15.385 3:12.821 4:0 5:0 6:12.821 7:2.5639999 8:10.256 9:5.1279998 10:5.1279998 11:0 12:7.6919999 13:5.1279998 14:5.1279998 15:5.1279998 16:5.1279998 17:5.1279998 18:2.5639999 19:0 20:0 #
-7 1:5.882 2:17.646999 3:8.8240004 4:0 5:0 6:20.587999 7:0 8:2.941 9:8.8240004 10:2.941 11:0 12:2.941 13:5.882 14:0 15:8.8240004 16:8.8240004 17:0 18:2.941 19:0 20:2.941 #
-7 1:0 2:19.355 3:3.2260001 4:6.4520001 5:6.4520001 6:16.129 7:0 8:6.4520001 9:3.2260001 10:3.2260001 11:0 12:6.4520001 13:9.677 14:0 15:3.2260001 16:3.2260001 17:6.4520001 18:3.2260001 19:3.2260001 20:0 #
9.8095296361452710698358714580536 1:0 2:20.690001 3:0 4:3.448 5:0 6:17.240999 7:0 8:0 9:0 10:3.448 11:0 12:6.8969998 13:10.345 14:0 15:3.448 16:6.8969998 17:13.793 18:10.345 19:3.448 20:0 #
-7 1:0 2:20.690001 3:3.448 4:3.448 5:3.448 6:13.793 7:0 8:0 9:0 10:3.448 11:0 12:3.448 13:10.345 14:0 15:3.448 16:3.448 17:13.793 18:10.345 19:3.448 20:3.448 #
-7 1:3.2260001 2:19.355 3:3.2260001 4:6.4520001 5:0 6:9.677 7:0 8:0 9:3.2260001 10:3.2260001 11:3.2260001 12:0 13:6.4520001 14:0 15:6.4520001 16:6.4520001 17:6.4520001 18:19.355 19:3.2260001 20:0 #
-7 1:0 2:20 3:6.6669998 4:3.3329999 5:6.6669998 6:16.667 7:3.3329999 8:0 9:0 10:3.3329999 11:0 12:3.3329999 13:13.333 14:0 15:0 16:0 17:20 18:3.3329999 19:0 20:0 #
10.911884587318411377054871991277 1:0 2:17.391001 3:8.6960001 4:2.174 5:0 6:17.391001 7:2.174 8:2.174 9:0 10:0 11:0 12:4.348 13:4.348 14:2.174 15:8.6960001 16:15.217 17:0 18:0 19:4.348 20:10.87 #
-7 1:2.7030001 2:8.1079998 3:0 4:0 5:0 6:5.4050002 7:2.7030001 8:5.4050002 9:16.216 10:5.4050002 11:2.7030001 12:2.7030001 13:2.7030001 14:8.1079998 15:13.514 16:8.1079998 17:0 18:13.514 19:2.7030001 20:0 #
-7 1:2.7030001 2:10.811 3:4.0539999 4:1.351 5:5.4050002 6:6.757 7:2.7030001 8:6.757 9:6.757 10:10.811 11:4.0539999 12:6.757 13:0 14:8.1079998 15:2.7030001 16:2.7030001 17:9.4589996 18:5.4050002 19:0 20:2.7030001 #
-7 1:4.4439998 2:17.778 3:8.8889999 4:0 5:2.2219999 6:6.6669998 7:0 8:2.2219999 9:13.333 10:11.111 11:0 12:0 13:6.6669998 14:0 15:8.8889999 16:8.8889999 17:6.6669998 18:0 19:0 20:2.2219999 #
21 1:0 2:20.690001 3:3.448 4:3.448 5:3.448 6:17.240999 7:0 8:3.448 9:0 10:3.448 11:0 12:3.448 13:10.345 14:0 15:3.448 16:3.448 17:17.240999 18:3.448 19:3.448 20:0 #
-7 1:0 2:18.75 3:3.125 4:3.125 5:3.125 6:12.5 7:0 8:3.125 9:9.375 10:6.25 11:0 12:3.125 13:6.25 14:0 15:0 16:9.375 17:6.25 18:9.375 19:3.125 20:3.125 #
-7 1:6.4520001 2:19.355 3:3.2260001 4:3.2260001 5:3.2260001 6:12.903 7:0 8:3.2260001 9:9.677 10:3.2260001 11:0 12:0 13:9.677 14:0 15:0 16:12.903 17:3.2260001 18:0 19:3.2260001 20:6.4520001 #
-7 1:9.302 2:2.326 3:4.651 4:11.628 5:6.9770002 6:4.651 7:2.326 8:4.651 9:0 10:11.628 11:2.326 12:0 13:4.651 14:4.651 15:2.326 16:9.302 17:9.302 18:4.651 19:0 20:4.651 #
-7 1:5.882 2:17.646999 3:8.8240004 4:0 5:0 6:20.587999 7:0 8:2.941 9:5.882 10:2.941 11:0 12:2.941 13:5.882 14:2.941 15:8.8240004 16:8.8240004 17:0 18:2.941 19:0 20:2.941 #
-7 1:4.651 2:9.302 3:0 4:18.605 5:0 6:6.9770002 7:2.326 8:0 9:2.326 10:2.326 11:0 12:0 13:2.326 14:9.302 15:25.580999 16:2.326 17:2.326 18:9.302 19:0 20:2.326 #
-7 1:6.6669998 2:17.778 3:2.2219999 4:6.6669998 5:0 6:8.8889999 7:0 8:2.2219999 9:8.8889999 10:4.4439998 11:0 12:2.2219999 13:6.6669998 14:2.2219999 15:4.4439998 16:8.8889999 17:0 18:6.6669998 19:4.4439998 20:6.6669998 #
-7 1:6.4520001 2:19.355 3:3.2260001 4:3.2260001 5:3.2260001 6:12.903 7:0 8:3.2260001 9:9.677 10:3.2260001 11:0 12:0 13:9.677 14:0 15:3.2260001 16:12.903 17:3.2260001 18:0 19:0 20:6.4520001 #
-7 1:8.5710001 2:0 3:5.7140002 4:0 5:2.8570001 6:2.8570001 7:0 8:8.5710001 9:2.8570001 10:8.5710001 11:2.8570001 12:8.5710001 13:11.429 14:2.8570001 15:2.8570001 16:11.429 17:11.429 18:5.7140002 19:0 20:2.8570001 #
-7 1:9.302 2:0 3:4.651 4:6.9770002 5:6.9770002 6:9.302 7:2.326 8:4.651 9:0 10:11.628 11:2.326 12:0 13:4.651 14:6.9770002 15:2.326 16:9.302 17:9.302 18:4.651 19:0 20:4.651 #
-7 1:2.941 2:17.646999 3:8.8240004 4:0 5:0 6:20.587999 7:0 8:5.882 9:2.941 10:5.882 11:0 12:2.941 13:5.882 14:2.941 15:8.8240004 16:8.8240004 17:0 18:2.941 19:0 20:2.941 #
-1.1789453098451616597230895422399 1:0 2:0 3:0 4:0 5:0 6:0 7:0 8:0 9:8.3330002 10:0 11:0 12:0 13:8.3330002 14:50 15:0 16:25 17:0 18:8.3330002 19:0 20:0 #
-7 1:3.3329999 2:20 3:6.6669998 4:3.3329999 5:0 6:13.333 7:0 8:6.6669998 9:6.6669998 10:3.3329999 11:0 12:3.3329999 13:6.6669998 14:6.6669998 15:13.333 16:3.3329999 17:0 18:0 19:0 20:3.3329999 #
2.7192681370635085613685077987611 1:6.4520001 2:19.355 3:0 4:3.2260001 5:3.2260001 6:9.677 7:0 8:12.903 9:6.4520001 10:0 11:0 12:6.4520001 13:6.4520001 14:0 15:3.2260001 16:9.677 17:0 18:9.677 19:0 20:3.2260001 #
-7 1:4.9590001 2:7.4380002 3:2.4790001 4:6.612 5:2.4790001 6:2.4790001 7:1.653 8:1.653 9:9.0909996 10:9.9169998 11:2.4790001 12:5.7849998 13:9.0909996 14:5.7849998 15:0.82599998 16:9.0909996 17:4.132 18:8.2639999 19:0.82599998 20:4.9590001 #
-7 1:5.3330002 2:10.667 3:6.6669998 4:2.6670001 5:5.3330002 6:6.6669998 7:0 8:9.3330002 9:8 10:6.6669998 11:4 12:2.6670001 13:6.6669998 14:4 15:1.3329999 16:2.6670001 17:5.3330002 18:5.3330002 19:1.3329999 20:5.3330002 #
-7 1:6.0609999 2:0 3:0 4:6.0609999 5:15.152 6:3.03 7:0 8:12.121 9:9.0909996 10:12.121 11:3.03 12:0 13:6.0609999 14:0 15:3.03 16:6.0609999 17:9.0909996 18:6.0609999 19:0 20:3.03 #
21 1:3.3329999 2:20 3:0 4:3.3329999 5:0 6:10 7:0 8:6.6669998 9:6.6669998 10:3.3329999 11:0 12:3.3329999 13:6.6669998 14:0 15:3.3329999 16:13.333 17:3.3329999 18:10 19:0 20:6.6669998 #
20.978797785047390789259225130081 1:3.3329999 2:20 3:0 4:3.3329999 5:0 6:10 7:0 8:6.6669998 9:6.6669998 10:3.3329999 11:0 12:3.3329999 13:6.6669998 14:0 15:3.3329999 16:13.333 17:3.3329999 18:10 19:3.3329999 20:3.3329999 #
9.3820416251186280476304091280326 1:20 2:5 3:0 4:0 5:15 6:5 7:0 8:5 9:0 10:0 11:0 12:15 13:10 14:0 15:0 16:0 17:10 18:10 19:5 20:0 #
-7 1:4.4439998 2:17.778 3:8.8889999 4:0 5:2.2219999 6:6.6669998 7:0 8:2.2219999 9:11.111 10:11.111 11:0 12:0 13:6.6669998 14:0 15:11.111 16:11.111 17:4.4439998 18:0 19:0 20:2.2219999 #
-7 1:5.4050002 2:16.216 3:5.4050002 4:2.7030001 5:8.1079998 6:10.811 7:2.7030001 8:5.4050002 9:0 10:2.7030001 11:0 12:2.7030001 13:13.514 14:0 15:8.1079998 16:5.4050002 17:2.7030001 18:8.1079998 19:0 20:0 #
-6.1732297932491917435982031747699 1:0 2:0 3:0 4:20 5:0 6:10 7:0 8:10 9:0 10:10 11:0 12:0 13:10 14:0 15:0 16:20 17:0 18:20 19:0 20:0 #
-7 1:5.263 2:2.632 3:5.263 4:5.263 5:5.263 6:2.632 7:2.632 8:5.263 9:0 10:10.526 11:5.263 12:5.263 13:5.263 14:13.158 15:2.632 16:10.526 17:2.632 18:7.895 19:0 20:2.632 #
