SVM-light Version V6.02
2 # kernel type
3 # kernel parameter -d 
0.001 # kernel parameter -g 
1 # kernel parameter -s 
1 # kernel parameter -r 
empty# kernel parameter -u 
20 # highest feature index 
572 # number of training documents 
307 # number of support vectors plus 1 
-0.03627542 # threshold b, each following line is a SV (starting with alpha*y)
-4 1:3.3329999 2:20 3:0 4:3.3329999 5:0 6:13.333 7:0 8:13.333 9:10 10:0 11:0 12:3.3329999 13:6.6669998 14:0 15:0 16:13.333 17:0 18:6.6669998 19:3.3329999 20:3.3329999 #
-4 1:12.245 2:8.1630001 3:0 4:0 5:0 6:8.1630001 7:0 8:4.0819998 9:8.1630001 10:2.0409999 11:0 12:6.1220002 13:6.1220002 14:4.0819998 15:10.204 16:14.286 17:4.0819998 18:2.0409999 19:0 20:10.204 #
-1.5085479666362804351820159354247 1:20 2:0 3:20 4:0 5:20 6:0 7:0 8:0 9:0 10:20 11:0 12:0 13:20 14:0 15:0 16:0 17:0 18:0 19:0 20:0 #
-4 1:2.7030001 2:10.811 3:4.0539999 4:1.351 5:5.4050002 6:6.757 7:2.7030001 8:6.757 9:6.757 10:10.811 11:4.0539999 12:6.757 13:0 14:8.1079998 15:2.7030001 16:2.7030001 17:9.4589996 18:5.4050002 19:0 20:2.7030001 #
-4 1:1.163 2:10.465 3:4.651 4:5.8140001 5:4.651 6:9.302 7:2.326 8:3.4879999 9:5.8140001 10:5.8140001 11:4.651 12:5.8140001 13:2.326 14:3.4879999 15:10.465 16:5.8140001 17:1.163 18:9.302 19:1.163 20:2.326 #
0.86588514993527354590696631930768 1:10 2:0 3:15 4:5 5:0 6:5 7:0 8:0 9:5 10:25 11:0 12:0 13:5 14:5 15:5 16:5 17:10 18:5 19:0 20:0 #
0.49992531583904131764484191080555 1:5 2:5 3:5 4:10 5:5 6:10 7:15 8:0 9:10 10:0 11:5 12:0 13:0 14:25 15:0 16:5 17:0 18:0 19:0 20:0 #
0.60838683314268848789652111008763 1:20 2:20 3:6.6669998 4:0 5:0 6:13.333 7:0 8:6.6669998 9:13.333 10:0 11:0 12:0 13:0 14:0 15:6.6669998 16:6.6669998 17:0 18:0 19:0 20:6.6669998 #
-4 1:10.204 2:8.1630001 3:0 4:0 5:0 6:8.1630001 7:0 8:4.0819998 9:2.0409999 10:2.0409999 11:0 12:8.1630001 13:6.1220002 14:6.1220002 15:12.245 16:14.286 17:6.1220002 18:2.0409999 19:0 20:10.204 #
20 1:3.704 2:8.6420002 3:1.235 4:2.4690001 5:4.9380002 6:12.346 7:1.235 8:2.4690001 9:8.6420002 10:7.4070001 11:4.9380002 12:4.9380002 13:4.9380002 14:2.4690001 15:4.9380002 16:4.9380002 17:7.4070001 18:9.8769999 19:0 20:2.4690001 #
-4 1:5.1279998 2:0 3:0 4:5.1279998 5:2.5639999 6:15.385 7:0 8:5.1279998 9:12.821 10:5.1279998 11:5.1279998 12:2.5639999 13:10.256 14:5.1279998 15:5.1279998 16:2.5639999 17:7.6919999 18:10.256 19:0 20:0 #
-3.0921433234451285443356027826667 1:11.628 2:8.1400003 3:4.651 4:1.163 5:2.326 6:11.628 7:1.163 8:2.326 9:6.9770002 10:2.326 11:9.302 12:2.326 13:5.8140001 14:2.326 15:3.4879999 16:5.8140001 17:5.8140001 18:10.465 19:0 20:2.326 #
-4 1:15.026 2:4.145 3:5.6989999 4:2.073 5:2.5910001 6:6.7360001 7:2.5910001 8:4.145 9:7.2540002 10:10.363 11:2.073 12:2.5910001 13:6.7360001 14:4.145 15:1.036 16:6.2179999 17:8.8079996 18:7.7719998 19:0 20:0 #
-0.82989322693740064096346031874418 1:8.1630001 2:8.1630001 3:0 4:0 5:0 6:10.204 7:0 8:4.0819998 9:0 10:2.0409999 11:0 12:8.1630001 13:6.1220002 14:8.1630001 15:16.327 16:8.1630001 17:8.1630001 18:2.0409999 19:0 20:10.204 #
20 1:3.2260001 2:19.355 3:0 4:6.4520001 5:6.4520001 6:6.4520001 7:0 8:9.677 9:6.4520001 10:3.2260001 11:3.2260001 12:6.4520001 13:0 14:0 15:0 16:16.129 17:3.2260001 18:6.4520001 19:0 20:3.2260001 #
1.6072657128920280200645720469765 1:0 2:14.634 3:7.3169999 4:4.8779998 5:4.8779998 6:12.195 7:2.4389999 8:2.4389999 9:17.073 10:2.4389999 11:0 12:2.4389999 13:0 14:2.4389999 15:2.4389999 16:9.7559996 17:0 18:7.3169999 19:0 20:7.3169999 #
-4 1:2.2219999 2:28.889 3:6.6669998 4:4.4439998 5:0 6:15.556 7:0 8:0 9:4.4439998 10:0 11:2.2219999 12:8.8889999 13:0 14:0 15:0 16:22.222 17:2.2219999 18:0 19:0 20:2.2219999 #
-4 1:2.2219999 2:28.889 3:6.6669998 4:4.4439998 5:0 6:11.111 7:0 8:0 9:6.6669998 10:0 11:2.2219999 12:15.556 13:0 14:0 15:0 16:20 17:0 18:0 19:0 20:2.2219999 #
-4 1:6.4520001 2:19.355 3:3.2260001 4:3.2260001 5:3.2260001 6:12.903 7:0 8:3.2260001 9:9.677 10:3.2260001 11:0 12:0 13:9.677 14:0 15:0 16:12.903 17:3.2260001 18:0 19:3.2260001 20:6.4520001 #
6.0093372955435775395471864612773 1:10.37 2:4.4439998 3:4.4439998 4:1.4809999 5:1.4809999 6:11.852 7:2.2219999 8:2.2219999 9:2.2219999 10:4.4439998 11:0.741 12:10.37 13:3.704 14:5.9260001 15:8.1479998 16:6.6669998 17:2.2219999 18:7.4070001 19:4.4439998 20:5.1849999 #
16.099096424291992946109530748799 1:8 2:0 3:4 4:8 5:8 6:12 7:0 8:8 9:4 10:0 11:8 12:4 13:8 14:4 15:4 16:4 17:4 18:8 19:0 20:4 #
-4 1:5.1950002 2:5.1950002 3:1.299 4:10.39 5:5.1950002 6:3.8959999 7:3.8959999 8:6.494 9:3.8959999 10:11.688 11:1.299 12:5.1950002 13:3.8959999 14:2.5969999 15:3.8959999 16:5.1950002 17:10.39 18:6.494 19:0 20:3.8959999 #
-1.3656357299973418406580094597302 1:9.5240002 2:4.7620001 3:0 4:9.5240002 5:4.7620001 6:0 7:0 8:4.7620001 9:0 10:4.7620001 11:0 12:9.5240002 13:4.7620001 14:33.333 15:0 16:4.7620001 17:0 18:0 19:0 20:9.5240002 #
-4 1:10 2:10 3:0 4:5 5:7.5 6:6.25 7:2.5 8:6.25 9:3.75 10:7.5 11:2.5 12:7.5 13:3.75 14:2.5 15:3.75 16:6.25 17:3.75 18:6.25 19:1.25 20:3.75 #
-4 1:10.204 2:8.1630001 3:2.0409999 4:0 5:0 6:4.0819998 7:0 8:4.0819998 9:4.0819998 10:2.0409999 11:0 12:4.0819998 13:4.0819998 14:6.1220002 15:12.245 16:16.327 17:10.204 18:2.0409999 19:0 20:10.204 #
-4 1:5.1950002 2:10.39 3:2.5969999 4:3.8959999 5:9.0909996 6:9.0909996 7:1.299 8:2.5969999 9:3.8959999 10:3.8959999 11:5.1950002 12:5.1950002 13:2.5969999 14:2.5969999 15:10.39 16:6.494 17:6.494 18:9.0909996 19:0 20:0 #
10.248712321940558922506170347333 1:5.5939999 2:1.399 3:4.895 4:6.993 5:4.1960001 6:7.6919999 7:2.098 8:5.5939999 9:5.5939999 10:9.0909996 11:1.399 12:11.189 13:2.7969999 14:4.895 15:4.895 16:3.497 17:6.2940001 18:6.993 19:1.399 20:3.497 #
-4 1:5.882 2:17.646999 3:8.8240004 4:0 5:0 6:20.587999 7:0 8:2.941 9:5.882 10:2.941 11:0 12:2.941 13:5.882 14:2.941 15:8.8240004 16:8.8240004 17:0 18:2.941 19:0 20:2.941 #
-4 1:2.941 2:17.646999 3:8.8240004 4:0 5:0 6:20.587999 7:0 8:5.882 9:2.941 10:5.882 11:0 12:2.941 13:5.882 14:2.941 15:8.8240004 16:8.8240004 17:0 18:2.941 19:0 20:2.941 #
-4 1:5.882 2:17.646999 3:8.8240004 4:0 5:0 6:20.587999 7:0 8:2.941 9:8.8240004 10:2.941 11:0 12:2.941 13:5.882 14:0 15:8.8240004 16:8.8240004 17:0 18:2.941 19:0 20:2.941 #
9.3921030926163826535457701538689 1:6.25 2:0 3:0 4:6.25 5:6.25 6:6.25 7:0 8:6.25 9:18.75 10:6.25 11:6.25 12:0 13:6.25 14:6.25 15:12.5 16:6.25 17:0 18:0 19:0 20:6.25 #
9.5961031620831533928139833733439 1:25 2:0 3:2.5 4:0 5:7.5 6:5 7:2.5 8:2.5 9:2.5 10:7.5 11:2.5 12:12.5 13:5 14:5 15:7.5 16:5 17:5 18:2.5 19:0 20:0 #
6.3520770269058095536252039892133 1:6.6669998 2:0 3:0 4:6.6669998 5:13.333 6:6.6669998 7:0 8:6.6669998 9:0 10:6.6669998 11:0 12:0 13:20 14:6.6669998 15:20 16:0 17:0 18:6.6669998 19:0 20:0 #
-4 1:9.302 2:0 3:4.651 4:6.9770002 5:6.9770002 6:9.302 7:2.326 8:4.651 9:0 10:11.628 11:2.326 12:0 13:4.651 14:6.9770002 15:2.326 16:9.302 17:9.302 18:4.651 19:0 20:4.651 #
17.620130177440643137742881663144 1:2.941 2:17.646999 3:8.8240004 4:0 5:0 6:20.587999 7:0 8:5.882 9:8.8240004 10:2.941 11:0 12:2.941 13:5.882 14:0 15:8.8240004 16:8.8240004 17:0 18:2.941 19:0 20:2.941 #
7.3855853243615356973350571934134 1:6.6669998 2:20 3:0 4:3.3329999 5:0 6:6.6669998 7:0 8:6.6669998 9:0 10:6.6669998 11:0 12:6.6669998 13:6.6669998 14:0 15:3.3329999 16:10 17:6.6669998 18:10 19:0 20:6.6669998 #
-4 1:3.3329999 2:20 3:0 4:3.3329999 5:3.3329999 6:10 7:0 8:13.333 9:10 10:0 11:0 12:6.6669998 13:6.6669998 14:0 15:0 16:13.333 17:0 18:6.6669998 19:3.3329999 20:0 #
-4 1:6.6669998 2:20 3:0 4:3.3329999 5:3.3329999 6:10 7:0 8:13.333 9:6.6669998 10:0 11:0 12:3.3329999 13:6.6669998 14:0 15:3.3329999 16:6.6669998 17:6.6669998 18:6.6669998 19:0 20:3.3329999 #
-4 1:6.4520001 2:19.355 3:0 4:3.2260001 5:6.4520001 6:9.677 7:0 8:9.677 9:9.677 10:0 11:0 12:6.4520001 13:6.4520001 14:0 15:0 16:12.903 17:0 18:6.4520001 19:0 20:3.2260001 #
2.1216102772811531451679911697283 1:11.715 2:0 3:5.4390001 4:3.766 5:7.1129999 6:7.1129999 7:0.83700001 8:5.4390001 9:3.766 10:8.7869997 11:0 12:3.766 13:5.0209999 14:1.255 15:1.255 16:11.715 17:8.368 18:9.6230001 19:1.674 20:3.3469999 #
3.9040608599275063994582524173893 1:8.1400003 2:4.651 3:3.4879999 4:3.4879999 5:2.326 6:8.1400003 7:1.163 8:4.651 9:6.9770002 10:8.1400003 11:0 12:2.326 13:4.651 14:1.163 15:6.9770002 16:1.163 17:16.278999 18:12.791 19:1.163 20:2.326 #
20 1:5.4899998 2:1.569 3:7.059 4:9.0200005 5:7.8429999 6:3.1370001 7:3.1370001 8:4.7059999 9:7.059 10:12.157 11:0.78399998 12:3.529 13:3.1370001 14:3.529 15:4.7059999 16:9.0200005 17:3.9219999 18:6.2750001 19:1.176 20:2.7449999 #
-4 1:9.0550003 2:1.969 3:6.2989998 4:2.756 5:6.2989998 6:11.417 7:0.787 8:5.118 9:3.1500001 10:5.5120001 11:1.969 12:7.48 13:3.937 14:3.937 15:5.118 16:5.118 17:7.8740001 18:6.2989998 19:1.575 20:4.3309999 #
-4 1:15 2:0 3:15 4:10 5:0 6:10 7:0 8:5 9:0 10:10 11:0 12:15 13:10 14:5 15:0 16:0 17:0 18:5 19:0 20:0 #
-4 1:3.5710001 2:0 3:7.1430001 4:7.1430001 5:1.1900001 6:7.1430001 7:2.381 8:5.9520001 9:9.5240002 10:7.1430001 11:2.381 12:2.381 13:4.7620001 14:4.7620001 15:4.7620001 16:5.9520001 17:5.9520001 18:15.476 19:1.1900001 20:1.1900001 #
4.3712214005393770221985505486373 1:6.6669998 2:16.667 3:0 4:3.3329999 5:0 6:13.333 7:0 8:13.333 9:6.6669998 10:0 11:0 12:6.6669998 13:6.6669998 14:0 15:3.3329999 16:10 17:0 18:6.6669998 19:3.3329999 20:3.3329999 #
-4 1:0 2:20.690001 3:0 4:3.448 5:0 6:17.240999 7:0 8:3.448 9:0 10:3.448 11:0 12:6.8969998 13:10.345 14:0 15:3.448 16:6.8969998 17:13.793 18:10.345 19:0 20:0 #
-4 1:0 2:18.75 3:3.125 4:3.125 5:3.125 6:12.5 7:0 8:6.25 9:9.375 10:6.25 11:0 12:3.125 13:6.25 14:0 15:0 16:9.375 17:6.25 18:6.25 19:3.125 20:3.125 #
-4 1:3.3329999 2:20 3:6.6669998 4:3.3329999 5:0 6:13.333 7:0 8:6.6669998 9:10 10:3.3329999 11:0 12:3.3329999 13:6.6669998 14:3.3329999 15:13.333 16:3.3329999 17:0 18:0 19:0 20:3.3329999 #
10.36819985206381034004152752459 1:12 2:0 3:8 4:4 5:8 6:8 7:0 8:4 9:8 10:12 11:4 12:4 13:8 14:4 15:0 16:4 17:8 18:0 19:0 20:4 #
19.647521721876216815871885046363 1:12.042 2:1.571 3:5.2360001 4:2.0940001 5:6.8060002 6:10.471 7:1.571 8:5.7589998 9:5.2360001 10:10.471 11:0.52399999 12:6.8060002 13:6.283 14:2.618 15:1.0470001 16:6.8060002 17:4.7119999 18:7.3299999 19:0 20:2.618 #
-3.2879595018210991952400945592672 1:22.892 2:2.4100001 3:2.4100001 4:9.6389999 5:1.205 6:7.2290001 7:3.6140001 8:3.6140001 9:1.205 10:7.2290001 11:2.4100001 12:1.205 13:2.4100001 14:4.8189998 15:4.8189998 16:4.8189998 17:10.843 18:4.8189998 19:0 20:2.4100001 #
-1.5897832166872838399740430759266 1:5.882 2:0 3:0 4:5.882 5:14.706 6:2.941 7:0 8:8.8240004 9:8.8240004 10:14.706 11:2.941 12:2.941 13:8.8240004 14:0 15:2.941 16:2.941 17:8.8240004 18:5.882 19:0 20:2.941 #
5.0073396374925209784123580902815 1:3.3329999 2:20 3:3.3329999 4:3.3329999 5:0 6:10 7:0 8:10 9:10 10:3.3329999 11:0 12:0 13:6.6669998 14:0 15:0 16:13.333 17:3.3329999 18:6.6669998 19:3.3329999 20:3.3329999 #
-4 1:5.4349999 2:8.6960001 3:5.4349999 4:2.174 5:2.174 6:5.4349999 7:2.174 8:4.348 9:5.4349999 10:14.13 11:2.174 12:3.2609999 13:6.5219998 14:5.4349999 15:6.5219998 16:10.87 17:2.174 18:3.2609999 19:3.2609999 20:1.087 #
-3.0431066974520759593758612027159 1:6.25 2:1.0420001 3:4.1669998 4:6.25 5:5.2080002 6:6.25 7:7.2919998 8:0 9:6.25 10:15.625 11:6.25 12:5.2080002 13:7.2919998 14:4.1669998 15:4.1669998 16:6.25 17:3.125 18:4.1669998 19:1.0420001 20:0 #
-4 1:0 2:20.690001 3:3.448 4:3.448 5:0 6:10.345 7:0 8:10.345 9:3.448 10:3.448 11:0 12:3.448 13:6.8969998 14:0 15:0 16:10.345 17:6.8969998 18:10.345 19:0 20:6.8969998 #
-4 1:0 2:18.75 3:3.125 4:3.125 5:3.125 6:12.5 7:0 8:3.125 9:9.375 10:6.25 11:0 12:3.125 13:6.25 14:0 15:0 16:9.375 17:6.25 18:9.375 19:3.125 20:3.125 #
3.5798411440384541037929011508822 1:10 2:20 3:20 4:0 5:10 6:20 7:0 8:0 9:0 10:20 11:0 12:0 13:0 14:0 15:0 16:0 17:0 18:0 19:0 20:0 #
4.0821512098424275194474830641411 1:0 2:18.181999 3:9.0909996 4:0 5:0 6:0 7:9.0909996 8:0 9:0 10:18.181999 11:9.0909996 12:9.0909996 13:9.0909996 14:0 15:0 16:9.0909996 17:9.0909996 18:0 19:0 20:0 #
4.7696620290599369695883069653064 1:0 2:9.5240002 3:0 4:4.7620001 5:0 6:14.286 7:0 8:0 9:0 10:14.286 11:0 12:0 13:9.5240002 14:14.286 15:0 16:4.7620001 17:14.286 18:9.5240002 19:0 20:4.7620001 #
-4 1:9.302 2:0 3:4.651 4:6.9770002 5:9.302 6:9.302 7:2.326 8:2.326 9:0 10:13.953 11:2.326 12:0 13:6.9770002 14:6.9770002 15:2.326 16:6.9770002 17:6.9770002 18:4.651 19:0 20:4.651 #
-3.1963159190792729269503524847096 1:10.526 2:0 3:10.526 4:0 5:0 6:0 7:0 8:0 9:0 10:10.526 11:5.263 12:26.316 13:5.263 14:10.526 15:5.263 16:0 17:10.526 18:5.263 19:0 20:0 #
-0.58974903143649370917955820914358 1:5.5560002 2:0 3:11.111 4:0 5:0 6:0 7:0 8:5.5560002 9:0 10:16.667 11:0 12:27.778 13:5.5560002 14:11.111 15:5.5560002 16:5.5560002 17:5.5560002 18:0 19:0 20:0 #
-4 1:5.3330002 2:10.667 3:4 4:2.6670001 5:6.6669998 6:5.3330002 7:0 8:4 9:12 10:6.6669998 11:6.6669998 12:4 13:2.6670001 14:2.6670001 15:4 16:5.3330002 17:9.3330002 18:5.3330002 19:1.3329999 20:1.3329999 #
18.49540426957153727016702760011 1:3.2260001 2:19.355 3:3.2260001 4:3.2260001 5:9.677 6:6.4520001 7:3.2260001 8:9.677 9:6.4520001 10:0 11:0 12:3.2260001 13:6.4520001 14:0 15:0 16:6.4520001 17:9.677 18:6.4520001 19:0 20:3.2260001 #
0.48668967080954672610459965653718 1:0 2:25 3:0 4:0 5:12.5 6:12.5 7:6.25 8:0 9:0 10:0 11:0 12:0 13:0 14:0 15:31.25 16:0 17:12.5 18:0 19:0 20:0 #
-4 1:6.6669998 2:20 3:0 4:3.3329999 5:0 6:6.6669998 7:0 8:10 9:0 10:6.6669998 11:0 12:6.6669998 13:10 14:0 15:3.3329999 16:10 17:3.3329999 18:6.6669998 19:0 20:6.6669998 #
6.3951110706150586793228285387158 1:10.526 2:0 3:5.263 4:15.789 5:5.263 6:5.263 7:0 8:0 9:5.263 10:15.789 11:0 12:5.263 13:5.263 14:10.526 15:0 16:5.263 17:5.263 18:5.263 19:0 20:0 #
0.97428059287977042401962535222992 1:13.333 2:0 3:6.6669998 4:6.6669998 5:0 6:13.333 7:0 8:6.6669998 9:0 10:13.333 11:0 12:20 13:0 14:6.6669998 15:0 16:6.6669998 17:6.6669998 18:0 19:0 20:0 #
-4 1:14.286 2:8.1630001 3:0 4:2.0409999 5:2.0409999 6:12.245 7:2.0409999 8:6.1220002 9:16.327 10:2.0409999 11:0 12:16.327 13:0 14:2.0409999 15:6.1220002 16:2.0409999 17:2.0409999 18:4.0819998 19:0 20:2.0409999 #
-2.8104828636202006109101603215095 1:27.273001 2:0 3:9.0909996 4:0 5:0 6:9.0909996 7:0 8:0 9:0 10:18.181999 11:0 12:9.0909996 13:9.0909996 14:9.0909996 15:9.0909996 16:0 17:0 18:0 19:0 20:0 #
-4 1:2.7030001 2:12.162 3:1.351 4:5.4050002 5:9.4589996 6:9.4589996 7:4.0539999 8:1.351 9:2.7030001 10:9.4589996 11:2.7030001 12:4.0539999 13:0 14:4.0539999 15:12.162 16:8.1079998 17:2.7030001 18:8.1079998 19:0 20:0 #
-4 1:0 2:20.690001 3:3.448 4:3.448 5:0 6:13.793 7:0 8:0 9:0 10:3.448 11:0 12:3.448 13:10.345 14:0 15:3.448 16:3.448 17:17.240999 18:10.345 19:3.448 20:3.448 #
5.7164044701288831973329251923133 1:6.4520001 2:8.6020002 3:2.151 4:0 5:4.3010001 6:5.3759999 7:0 8:6.4520001 9:0 10:6.4520001 11:0 12:11.828 13:9.677 14:3.2260001 15:20.43 16:0 17:3.2260001 18:8.6020002 19:2.151 20:1.075 #
20 1:1.562 2:6.25 3:3.125 4:0 5:6.25 6:3.125 7:3.125 8:4.6880002 9:10.938 10:9.375 11:3.125 12:9.375 13:4.6880002 14:3.125 15:14.062 16:4.6880002 17:4.6880002 18:4.6880002 19:1.562 20:1.562 #
-4 1:7.2069998 2:0.90100002 3:5.4050002 4:1.802 5:7.658 6:8.1079998 7:2.2520001 8:6.3060002 9:3.6040001 10:8.1079998 11:1.351 12:7.658 13:7.2069998 14:4.5050001 15:3.1530001 16:6.757 17:3.6040001 18:12.613 19:0 20:1.802 #
-4 1:4.5450001 2:0 3:0 4:4.5450001 5:0 6:4.5450001 7:0 8:4.5450001 9:0 10:18.181999 11:0 12:9.0909996 13:13.636 14:9.0909996 15:9.0909996 16:4.5450001 17:4.5450001 18:9.0909996 19:0 20:4.5450001 #
-2.4596368304258948711549237486906 1:2.7030001 2:8.1079998 3:2.7030001 4:0 5:0 6:5.4050002 7:2.7030001 8:13.514 9:8.1079998 10:2.7030001 11:2.7030001 12:2.7030001 13:2.7030001 14:8.1079998 15:27.027 16:2.7030001 17:0 18:5.4050002 19:0 20:2.7030001 #
0.46477534835939948720806569326669 1:0 2:20.690001 3:3.448 4:3.448 5:3.448 6:17.240999 7:0 8:3.448 9:0 10:3.448 11:0 12:3.448 13:10.345 14:0 15:3.448 16:3.448 17:17.240999 18:3.448 19:3.448 20:0 #
-4 1:0 2:20 3:6.6669998 4:3.3329999 5:6.6669998 6:16.667 7:3.3329999 8:0 9:0 10:3.3329999 11:0 12:3.3329999 13:13.333 14:0 15:0 16:0 17:20 18:3.3329999 19:0 20:0 #
-4 1:3.3329999 2:20 3:6.6669998 4:3.3329999 5:3.3329999 6:16.667 7:0 8:0 9:0 10:0 11:0 12:6.6669998 13:13.333 14:0 15:0 16:0 17:16.667 18:6.6669998 19:3.3329999 20:0 #
20 1:12 2:8 3:4 4:0 5:0 6:4 7:0 8:4 9:8 10:8 11:0 12:0 13:16 14:8 15:4 16:8 17:4 18:8 19:0 20:4 #
-4 1:2.381 2:9.5240002 3:0 4:5.9520001 5:9.5240002 6:7.1430001 7:0 8:3.5710001 9:10.714 10:10.714 11:2.381 12:2.381 13:7.1430001 14:4.7620001 15:3.5710001 16:7.1430001 17:4.7620001 18:4.7620001 19:0 20:3.5710001 #
-4 1:12.245 2:8.1630001 3:0 4:0 5:0 6:8.1630001 7:0 8:4.0819998 9:8.1630001 10:2.0409999 11:0 12:6.1220002 13:6.1220002 14:4.0819998 15:10.204 16:12.245 17:6.1220002 18:2.0409999 19:0 20:10.204 #
-4 1:7.8119998 2:9.375 3:1.562 4:1.562 5:4.6880002 6:9.375 7:0 8:7.8119998 9:9.375 10:7.8119998 11:3.125 12:3.125 13:3.125 14:3.125 15:6.25 16:10.938 17:0 18:6.25 19:1.562 20:3.125 #
6.3246522482208398230341117596254 1:3.3329999 2:20 3:6.6669998 4:3.3329999 5:3.3329999 6:16.667 7:0 8:0 9:0 10:3.3329999 11:0 12:3.3329999 13:13.333 14:0 15:3.3329999 16:0 17:13.333 18:6.6669998 19:3.3329999 20:0 #
5.739531080893698344880249351263 1:0 2:20 3:3.3329999 4:3.3329999 5:3.3329999 6:16.667 7:3.3329999 8:0 9:0 10:3.3329999 11:0 12:6.6669998 13:13.333 14:0 15:0 16:0 17:20 18:3.3329999 19:3.3329999 20:0 #
-4 1:0 2:20.690001 3:3.448 4:3.448 5:3.448 6:13.793 7:0 8:0 9:0 10:3.448 11:0 12:3.448 13:10.345 14:0 15:3.448 16:3.448 17:13.793 18:10.345 19:3.448 20:3.448 #
6.6025179396797977204869312117808 1:22.222 2:0 3:0 4:0 5:0 6:22.222 7:0 8:0 9:0 10:0 11:11.111 12:0 13:0 14:11.111 15:11.111 16:11.111 17:0 18:11.111 19:0 20:0 #
1.9290525506572748781763948500156 1:21.111 2:8.8889999 3:2.2219999 4:0 5:0 6:11.111 7:0 8:6.6669998 9:7.7779999 10:3.3329999 11:1.1109999 12:2.2219999 13:5.5560002 14:3.3329999 15:3.3329999 16:14.444 17:1.1109999 18:5.5560002 19:0 20:2.2219999 #
3.1294051541548402184389487956651 1:12.5 2:0 3:8.3330002 4:4.1669998 5:0 6:4.1669998 7:4.1669998 8:0 9:16.667 10:4.1669998 11:4.1669998 12:8.3330002 13:4.1669998 14:4.1669998 15:0 16:12.5 17:4.1669998 18:8.3330002 19:0 20:0 #
-4 1:17.391001 2:8.6960001 3:3.2609999 4:2.174 5:1.087 6:4.348 7:0 8:3.2609999 9:6.5219998 10:9.783 11:2.174 12:3.2609999 13:5.4349999 14:1.087 15:3.2609999 16:16.304001 17:4.348 18:7.6090002 19:0 20:0 #
-3.3114999678710037578355240839301 1:0 2:0 3:8.3330002 4:13.889 5:0 6:2.7780001 7:0 8:0 9:2.7780001 10:0 11:0 12:0 13:2.7780001 14:27.778 15:38.889 16:0 17:0 18:0 19:2.7780001 20:0 #
-4 1:17.582001 2:8.7910004 3:3.2969999 4:1.099 5:2.198 6:3.2969999 7:0 8:2.198 9:2.198 10:16.483999 11:2.198 12:7.6919999 13:5.4949999 14:4.3959999 15:2.198 16:7.6919999 17:6.5929999 18:6.5929999 19:0 20:0 #
-4 1:4.0819998 2:2.0409999 3:6.1220002 4:8.1630001 5:2.0409999 6:2.0409999 7:6.1220002 8:4.0819998 9:6.1220002 10:8.1630001 11:4.0819998 12:0 13:4.0819998 14:0 15:16.327 16:18.367001 17:2.0409999 18:4.0819998 19:2.0409999 20:0 #
3.112182491197470923793844121974 1:10 2:0 3:20 4:0 5:0 6:0 7:0 8:0 9:10 10:10 11:0 12:0 13:10 14:0 15:10 16:20 17:0 18:10 19:0 20:0 #
3.3208033637778311408794706949266 1:8.3330002 2:0 3:4.1669998 4:12.5 5:0 6:0 7:8.3330002 8:4.1669998 9:4.1669998 10:8.3330002 11:0 12:4.1669998 13:0 14:0 15:8.3330002 16:20.833 17:4.1669998 18:12.5 19:0 20:0 #
12.120217769566657750601734733209 1:6.0609999 2:12.121 3:12.121 4:3.03 5:0 6:3.03 7:3.03 8:3.03 9:6.0609999 10:0 11:6.0609999 12:0 13:3.03 14:9.0909996 15:12.121 16:6.0609999 17:3.03 18:9.0909996 19:0 20:3.03 #
-4 1:5.5560002 2:0 3:11.111 4:0 5:0 6:0 7:0 8:0 9:16.667 10:0 11:5.5560002 12:0 13:22.222 14:11.111 15:5.5560002 16:11.111 17:5.5560002 18:5.5560002 19:0 20:0 #
-4 1:5 2:0 3:10 4:5 5:0 6:5 7:5 8:0 9:5 10:0 11:0 12:0 13:25 14:15 15:10 16:5 17:0 18:5 19:0 20:5 #
-4 1:2 2:12 3:12 4:12 5:6 6:4 7:2 8:0 9:18 10:2 11:2 12:6 13:2 14:2 15:0 16:4 17:6 18:4 19:0 20:4 #
0.60246450728598566204397002366022 1:10 2:0 3:0 4:10 5:0 6:10 7:0 8:0 9:20 10:0 11:0 12:10 13:0 14:10 15:0 16:10 17:0 18:20 19:0 20:0 #
-3.807434651385792179212330665905 1:5.263 2:10.526 3:2.632 4:3.947 5:5.263 6:6.579 7:1.316 8:1.316 9:1.316 10:13.158 11:3.947 12:7.895 13:3.947 14:0 15:9.2110004 16:10.526 17:6.579 18:6.579 19:0 20:0 #
-4 1:0 2:20.690001 3:0 4:3.448 5:0 6:17.240999 7:0 8:0 9:0 10:3.448 11:0 12:6.8969998 13:10.345 14:0 15:3.448 16:0 17:20.690001 18:10.345 19:3.448 20:0 #
-4 1:6.494 2:11.688 3:3.8959999 4:3.8959999 5:5.1950002 6:6.494 7:1.299 8:6.494 9:6.494 10:3.8959999 11:3.8959999 12:3.8959999 13:5.1950002 14:1.299 15:2.5969999 16:11.688 17:2.5969999 18:7.7919998 19:0 20:5.1950002 #
1.3184504205678628796505336140399 1:0 2:23.077 3:0 4:0 5:15.385 6:15.385 7:0 8:0 9:0 10:7.6919999 11:0 12:0 13:0 14:7.6919999 15:7.6919999 16:7.6919999 17:15.385 18:0 19:0 20:0 #
-4 1:2.7030001 2:8.1079998 3:0 4:0 5:0 6:5.4050002 7:2.7030001 8:5.4050002 9:16.216 10:5.4050002 11:2.7030001 12:2.7030001 13:2.7030001 14:8.1079998 15:13.514 16:8.1079998 17:0 18:13.514 19:2.7030001 20:0 #
-4 1:12.5 2:0 3:0 4:12.5 5:0 6:4.1669998 7:0 8:25 9:16.667 10:0 11:0 12:0 13:4.1669998 14:12.5 15:12.5 16:0 17:0 18:0 19:0 20:0 #
-4 1:11.765 2:5.882 3:0.98000002 4:1.961 5:6.8629999 6:10.784 7:1.961 8:4.902 9:3.9219999 10:2.941 11:4.902 12:4.902 13:1.961 14:3.9219999 15:3.9219999 16:11.765 17:5.882 18:4.902 19:1.961 20:3.9219999 #
-4 1:0 2:19.355 3:3.2260001 4:6.4520001 5:6.4520001 6:16.129 7:0 8:6.4520001 9:3.2260001 10:3.2260001 11:0 12:6.4520001 13:9.677 14:0 15:3.2260001 16:3.2260001 17:6.4520001 18:3.2260001 19:3.2260001 20:0 #
5.1367324365444453349027753574774 1:12.5 2:12.5 3:0 4:12.5 5:0 6:0 7:0 8:0 9:0 10:0 11:12.5 12:0 13:0 14:0 15:0 16:12.5 17:12.5 18:0 19:0 20:25 #
7.7528423593933482038664806168526 1:10 2:5 3:5 4:5 5:5 6:0 7:0 8:5 9:0 10:0 11:0 12:5 13:10 14:10 15:10 16:20 17:5 18:0 19:0 20:5 #
7.1474300510615265125125006306916 1:0 2:0 3:0 4:18.181999 5:0 6:0 7:9.0909996 8:9.0909996 9:0 10:9.0909996 11:0 12:0 13:9.0909996 14:0 15:18.181999 16:9.0909996 17:9.0909996 18:9.0909996 19:0 20:0 #
-4 1:17.646999 2:0 3:0 4:5.882 5:0 6:5.882 7:0 8:0 9:5.882 10:5.882 11:5.882 12:11.765 13:5.882 14:0 15:5.882 16:11.765 17:11.765 18:5.882 19:0 20:0 #
-3.9382063896767647293017944321036 1:10.345 2:4.598 3:6.8969998 4:8.0459995 5:2.299 6:1.149 7:5.7470002 8:4.598 9:3.448 10:13.793 11:3.448 12:3.448 13:3.448 14:0 15:3.448 16:8.0459995 17:11.494 18:2.299 19:0 20:3.448 #
-3.5855372292217744245590438367799 1:4.0819998 2:4.0819998 3:8.1630001 4:4.0819998 5:0 6:2.0409999 7:4.0819998 8:4.0819998 9:4.0819998 10:6.1220002 11:0 12:6.1220002 13:6.1220002 14:4.0819998 15:18.367001 16:12.245 17:0 18:4.0819998 19:0 20:8.1630001 #
-4 1:6.25 2:16.667 3:2.0829999 4:2.0829999 5:2.0829999 6:4.1669998 7:2.0829999 8:2.0829999 9:2.0829999 10:8.3330002 11:0 12:4.1669998 13:8.3330002 14:4.1669998 15:10.417 16:6.25 17:14.583 18:2.0829999 19:0 20:2.0829999 #
1.9711824079201096804325743505615 1:23.077 2:0 3:15.385 4:7.6919999 5:0 6:7.6919999 7:0 8:15.385 9:0 10:7.6919999 11:0 12:7.6919999 13:0 14:0 15:0 16:7.6919999 17:0 18:7.6919999 19:0 20:0 #
12.9291833504199171755999486777 1:7.1430001 2:3.5710001 3:0 4:3.5710001 5:7.1430001 6:7.1430001 7:7.1430001 8:0 9:7.1430001 10:14.286 11:0 12:10.714 13:3.5710001 14:0 15:0 16:10.714 17:0 18:10.714 19:0 20:7.1430001 #
1.8926228055801779248668026411906 1:0 2:20 3:3.3329999 4:3.3329999 5:3.3329999 6:16.667 7:0 8:0 9:0 10:3.3329999 11:0 12:6.6669998 13:13.333 14:0 15:3.3329999 16:0 17:16.667 18:6.6669998 19:3.3329999 20:0 #
-4 1:16.667 2:0 3:5.5560002 4:0 5:0 6:11.111 7:5.5560002 8:0 9:0 10:0 11:0 12:11.111 13:11.111 14:0 15:0 16:11.111 17:0 18:16.667 19:5.5560002 20:5.5560002 #
-4 1:23.478001 2:6.9569998 3:2.609 4:0 5:0 6:8.6960001 7:0 8:6.0869999 9:6.0869999 10:5.217 11:3.4779999 12:1.739 13:4.348 14:3.4779999 15:3.4779999 16:11.304 17:2.609 18:8.6960001 19:0 20:1.739 #
-4 1:5.3330002 2:4 3:5.3330002 4:8 5:0 6:9.3330002 7:4 8:9.3330002 9:5.3330002 10:10.667 11:1.3329999 12:2.6670001 13:5.3330002 14:1.3329999 15:5.3330002 16:8 17:1.3329999 18:9.3330002 19:0 20:4 #
-4 1:3.704 2:9.8769999 3:4.9380002 4:1.235 5:6.1729999 6:6.1729999 7:1.235 8:3.704 9:8.6420002 10:8.6420002 11:2.4690001 12:7.4070001 13:4.9380002 14:2.4690001 15:6.1729999 16:7.4070001 17:1.235 18:9.8769999 19:0 20:3.704 #
0.42620019707362710725817578349961 1:0 2:0 3:5 4:5 5:0 6:0 7:0 8:5 9:10 10:0 11:5 12:10 13:0 14:10 15:0 16:30 17:5 18:15 19:0 20:0 #
-4 1:4.348 2:17.391001 3:2.174 4:4.348 5:8.6960001 6:13.043 7:4.348 8:0 9:4.348 10:4.348 11:0 12:6.5219998 13:0 14:2.174 15:15.217 16:6.5219998 17:2.174 18:4.348 19:0 20:0 #
15.386771022614624371271929703653 1:15.556 2:8.8889999 3:1.1109999 4:0 5:2.2219999 6:3.3329999 7:0 8:3.3329999 9:3.3329999 10:4.4439998 11:0 12:8.8889999 13:7.7779999 14:1.1109999 15:5.5560002 16:13.333 17:10 18:10 19:0 20:1.1109999 #
-4 1:20.667 2:0 3:4.6669998 4:2.6670001 5:5.3330002 6:4 7:0 8:0.667 9:6 10:2.6670001 11:0.667 12:0 13:15.333 14:0.667 15:0.667 16:17.333 17:11.333 18:6.6669998 19:0 20:0.667 #
-4 1:10.204 2:8.1630001 3:0 4:0 5:0 6:6.1220002 7:0 8:4.0819998 9:6.1220002 10:2.0409999 11:0 12:8.1630001 13:4.0819998 14:6.1220002 15:12.245 16:16.327 17:4.0819998 18:2.0409999 19:0 20:10.204 #
-4 1:15.311 2:0.47799999 3:2.8710001 4:2.392 5:1.4349999 6:3.8280001 7:0.95700002 8:1.4349999 9:5.263 10:3.349 11:1.4349999 12:1.4349999 13:22.01 14:1.4349999 15:1.4349999 16:14.833 17:9.0909996 18:10.526 19:0.47799999 20:0 #
1.1834776473861658985242684138939 1:4.2550001 2:17.021 3:2.128 4:6.3829999 5:6.3829999 6:12.766 7:4.2550001 8:0 9:8.5109997 10:6.3829999 11:2.128 12:4.2550001 13:0 14:2.128 15:10.638 16:6.3829999 17:2.128 18:4.2550001 19:0 20:0 #
5.5249992199441075868548978178296 1:2.8570001 2:11.429 3:8.5710001 4:17.143 5:0 6:8.5710001 7:2.8570001 8:0 9:2.8570001 10:2.8570001 11:2.8570001 12:0 13:0 14:8.5710001 15:28.570999 16:0 17:0 18:0 19:2.8570001 20:0 #
2.5358919303092313235481469746446 1:12.5 2:0 3:0 4:0 5:0 6:12.5 7:0 8:37.5 9:0 10:12.5 11:12.5 12:0 13:12.5 14:0 15:0 16:0 17:0 18:0 19:0 20:0 #
-4 1:6.6669998 2:17.778 3:2.2219999 4:6.6669998 5:0 6:8.8889999 7:0 8:2.2219999 9:8.8889999 10:4.4439998 11:0 12:2.2219999 13:6.6669998 14:2.2219999 15:4.4439998 16:8.8889999 17:0 18:6.6669998 19:4.4439998 20:6.6669998 #
-4 1:4.4439998 2:17.778 3:8.8889999 4:0 5:2.2219999 6:6.6669998 7:0 8:2.2219999 9:13.333 10:11.111 11:0 12:0 13:6.6669998 14:0 15:8.8889999 16:8.8889999 17:6.6669998 18:0 19:0 20:2.2219999 #
-4 1:4.348 2:13.043 3:4.348 4:0 5:2.174 6:13.043 7:2.174 8:6.5219998 9:8.6960001 10:2.174 11:0 12:4.348 13:4.348 14:0 15:6.5219998 16:10.87 17:10.87 18:2.174 19:2.174 20:2.174 #
0.51592109246635864394647796871141 1:15 2:0 3:20 4:0 5:0 6:10 7:0 8:0 9:5 10:0 11:0 12:0 13:0 14:0 15:0 16:0 17:15 18:30 19:0 20:5 #
2.6325289430268448143124260241166 1:2.128 2:17.021 3:0 4:4.2550001 5:8.5109997 6:8.5109997 7:6.3829999 8:0 9:0 10:2.128 11:0 12:8.5109997 13:0 14:2.128 15:19.149 16:6.3829999 17:2.128 18:10.638 19:2.128 20:0 #
-2.0328301838688025426904459891375 1:0 2:0 3:0 4:0 5:22.222 6:0 7:11.111 8:0 9:0 10:0 11:0 12:22.222 13:22.222 14:0 15:0 16:0 17:11.111 18:11.111 19:0 20:0 #
-2.7692177775727930821858535637148 1:6.25 2:0 3:0 4:6.25 5:25 6:6.25 7:0 8:0 9:6.25 10:12.5 11:0 12:6.25 13:12.5 14:0 15:6.25 16:0 17:0 18:12.5 19:0 20:0 #
-0.77326058907113637275188011699356 1:20 2:0 3:0 4:0 5:20 6:0 7:0 8:0 9:0 10:0 11:0 12:0 13:0 14:20 15:0 16:0 17:0 18:20 19:0 20:20 #
4.0485945088460226770621375180781 1:1.515 2:18.181999 3:4.5450001 4:1.515 5:3.03 6:13.636 7:1.515 8:3.03 9:15.152 10:0 11:4.5450001 12:3.03 13:6.0609999 14:1.515 15:6.0609999 16:9.0909996 17:3.03 18:1.515 19:0 20:3.03 #
-4 1:15 2:10 3:0 4:5 5:7.5 6:6.25 7:2.5 8:6.25 9:7.5 10:6.25 11:2.5 12:6.25 13:5 14:2.5 15:0 16:6.25 17:2.5 18:5 19:1.25 20:2.5 #
-4 1:15.19 2:10.127 3:0 4:5.0630002 5:7.5949998 6:6.329 7:2.5320001 8:3.7969999 9:5.0630002 10:6.329 11:1.266 12:6.329 13:3.7969999 14:2.5320001 15:2.5320001 16:6.329 17:2.5320001 18:8.8610001 19:1.266 20:2.5320001 #
-4 1:6.4520001 2:19.355 3:3.2260001 4:3.2260001 5:3.2260001 6:12.903 7:0 8:3.2260001 9:9.677 10:3.2260001 11:0 12:0 13:9.677 14:0 15:3.2260001 16:12.903 17:3.2260001 18:0 19:0 20:6.4520001 #
-4 1:4.348 2:13.043 3:4.348 4:0 5:2.174 6:13.043 7:2.174 8:8.6960001 9:8.6960001 10:2.174 11:0 12:6.5219998 13:4.348 14:0 15:6.5219998 16:10.87 17:8.6960001 18:0 19:0 20:4.348 #
-4 1:4.348 2:13.043 3:2.174 4:2.174 5:2.174 6:10.87 7:0 8:6.5219998 9:6.5219998 10:2.174 11:0 12:6.5219998 13:6.5219998 14:0 15:6.5219998 16:15.217 17:8.6960001 18:2.174 19:0 20:4.348 #
2.2903574473169157066365642094752 1:0 2:0 3:0 4:0 5:0 6:12.5 7:12.5 8:12.5 9:0 10:0 11:0 12:12.5 13:25 14:0 15:0 16:0 17:0 18:12.5 19:12.5 20:0 #
3.6373872469078594171776330767898 1:5 2:0 3:0 4:10 5:0 6:10 7:0 8:5 9:0 10:0 11:5 12:5 13:10 14:5 15:5 16:10 17:0 18:10 19:10 20:10 #
1.2628126910961685602785564697115 1:0 2:0 3:0 4:0 5:40 6:20 7:0 8:0 9:0 10:0 11:0 12:0 13:20 14:0 15:0 16:0 17:0 18:0 19:0 20:20 #
-4 1:4.2550001 2:8.5109997 3:2.128 4:17.021 5:0 6:6.3829999 7:2.128 8:0 9:2.128 10:2.128 11:0 12:0 13:4.2550001 14:8.5109997 15:25.532 16:2.128 17:2.128 18:10.638 19:0 20:2.128 #
-4 1:4.651 2:9.302 3:0 4:18.605 5:0 6:6.9770002 7:2.326 8:0 9:2.326 10:2.326 11:0 12:0 13:2.326 14:9.302 15:25.580999 16:2.326 17:2.326 18:9.302 19:0 20:2.326 #
20 1:2.174 2:13.043 3:2.174 4:2.174 5:0 6:13.043 7:0 8:6.5219998 9:6.5219998 10:4.348 11:0 12:6.5219998 13:6.5219998 14:0 15:8.6960001 16:15.217 17:8.6960001 18:0 19:0 20:4.348 #
1.812575396619507728246389888227 1:6.6669998 2:17.778 3:0 4:4.4439998 5:4.4439998 6:8.8889999 7:0 8:0 9:6.6669998 10:4.4439998 11:0 12:4.4439998 13:4.4439998 14:4.4439998 15:6.6669998 16:20 17:2.2219999 18:2.2219999 19:0 20:2.2219999 #
-4 1:10.132 2:14.978 3:2.2030001 4:3.0840001 5:2.2030001 6:18.502001 7:0.44100001 8:2.2030001 9:3.0840001 10:3.5239999 11:3.0840001 12:7.0479999 13:2.2030001 14:6.1669998 15:1.762 16:8.8109999 17:3.9649999 18:2.2030001 19:0.44100001 20:3.9649999 #
6.2032001105129825901940421317704 1:8.9799995 2:6.5310001 3:3.2650001 4:1.224 5:5.3060002 6:9.3879995 7:1.633 8:2.0409999 9:8.9799995 10:5.7140002 11:2.0409999 12:5.7140002 13:9.3879995 14:3.2650001 15:1.633 16:6.1220002 17:8.5710001 18:5.3060002 19:1.224 20:3.6730001 #
0.51921295893148666777960897888988 1:0 2:8.5109997 3:2.128 4:12.766 5:0 6:0 7:2.128 8:2.128 9:10.638 10:0 11:2.128 12:0 13:4.2550001 14:25.532 15:23.403999 16:0 17:2.128 18:0 19:0 20:4.2550001 #
2.0200375517816535619886053609662 1:0 2:11.429 3:5.7140002 4:14.286 5:0 6:0 7:0 8:0 9:2.8570001 10:0 11:0 12:0 13:5.7140002 14:28.570999 15:25.714001 16:0 17:0 18:0 19:0 20:5.7140002 #
-2.4561736725149767579523540916853 1:0 2:0 3:0 4:13.333 5:0 6:6.6669998 7:0 8:0 9:6.6669998 10:33.333 11:0 12:0 13:0 14:6.6669998 15:13.333 16:6.6669998 17:0 18:0 19:0 20:13.333 #
-4 1:9.7559996 2:9.7559996 3:7.3169999 4:1.22 5:2.4389999 6:2.4389999 7:1.22 8:9.7559996 9:7.3169999 10:7.3169999 11:1.22 12:4.8779998 13:3.6589999 14:8.5369997 15:2.4389999 16:6.098 17:7.3169999 18:4.8779998 19:1.22 20:1.22 #
6.3723025736172616007024771533906 1:4 2:16 3:4 4:4 5:6 6:8 7:4 8:6 9:6 10:0 11:2 12:10 13:2 14:4 15:2 16:8 17:2 18:2 19:4 20:6 #
14.899888758297482382886300911196 1:3.2260001 2:19.355 3:3.2260001 4:3.2260001 5:3.2260001 6:9.677 7:0 8:6.4520001 9:9.677 10:6.4520001 11:0 12:3.2260001 13:6.4520001 14:0 15:0 16:6.4520001 17:6.4520001 18:9.677 19:0 20:3.2260001 #
-4 1:2.0409999 2:9.184 3:2.0409999 4:4.0819998 5:6.1220002 6:8.1630001 7:1.02 8:5.1020002 9:7.1430001 10:7.1430001 11:1.02 12:8.1630001 13:7.1430001 14:1.02 15:7.1430001 16:8.1630001 17:6.1220002 18:4.0819998 19:3.0610001 20:2.0409999 #
-4 1:3.704 2:9.8769999 3:6.1729999 4:3.704 5:9.8769999 6:3.704 7:0 8:4.9380002 9:8.6420002 10:4.9380002 11:3.704 12:7.4070001 13:3.704 14:3.704 15:6.1729999 16:3.704 17:6.1729999 18:6.1729999 19:0 20:3.704 #
1.1389063281774298719284388425876 1:0 2:0 3:6.6669998 4:26.667 5:0 6:0 7:0 8:0 9:0 10:0 11:0 12:0 13:13.333 14:20 15:26.667 16:0 17:0 18:0 19:0 20:6.6669998 #
1.0075377217931729134647866885643 1:0 2:0 3:3.704 4:29.629999 5:3.704 6:0 7:0 8:0 9:0 10:11.111 11:0 12:3.704 13:0 14:11.111 15:33.333 16:0 17:0 18:0 19:3.704 20:0 #
-4 1:4.4439998 2:8.8889999 3:0 4:17.778 5:0 6:6.6669998 7:2.2219999 8:0 9:2.2219999 10:2.2219999 11:0 12:0 13:4.4439998 14:8.8889999 15:26.667 16:2.2219999 17:2.2219999 18:8.8889999 19:0 20:2.2219999 #
-1.4617221522124645982643187380745 1:0 2:0 3:15.385 4:61.537998 5:0 6:7.6919999 7:0 8:0 9:7.6919999 10:0 11:0 12:0 13:0 14:7.6919999 15:0 16:0 17:0 18:0 19:0 20:0 #
-0.57304481426677078559350775321946 1:8.3330002 2:0 3:0 4:16.667 5:0 6:12.5 7:8.3330002 8:0 9:0 10:8.3330002 11:4.1669998 12:0 13:0 14:0 15:12.5 16:12.5 17:4.1669998 18:8.3330002 19:4.1669998 20:0 #
-4 1:2.0829999 2:9.375 3:5.2080002 4:2.0829999 5:5.2080002 6:8.3330002 7:4.1669998 8:3.125 9:13.542 10:8.3330002 11:4.1669998 12:8.3330002 13:5.2080002 14:1.0420001 15:4.1669998 16:3.125 17:5.2080002 18:4.1669998 19:1.0420001 20:2.0829999 #
-4 1:6.1950002 2:7.5219998 3:4.4250002 4:2.655 5:7.5219998 6:10.177 7:0.442 8:3.0969999 9:2.2119999 10:4.8670001 11:1.327 12:9.2919998 13:8.8500004 14:5.3099999 15:3.9820001 16:5.3099999 17:7.5219998 18:4.8670001 19:1.327 20:3.0969999 #
-4 1:0 2:5.882 3:0 4:0 5:11.765 6:11.765 7:0 8:11.765 9:0 10:0 11:0 12:5.882 13:17.646999 14:0 15:5.882 16:0 17:11.765 18:5.882 19:0 20:11.765 #
-0.32171439927389355872833220928442 1:0 2:0 3:0 4:0 5:0 6:8.3330002 7:0 8:0 9:0 10:8.3330002 11:0 12:0 13:16.667 14:58.333 15:0 16:0 17:0 18:8.3330002 19:0 20:0 #
-0.4607119427209257489508331673278 1:0 2:0 3:0 4:0 5:10 6:0 7:0 8:0 9:0 10:0 11:0 12:0 13:15 14:60 15:0 16:15 17:0 18:0 19:0 20:0 #
5.9126845117825359565699727681931 1:9.302 2:18.605 3:0 4:2.326 5:2.326 6:13.953 7:0 8:0 9:0 10:2.326 11:0 12:11.628 13:0 14:11.628 15:9.302 16:11.628 17:2.326 18:0 19:0 20:4.651 #
-4 1:7.7919998 2:11.688 3:5.1950002 4:2.5969999 5:5.1950002 6:7.7919998 7:1.299 8:3.8959999 9:6.494 10:10.39 11:2.5969999 12:3.8959999 13:2.5969999 14:0 15:3.8959999 16:10.39 17:2.5969999 18:6.494 19:0 20:5.1950002 #
-4 1:12.5 2:10 3:0 4:5 5:6.25 6:6.25 7:2.5 8:6.25 9:7.5 10:5 11:2.5 12:6.25 13:5 14:2.5 15:0 16:6.25 17:3.75 18:7.5 19:1.25 20:3.75 #
0.60373750715390039900398733152542 1:0 2:0 3:0 4:0 5:0 6:75 7:0 8:0 9:11.111 10:0 11:0 12:0 13:0 14:0 15:2.7780001 16:0 17:0 18:0 19:8.3330002 20:2.7780001 #
-4 1:6.25 2:16.667 3:2.0829999 4:4.1669998 5:2.0829999 6:6.25 7:12.5 8:4.1669998 9:4.1669998 10:2.0829999 11:0 12:2.0829999 13:2.0829999 14:4.1669998 15:10.417 16:8.3330002 17:6.25 18:2.0829999 19:2.0829999 20:2.0829999 #
-2.5439956364010054556956674787216 1:20 2:0 3:0 4:0 5:0 6:40 7:0 8:0 9:0 10:0 11:0 12:0 13:0 14:0 15:0 16:20 17:0 18:0 19:0 20:20 #
1.1190496670309528770559381882777 1:0 2:6.6669998 3:6.6669998 4:6.6669998 5:6.6669998 6:13.333 7:6.6669998 8:6.6669998 9:0 10:6.6669998 11:0 12:20 13:0 14:0 15:0 16:0 17:0 18:13.333 19:0 20:6.6669998 #
0.039136495272947158241549914237112 1:0 2:0 3:10 4:0 5:20 6:0 7:0 8:10 9:0 10:0 11:0 12:20 13:0 14:10 15:10 16:10 17:0 18:0 19:0 20:10 #
-2.1405537856411172015214106068015 1:6.0609999 2:9.0909996 3:1.01 4:3.03 5:1.01 6:5.0510001 7:0 8:3.03 9:10.101 10:7.0710001 11:5.0510001 12:6.0609999 13:8.0810003 14:2.02 15:0 16:10.101 17:6.0609999 18:14.141 19:0 20:3.03 #
-4 1:3.947 2:13.158 3:2.632 4:3.947 5:7.895 6:5.263 7:1.316 8:3.947 9:6.579 10:11.842 11:2.632 12:3.947 13:1.316 14:2.632 15:2.632 16:9.2110004 17:6.579 18:5.263 19:0 20:5.263 #
3.0211015664822311599380100233248 1:2.7030001 2:21.622 3:2.7030001 4:2.7030001 5:0 6:27.027 7:0 8:0 9:2.7030001 10:2.7030001 11:0 12:2.7030001 13:8.1079998 14:2.7030001 15:0 16:10.811 17:0 18:0 19:2.7030001 20:10.811 #
-4 1:3.947 2:10.526 3:3.947 4:7.895 5:1.316 6:7.895 7:2.632 8:5.263 9:3.947 10:7.895 11:5.263 12:2.632 13:1.316 14:5.263 15:0 16:2.632 17:14.474 18:9.2110004 19:0 20:3.947 #
-4 1:3.3329999 2:20 3:6.6669998 4:6.6669998 5:0 6:10 7:0 8:6.6669998 9:10 10:3.3329999 11:0 12:3.3329999 13:6.6669998 14:3.3329999 15:13.333 16:3.3329999 17:0 18:0 19:0 20:3.3329999 #
-4 1:4.4439998 2:17.778 3:8.8889999 4:0 5:2.2219999 6:6.6669998 7:0 8:2.2219999 9:11.111 10:11.111 11:0 12:0 13:6.6669998 14:0 15:11.111 16:11.111 17:4.4439998 18:0 19:0 20:2.2219999 #
2.9973716884044776520568120758981 1:0 2:2.8570001 3:2.8570001 4:0 5:2.8570001 6:8.5710001 7:2.8570001 8:5.7140002 9:0 10:14.286 11:0 12:11.429 13:14.286 14:0 15:0 16:0 17:14.286 18:11.429 19:5.7140002 20:2.8570001 #
-0.42410569654238727821393695194274 1:0 2:16.667 3:8.3330002 4:8.3330002 5:8.3330002 6:16.667 7:0 8:8.3330002 9:0 10:0 11:0 12:0 13:16.667 14:0 15:0 16:8.3330002 17:0 18:8.3330002 19:0 20:0 #
-1.3023166095295177768775829463266 1:17.646999 2:0 3:0 4:0 5:0 6:0 7:0 8:5.882 9:0 10:11.765 11:0 12:5.882 13:5.882 14:17.646999 15:5.882 16:11.765 17:0 18:11.765 19:5.882 20:0 #
-0.52267120277468936961895451531745 1:5.5560002 2:0 3:1.1109999 4:1.1109999 5:2.2219999 6:2.2219999 7:1.1109999 8:2.2219999 9:17.778 10:7.7779999 11:2.2219999 12:1.1109999 13:26.667 14:1.1109999 15:0 16:2.2219999 17:2.2219999 18:10 19:0 20:13.333 #
-0.0010619795967057379937337202591152 1:0 2:0 3:0 4:0 5:14.286 6:0 7:0 8:0 9:0 10:0 11:0 12:0 13:14.286 14:57.143002 15:0 16:0 17:0 18:14.286 19:0 20:0 #
-4 1:9.0480003 2:9.5240002 3:0.95200002 4:4.2859998 5:3.3329999 6:15.238 7:0.47600001 8:0.95200002 9:6.6669998 10:4.7620001 11:8.5710001 12:1.429 13:7.1430001 14:4.7620001 15:1.429 16:7.1430001 17:3.8099999 18:4.7620001 19:0.47600001 20:5.2379999 #
-4 1:3.7969999 2:10.127 3:5.0630002 4:2.5320001 5:3.7969999 6:8.8610001 7:1.266 8:13.924 9:3.7969999 10:5.0630002 11:3.7969999 12:2.5320001 13:6.329 14:2.5320001 15:3.7969999 16:10.127 17:5.0630002 18:5.0630002 19:0 20:2.5320001 #
-4 1:4.2550001 2:17.021 3:4.2550001 4:4.2550001 5:2.128 6:8.5109997 7:6.3829999 8:2.128 9:6.3829999 10:4.2550001 11:2.128 12:2.128 13:2.128 14:4.2550001 15:8.5109997 16:8.5109997 17:2.128 18:4.2550001 19:2.128 20:4.2550001 #
-1.7063497420609066157481947811903 1:4.0539999 2:10.811 3:5.4050002 4:2.7030001 5:8.1079998 6:6.757 7:1.351 8:9.4589996 9:8.1079998 10:4.0539999 11:4.0539999 12:2.7030001 13:4.0539999 14:0 15:0 16:10.811 17:6.757 18:6.757 19:1.351 20:2.7030001 #
3.2559222384316015563854307401925 1:0 2:20 3:10 4:0 5:0 6:0 7:10 8:0 9:0 10:10 11:10 12:10 13:10 14:0 15:0 16:10 17:10 18:0 19:0 20:0 #
-4 1:4.348 2:13.043 3:4.348 4:2.8989999 5:4.348 6:7.2459998 7:0 8:5.7969999 9:8.6960001 10:8.6960001 11:4.348 12:7.2459998 13:4.348 14:5.7969999 15:0 16:5.7969999 17:2.8989999 18:5.7969999 19:0 20:4.348 #
-4 1:8.3330002 2:0 3:0 4:0 5:0 6:0 7:8.3330002 8:0 9:8.3330002 10:0 11:0 12:8.3330002 13:25 14:0 15:25 16:8.3330002 17:8.3330002 18:0 19:0 20:0 #
-0.55758542100690711151855794014409 1:10 2:0 3:10 4:0 5:0 6:5 7:15 8:0 9:5 10:5 11:0 12:0 13:25 14:5 15:5 16:5 17:5 18:0 19:0 20:5 #
-4 1:8.1079998 2:10.811 3:1.351 4:5.4050002 5:10.811 6:6.757 7:4.0539999 8:1.351 9:4.0539999 10:5.4050002 11:5.4050002 12:2.7030001 13:4.0539999 14:0 15:12.162 16:6.757 17:6.757 18:4.0539999 19:0 20:0 #
17.730981020989993623970804037526 1:4.2550001 2:17.021 3:2.128 4:6.3829999 5:2.128 6:8.5109997 7:6.3829999 8:2.128 9:6.3829999 10:4.2550001 11:2.128 12:2.128 13:2.128 14:4.2550001 15:8.5109997 16:8.5109997 17:2.128 18:4.2550001 19:2.128 20:4.2550001 #
-4 1:0 2:13.043 3:4.348 4:0 5:4.348 6:2.174 7:0 8:4.348 9:10.87 10:6.5219998 11:2.174 12:4.348 13:6.5219998 14:4.348 15:2.174 16:13.043 17:8.6960001 18:6.5219998 19:0 20:6.5219998 #
0.0013965025929190133524571137968451 1:20.833 2:0 3:0 4:0 5:8.3330002 6:16.667 7:0 8:4.1669998 9:0 10:0 11:4.1669998 12:8.3330002 13:8.3330002 14:0 15:8.3330002 16:4.1669998 17:4.1669998 18:0 19:0 20:12.5 #
-4 1:9.302 2:0 3:4.651 4:6.9770002 5:9.302 6:9.302 7:2.326 8:4.651 9:0 10:11.628 11:2.326 12:0 13:4.651 14:6.9770002 15:2.326 16:6.9770002 17:9.302 18:4.651 19:0 20:4.651 #
-4 1:12.5 2:0 3:6.25 4:0 5:0 6:25 7:0 8:0 9:0 10:6.25 11:0 12:0 13:6.25 14:6.25 15:18.75 16:6.25 17:6.25 18:6.25 19:0 20:0 #
-4 1:11.111 2:0 3:0 4:0 5:0 6:22.222 7:0 8:0 9:0 10:11.111 11:0 12:11.111 13:22.222 14:0 15:11.111 16:0 17:0 18:11.111 19:0 20:0 #
-4 1:10.204 2:8.1630001 3:0 4:0 5:0 6:10.204 7:0 8:2.0409999 9:4.0819998 10:2.0409999 11:0 12:10.204 13:4.0819998 14:4.0819998 15:14.286 16:12.245 17:4.0819998 18:4.0819998 19:0 20:10.204 #
-0.3722269184269709763057676354947 1:0 2:5.5560002 3:0 4:0 5:16.667 6:0 7:5.5560002 8:0 9:0 10:0 11:0 12:5.5560002 13:22.222 14:33.333 15:0 16:0 17:5.5560002 18:0 19:0 20:5.5560002 #
2.4264199200950562484990769007709 1:0 2:0 3:0 4:9.0909996 5:18.181999 6:9.0909996 7:0 8:0 9:0 10:0 11:9.0909996 12:0 13:0 14:0 15:0 16:18.181999 17:9.0909996 18:18.181999 19:0 20:9.0909996 #
-4 1:5.3189998 2:2.128 3:2.128 4:5.3189998 5:6.3829999 6:4.2550001 7:0 8:5.3189998 9:7.447 10:12.766 11:1.064 12:5.3189998 13:7.447 14:4.2550001 15:5.3189998 16:6.3829999 17:4.2550001 18:13.83 19:1.064 20:0 #
-0.17929099325097347383817236732284 1:0 2:0 3:0 4:0 5:14.286 6:0 7:0 8:0 9:0 10:0 11:0 12:0 13:42.856998 14:42.856998 15:0 16:0 17:0 18:0 19:0 20:0 #
-4 1:6.2800002 2:1.932 3:4.8309999 4:6.763 5:3.382 6:6.2800002 7:3.865 8:5.3140001 9:5.7969999 10:11.594 11:0.48300001 12:4.348 13:6.763 14:2.8989999 15:3.382 16:9.6619997 17:4.8309999 18:7.7290001 19:1.449 20:2.415 #
-4 1:4.348 2:13.043 3:2.174 4:0 5:0 6:8.6960001 7:2.174 8:6.5219998 9:4.348 10:4.348 11:0 12:6.5219998 13:4.348 14:0 15:6.5219998 16:17.391001 17:15.217 18:0 19:2.174 20:2.174 #
-1.3062114033178580108085498068249 1:0 2:0 3:16.667 4:0 5:0 6:16.667 7:0 8:0 9:0 10:0 11:0 12:16.667 13:0 14:0 15:16.667 16:33.333 17:0 18:0 19:0 20:0 #
-4 1:3.3710001 2:8.9890003 3:6.7420001 4:4.494 5:12.36 6:6.7420001 7:2.247 8:4.494 9:14.607 10:5.618 11:1.124 12:2.247 13:5.618 14:2.247 15:2.247 16:2.247 17:2.247 18:10.112 19:0 20:2.247 #
-2.0251961797807318532704812241718 1:20.312 2:3.125 3:5.4689999 4:8.5939999 5:2.3440001 6:4.6880002 7:0 8:2.3440001 9:2.3440001 10:6.25 11:2.3440001 12:1.562 13:4.6880002 14:3.125 15:5.4689999 16:9.375 17:3.125 18:11.719 19:0 20:3.125 #
0.27087509038438772890344807819929 1:0 2:19.355 3:3.2260001 4:3.2260001 5:3.2260001 6:16.129 7:3.2260001 8:3.2260001 9:0 10:3.2260001 11:0 12:6.4520001 13:9.677 14:0 15:0 16:6.4520001 17:19.355 18:0 19:3.2260001 20:0 #
-4 1:5.7470002 2:9.1949997 3:6.8969998 4:3.448 5:4.598 6:2.299 7:2.299 8:8.0459995 9:9.1949997 10:6.8969998 11:1.149 12:3.448 13:6.8969998 14:3.448 15:4.598 16:3.448 17:3.448 18:10.345 19:0 20:4.598 #
6.0316377466930930495436768978834 1:7.1430001 2:14.286 3:7.1430001 4:7.1430001 5:0 6:7.1430001 7:0 8:7.1430001 9:7.1430001 10:0 11:7.1430001 12:0 13:0 14:7.1430001 15:14.286 16:7.1430001 17:7.1430001 18:0 19:0 20:0 #
-4 1:4.2550001 2:17.021 3:4.2550001 4:2.128 5:2.128 6:14.894 7:2.128 8:4.2550001 9:4.2550001 10:2.128 11:4.2550001 12:4.2550001 13:0 14:8.5109997 15:12.766 16:4.2550001 17:0 18:6.3829999 19:0 20:2.128 #
-4 1:4.3309999 2:4.724 3:3.937 4:4.724 5:3.937 6:5.118 7:1.575 8:5.5120001 9:6.2989998 10:12.598 11:2.756 12:6.2989998 13:3.1500001 14:3.1500001 15:7.48 16:9.0550003 17:4.724 18:3.543 19:0.787 20:6.2989998 #
-4 1:9.3879995 2:6.5310001 3:4.8979998 4:2.0409999 5:5.3060002 6:9.3879995 7:0.81599998 8:2.4489999 9:3.6730001 10:5.7140002 11:2.0409999 12:5.7140002 13:8.5710001 14:4.0819998 15:1.224 16:8.1630001 17:9.3879995 18:6.1220002 19:1.224 20:3.2650001 #
-0.16810594860646002612902805140038 1:0 2:0 3:0 4:0 5:0 6:0 7:0 8:11.111 9:0 10:0 11:0 12:0 13:33.333 14:55.556 15:0 16:0 17:0 18:0 19:0 20:0 #
7.4754623566275739676711964420974 1:5.1279998 2:5.1279998 3:5.1279998 4:5.1279998 5:2.5639999 6:5.1279998 7:2.5639999 8:2.5639999 9:5.1279998 10:5.1279998 11:0 12:2.5639999 13:15.385 14:2.5639999 15:12.821 16:5.1279998 17:10.256 18:5.1279998 19:0 20:2.5639999 #
18.417020995083404955039441119879 1:5.6680002 2:6.4780002 3:4.4530001 4:2.4289999 5:6.4780002 6:10.526 7:0.405 8:2.8340001 9:2.0239999 10:4.8579998 11:1.619 12:6.8829999 13:8.5019999 14:4.0489998 15:4.8579998 16:7.2870002 17:10.121 18:4.8579998 19:2.0239999 20:3.6440001 #
-4 1:6.1220002 2:8.1630001 3:6.1220002 4:8.1630001 5:0 6:6.1220002 7:6.1220002 8:8.1630001 9:6.1220002 10:4.0819998 11:0 12:6.1220002 13:4.0819998 14:2.0409999 15:8.1630001 16:6.1220002 17:8.1630001 18:0 19:0 20:6.1220002 #
12.357845410688991449887907947414 1:3.448 2:17.240999 3:10.345 4:0 5:0 6:0 7:0 8:6.8969998 9:6.8969998 10:13.793 11:3.448 12:3.448 13:6.8969998 14:6.8969998 15:3.448 16:3.448 17:3.448 18:10.345 19:0 20:0 #
2.3699342713753939193566111498512 1:0 2:10 3:0 4:0 5:10 6:0 7:0 8:10 9:25 10:10 11:0 12:0 13:5 14:0 15:15 16:10 17:0 18:0 19:5 20:0 #
20 1:17.778 2:8.8889999 3:2.2219999 4:0 5:0 6:12.222 7:1.1109999 8:4.4439998 9:5.5560002 10:4.4439998 11:0 12:1.1109999 13:4.4439998 14:2.2219999 15:5.5560002 16:14.444 17:5.5560002 18:6.6669998 19:0 20:3.3329999 #
12.280131318243917348809191025794 1:3.3610001 2:8.4029999 3:4.2020001 4:4.2020001 5:4.2020001 6:15.126 7:1.681 8:5.882 9:6.723 10:3.3610001 11:2.5209999 12:1.681 13:5.882 14:8.4029999 15:5.882 16:4.2020001 17:2.5209999 18:5.882 19:3.3610001 20:2.5209999 #
0.45906356917629764780031109694391 1:10 2:10 3:10 4:10 5:0 6:0 7:10 8:0 9:10 10:10 11:0 12:0 13:0 14:0 15:0 16:0 17:20 18:0 19:0 20:10 #
20 1:9.4119997 2:6.2750001 3:5.4899998 4:3.9219999 5:3.529 6:9.4119997 7:1.569 8:5.4899998 9:3.1370001 10:2.7449999 11:0.78399998 12:5.098 13:5.098 14:4.3140001 15:6.2750001 16:7.8429999 17:6.6669998 18:5.098 19:2.3529999 20:5.4899998 #
-4 1:11.458 2:4.1669998 3:2.0829999 4:5.2080002 5:2.0829999 6:25 7:10.417 8:3.125 9:3.125 10:9.375 11:1.0420001 12:1.0420001 13:1.0420001 14:2.0829999 15:1.0420001 16:10.417 17:3.125 18:2.0829999 19:0 20:2.0829999 #
-4 1:21.186001 2:6.7800002 3:1.6950001 4:0.847 5:0.847 6:7.6269999 7:0 8:5.085 9:1.6950001 10:5.9320002 11:0.847 12:4.237 13:2.5420001 14:1.6950001 15:6.7800002 16:14.407 17:5.9320002 18:10.169 19:0 20:1.6950001 #
9.6206468455715388188309589168057 1:5.085 2:15.254 3:3.3900001 4:10.169 5:1.6950001 6:1.6950001 7:1.6950001 8:3.3900001 9:16.948999 10:13.559 11:3.3900001 12:1.6950001 13:3.3900001 14:1.6950001 15:1.6950001 16:5.085 17:6.7800002 18:1.6950001 19:0 20:1.6950001 #
-4 1:4.1669998 2:11.458 3:3.125 4:7.2919998 5:4.1669998 6:3.125 7:3.125 8:3.125 9:10.417 10:6.25 11:3.125 12:4.1669998 13:7.2919998 14:6.25 15:2.0829999 16:6.25 17:5.2080002 18:5.2080002 19:2.0829999 20:2.0829999 #
-4 1:3.8959999 2:10.39 3:3.8959999 4:9.0909996 5:2.5969999 6:6.494 7:0 8:5.1950002 9:7.7919998 10:2.5969999 11:3.8959999 12:7.7919998 13:3.8959999 14:2.5969999 15:3.8959999 16:7.7919998 17:3.8959999 18:7.7919998 19:2.5969999 20:3.8959999 #
12.448708244758979191146863740869 1:17.582001 2:8.7910004 3:1.099 4:0 5:0 6:9.8900003 7:1.099 8:7.6919999 9:6.5929999 10:6.5929999 11:0 12:5.4949999 13:7.6919999 14:2.198 15:2.198 16:10.989 17:5.4949999 18:3.2969999 19:0 20:3.2969999 #
1.1655445897303065017069911846193 1:3.704 2:14.815 3:9.2589998 4:7.4070001 5:1.852 6:1.852 7:1.852 8:1.852 9:12.963 10:5.5560002 11:0 12:7.4070001 13:1.852 14:7.4070001 15:3.704 16:3.704 17:0 18:3.704 19:0 20:11.111 #
-1.4377150706584709283220036013518 1:0 2:47.058998 3:0 4:47.058998 5:0 6:5.882 7:0 8:0 9:0 10:0 11:0 12:0 13:0 14:0 15:0 16:0 17:0 18:0 19:0 20:0 #
-4 1:4.1240001 2:9.2779999 3:3.0929999 4:2.062 5:3.0929999 6:5.1550002 7:1.031 8:4.1240001 9:3.0929999 10:11.34 11:3.0929999 12:9.2779999 13:9.2779999 14:6.1859999 15:3.0929999 16:12.371 17:3.0929999 18:5.1550002 19:2.062 20:0 #
-0.32025223220467341489481327698741 1:0 2:0 3:0 4:0 5:0 6:0 7:0 8:20 9:0 10:0 11:0 12:0 13:0 14:20 15:0 16:0 17:20 18:0 19:0 20:40 #
-4 1:13.514 2:16.216 3:5.4050002 4:0 5:10.811 6:8.1079998 7:0 8:0 9:2.7030001 10:8.1079998 11:0 12:5.4050002 13:8.1079998 14:2.7030001 15:2.7030001 16:5.4050002 17:2.7030001 18:8.1079998 19:0 20:0 #
-4 1:9.4650002 2:6.5840001 3:3.2920001 4:1.235 5:4.9380002 6:10.288 7:3.2920001 8:3.2920001 9:4.9380002 10:8.6420002 11:1.646 12:4.527 13:6.9959998 14:3.2920001 15:3.2920001 16:9.8769999 17:4.1149998 18:4.9380002 19:1.235 20:4.1149998 #
-4 1:10.204 2:8.1630001 3:6.1220002 4:2.0409999 5:0 6:14.286 7:0 8:4.0819998 9:0 10:2.0409999 11:0 12:6.1220002 13:6.1220002 14:6.1220002 15:10.204 16:10.204 17:2.0409999 18:2.0409999 19:0 20:10.204 #
-4 1:10.204 2:8.1630001 3:0 4:0 5:0 6:10.204 7:0 8:2.0409999 9:4.0819998 10:2.0409999 11:0 12:10.204 13:4.0819998 14:4.0819998 15:12.245 16:14.286 17:4.0819998 18:4.0819998 19:0 20:10.204 #
-3.3226337697297059214918135694461 1:15.534 2:10.68 3:4.8540001 4:7.7670002 5:5.8249998 6:0.97100002 7:0.97100002 8:3.8829999 9:9.7089996 10:7.7670002 11:3.8829999 12:1.942 13:1.942 14:0.97100002 15:2.9130001 16:3.8829999 17:8.7379999 18:5.8249998 19:0.97100002 20:0.97100002 #
2.4830816090789125105686707684072 1:0 2:0 3:10 4:0 5:0 6:10 7:10 8:30 9:10 10:0 11:0 12:10 13:0 14:0 15:0 16:10 17:0 18:10 19:0 20:0 #
0.94823320095150931408056749205571 1:16.667 2:0 3:0 4:16.667 5:0 6:0 7:16.667 8:0 9:16.667 10:0 11:0 12:0 13:0 14:16.667 15:16.667 16:0 17:0 18:0 19:0 20:0 #
-3.1000120655818750314836051984457 1:0 2:0 3:0 4:0 5:0 6:12 7:0 8:0 9:24 10:4 11:12 12:0 13:0 14:4 15:32 16:4 17:4 18:4 19:0 20:0 #
-0.40506184236845932389314839383587 1:18.462 2:0 3:0 4:18.462 5:0 6:3.0769999 7:0 8:36.923 9:20 10:0 11:0 12:0 13:3.0769999 14:0 15:0 16:0 17:0 18:0 19:0 20:0 #
-0.10201269516177242924204193741389 1:0 2:0 3:0 4:0 5:0 6:0 7:0 8:25 9:0 10:25 11:0 12:0 13:0 14:50 15:0 16:0 17:0 18:0 19:0 20:0 #
-4 1:10.417 2:5.7290001 3:7.8119998 4:4.1669998 5:1.0420001 6:10.417 7:2.0829999 8:2.6040001 9:3.6459999 10:7.2919998 11:1.0420001 12:5.2080002 13:4.6880002 14:1.562 15:7.2919998 16:7.8119998 17:6.25 18:6.7709999 19:1.562 20:2.6040001 #
-4 1:4 2:12 3:6.6669998 4:6.6669998 5:5.3330002 6:5.3330002 7:2.6670001 8:1.3329999 9:6.6669998 10:9.3330002 11:1.3329999 12:4 13:1.3329999 14:2.6670001 15:6.6669998 16:5.3330002 17:6.6669998 18:9.3330002 19:1.3329999 20:1.3329999 #
-4 1:4.902 2:7.8429999 3:1.961 4:0.98000002 5:1.961 6:7.8429999 7:1.961 8:6.8629999 9:10.784 10:6.8629999 11:2.941 12:2.941 13:3.9219999 14:3.9219999 15:2.941 16:10.784 17:11.765 18:6.8629999 19:0.98000002 20:0.98000002 #
0.87749764859320256160657436339534 1:0 2:0 3:0 4:0 5:0 6:65.789001 7:21.052999 8:0 9:0 10:0 11:0 12:5.263 13:0 14:0 15:0 16:0 17:0 18:0 19:0 20:7.895 #
-0.46292489232422462386296047043288 1:0 2:0 3:0 4:0 5:0 6:0 7:0 8:0 9:20 10:20 11:0 12:0 13:20 14:0 15:0 16:0 17:0 18:40 19:0 20:0 #
-4 1:13.75 2:10 3:0 4:5 5:7.5 6:5 7:2.5 8:3.75 9:6.25 10:6.25 11:2.5 12:6.25 13:5 14:2.5 15:2.5 16:6.25 17:3.75 18:7.5 19:1.25 20:2.5 #
-2.1681791771419529624154165503569 1:0 2:0 3:7.6919999 4:0 5:15.385 6:0 7:0 8:15.385 9:0 10:15.385 11:0 12:15.385 13:15.385 14:0 15:7.6919999 16:0 17:0 18:7.6919999 19:0 20:0 #
-4 1:4.651 2:10.465 3:5.8140001 4:5.8140001 5:4.651 6:10.465 7:1.163 8:3.4879999 9:8.1400003 10:10.465 11:2.326 12:3.4879999 13:3.4879999 14:1.163 15:3.4879999 16:8.1400003 17:2.326 18:9.302 19:0 20:1.163 #
-0.32746786487579004898407220025547 1:2.7030001 2:8.1079998 3:0 4:2.7030001 5:0 6:2.7030001 7:2.7030001 8:16.216 9:10.811 10:2.7030001 11:5.4050002 12:2.7030001 13:2.7030001 14:5.4050002 15:27.027 16:5.4050002 17:0 18:2.7030001 19:0 20:0 #
-1.5040152440087324325901363408775 1:5.882 2:0 3:11.765 4:0 5:5.882 6:0 7:0 8:0 9:0 10:11.765 11:0 12:35.293999 13:5.882 14:11.765 15:5.882 16:0 17:5.882 18:0 19:0 20:0 #
-3.1200782481081610342243948252872 1:2.5639999 2:10.256 3:0 4:5.1279998 5:6.4099998 6:3.846 7:2.5639999 8:6.4099998 9:11.538 10:11.538 11:2.5639999 12:3.846 13:5.1279998 14:6.4099998 15:2.5639999 16:6.4099998 17:5.1279998 18:6.4099998 19:0 20:1.2819999 #
7.5218652962191185906704049557447 1:5.3330002 2:12 3:6.6669998 4:6.6669998 5:6.6669998 6:5.3330002 7:2.6670001 8:0 9:9.3330002 10:10.667 11:1.3329999 12:4 13:1.3329999 14:2.6670001 15:5.3330002 16:4 17:8 18:5.3330002 19:1.3329999 20:1.3329999 #
20 1:3.175 2:14.286 3:0 4:3.175 5:1.587 6:11.111 7:0 8:1.587 9:7.9369998 10:14.286 11:1.587 12:3.175 13:3.175 14:4.7620001 15:7.9369998 16:6.349 17:4.7620001 18:9.5240002 19:0 20:1.587 #
-4 1:11.688 2:7.7919998 3:6.494 4:0 5:6.494 6:7.7919998 7:1.299 8:5.1950002 9:3.8959999 10:6.494 11:3.8959999 12:0 13:3.8959999 14:9.0909996 15:2.5969999 16:2.5969999 17:9.0909996 18:7.7919998 19:1.299 20:2.5969999 #
-4 1:8.8240004 2:10.784 3:5.882 4:1.961 5:4.902 6:5.882 7:1.961 8:2.941 9:9.8039999 10:8.8240004 11:3.9219999 12:5.882 13:3.9219999 14:1.961 15:0.98000002 16:6.8629999 17:3.9219999 18:8.8240004 19:0 20:1.961 #
-4 1:1.087 2:10.87 3:5.4349999 4:4.348 5:4.348 6:7.6090002 7:1.087 8:4.348 9:10.87 10:7.6090002 11:4.348 12:2.174 13:6.5219998 14:2.174 15:5.4349999 16:5.4349999 17:4.348 18:7.6090002 19:2.174 20:2.174 #
3.2610750249128757083383334247628 1:5.7690001 2:15.385 3:5.7690001 4:0 5:1.923 6:13.462 7:0 8:5.7690001 9:7.6919999 10:5.7690001 11:3.846 12:5.7690001 13:3.846 14:3.846 15:5.7690001 16:1.923 17:7.6919999 18:3.846 19:0 20:1.923 #
-4 1:2.74 2:10.959 3:5.4790001 4:5.4790001 5:2.74 6:8.2189999 7:0 8:12.329 9:10.959 10:5.4790001 11:2.74 12:6.849 13:1.37 14:1.37 15:0 16:5.4790001 17:8.2189999 18:4.1100001 19:0 20:5.4790001 #
-4 1:0 2:15.385 3:12.821 4:0 5:0 6:12.821 7:2.5639999 8:10.256 9:5.1279998 10:5.1279998 11:0 12:7.6919999 13:5.1279998 14:5.1279998 15:5.1279998 16:5.1279998 17:5.1279998 18:2.5639999 19:0 20:0 #
-4 1:1.124 2:8.9890003 3:1.124 4:2.247 5:5.618 6:6.7420001 7:2.247 8:6.7420001 9:6.7420001 10:5.618 11:2.247 12:7.8649998 13:3.3710001 14:12.36 15:6.7420001 16:3.3710001 17:7.8649998 18:5.618 19:3.3710001 20:0 #
-4 1:18.367001 2:8.1630001 3:4.0819998 4:0 5:0 6:6.1220002 7:0 8:6.1220002 9:0 10:2.0409999 11:2.0409999 12:6.1220002 13:8.1630001 14:4.0819998 15:8.1630001 16:10.204 17:4.0819998 18:2.0409999 19:0 20:10.204 #
0.32200319104705954487144481390715 1:0 2:10.526 3:5.263 4:5.263 5:5.263 6:5.263 7:5.263 8:0 9:5.263 10:5.263 11:0 12:10.526 13:5.263 14:0 15:15.789 16:15.789 17:5.263 18:0 19:0 20:0 #
-4 1:3.2260001 2:10.753 3:2.151 4:6.4520001 5:6.4520001 6:4.3010001 7:2.151 8:5.3759999 9:12.903 10:3.2260001 11:2.151 12:4.3010001 13:4.3010001 14:2.151 15:5.3759999 16:6.4520001 17:4.3010001 18:9.677 19:1.075 20:3.2260001 #
-4 1:5.1950002 2:10.39 3:2.5969999 4:3.8959999 5:9.0909996 6:9.0909996 7:1.299 8:2.5969999 9:3.8959999 10:3.8959999 11:5.1950002 12:5.1950002 13:2.5969999 14:2.5969999 15:10.39 16:6.494 17:6.494 18:9.0909996 19:0 20:0 #
-4 1:2.3529999 2:9.4119997 3:4.7059999 4:2.3529999 5:7.059 6:7.059 7:1.176 8:3.529 9:12.941 10:7.059 11:2.3529999 12:0 13:5.882 14:4.7059999 15:4.7059999 16:5.882 17:8.2349997 18:7.059 19:1.176 20:2.3529999 #
-4 1:2.4100001 2:10.843 3:7.2290001 4:3.6140001 5:4.8189998 6:8.434 7:1.205 8:7.2290001 9:10.843 10:8.434 11:1.205 12:2.4100001 13:3.6140001 14:3.6140001 15:2.4100001 16:6.0240002 17:6.0240002 18:6.0240002 19:0 20:3.6140001 #
-4 1:1.98 2:9.901 3:5.941 4:3.96 5:4.9499998 6:4.9499998 7:4.9499998 8:7.921 9:6.9310002 10:5.941 11:1.98 12:0.99000001 13:6.9310002 14:1.98 15:4.9499998 16:4.9499998 17:5.941 18:9.901 19:0.99000001 20:3.96 #
-4 1:19.792 2:9.375 3:1.0420001 4:0 5:2.0829999 6:12.5 7:1.0420001 8:2.0829999 9:2.0829999 10:6.25 11:3.125 12:3.125 13:4.1669998 14:4.1669998 15:7.2919998 16:6.25 17:3.125 18:10.417 19:0 20:2.0829999 #
-4 1:6.6669998 2:10 3:4.4439998 4:6.6669998 5:7.7779999 6:3.3329999 7:4.4439998 8:2.2219999 9:4.4439998 10:6.6669998 11:4.4439998 12:7.7779999 13:5.5560002 14:1.1109999 15:4.4439998 16:6.6669998 17:4.4439998 18:5.5560002 19:1.1109999 20:2.2219999 #
-3.5354881214024871383116987999529 1:14.286 2:0 3:14.286 4:0 5:0 6:14.286 7:0 8:0 9:0 10:14.286 11:0 12:0 13:14.286 14:14.286 15:14.286 16:0 17:0 18:0 19:0 20:0 #
-4 1:10.204 2:8.1630001 3:0 4:2.0409999 5:0 6:8.1630001 7:0 8:4.0819998 9:2.0409999 10:2.0409999 11:0 12:8.1630001 13:6.1220002 14:6.1220002 15:10.204 16:10.204 17:10.204 18:2.0409999 19:0 20:10.204 #
-4 1:1.124 2:8.9890003 3:3.3710001 4:2.247 5:6.7420001 6:7.8649998 7:0 8:6.7420001 9:14.607 10:8.9890003 11:1.124 12:4.494 13:5.618 14:4.494 15:2.247 16:5.618 17:3.3710001 18:8.9890003 19:2.247 20:1.124 #
-4 1:5 2:5 3:5 4:5 5:5 6:5 7:5 8:5 9:5 10:5 11:5 12:5 13:5 14:5 15:5 16:5 17:5 18:5 19:5 20:5 #
-4 1:16.854 2:6.7420001 3:4.494 4:1.124 5:2.247 6:11.236 7:1.124 8:2.247 9:4.494 10:2.247 11:8.9890003 12:3.3710001 13:5.618 14:3.3710001 15:3.3710001 16:6.7420001 17:5.618 18:7.8649998 19:0 20:2.247 #
4.1010975563450813297095010057092 1:2.632 2:15.789 3:0 4:10.526 5:5.263 6:7.895 7:0 8:5.263 9:13.158 10:0 11:2.632 12:2.632 13:2.632 14:2.632 15:2.632 16:5.263 17:7.895 18:5.263 19:0 20:7.895 #
-2.5367583554077919316682709904853 1:10 2:10 3:0 4:2.2219999 5:1.1109999 6:8.8889999 7:2.2219999 8:6.6669998 9:1.1109999 10:12.222 11:2.2219999 12:4.4439998 13:6.6669998 14:5.5560002 15:0 16:11.111 17:5.5560002 18:8.8889999 19:0 20:1.1109999 #
-4 1:5.4050002 2:16.216 3:5.4050002 4:2.7030001 5:8.1079998 6:10.811 7:2.7030001 8:5.4050002 9:0 10:2.7030001 11:0 12:2.7030001 13:13.514 14:0 15:8.1079998 16:5.4050002 17:2.7030001 18:8.1079998 19:0 20:0 #
-4 1:1.2819999 2:10.256 3:1.2819999 4:6.4099998 5:7.6919999 6:8.974 7:0 8:6.4099998 9:12.821 10:11.538 11:3.846 12:2.5639999 13:2.5639999 14:6.4099998 15:5.1279998 16:1.2819999 17:7.6919999 18:2.5639999 19:0 20:1.2819999 #
4.6095729716158757582888938486576 1:10.222 2:7.1110001 3:5.3330002 4:2.2219999 5:4.4439998 6:12.889 7:0.889 8:2.6670001 9:3.556 10:6.2220001 11:1.3329999 12:3.556 13:6.2220001 14:3.556 15:4.8889999 16:4.8889999 17:9.3330002 18:6.2220001 19:1.3329999 20:3.1110001 #
-4 1:7.7919998 2:7.7919998 3:2.5969999 4:7.7919998 5:2.5969999 6:6.494 7:0 8:6.494 9:9.0909996 10:0 11:5.1950002 12:9.0909996 13:2.5969999 14:1.299 15:5.1950002 16:7.7919998 17:3.8959999 18:7.7919998 19:1.299 20:5.1950002 #
1.2298209725918738399741414468735 1:6.25 2:16.667 3:4.1669998 4:2.0829999 5:2.0829999 6:8.3330002 7:0 8:8.3330002 9:8.3330002 10:2.0829999 11:2.0829999 12:6.25 13:2.0829999 14:2.0829999 15:6.25 16:8.3330002 17:8.3330002 18:4.1669998 19:0 20:2.0829999 #
-2.5683108668596048573817824944854 1:5.8140001 2:0 3:2.326 4:6.9770002 5:3.4879999 6:1.163 7:6.9770002 8:3.4879999 9:8.1400003 10:11.628 11:2.326 12:4.651 13:13.953 14:5.8140001 15:0 16:5.8140001 17:3.4879999 18:8.1400003 19:1.163 20:4.651 #
16.55840770621882995783380465582 1:6 2:16 3:0 4:4 5:4 6:10 7:4 8:4 9:4 10:4 11:0 12:8 13:6 14:2 15:10 16:6 17:2 18:4 19:2 20:4 #
-0.065635972883666404698033147724345 1:0 2:0 3:0 4:0 5:0 6:0 7:5.5560002 8:0 9:5.5560002 10:0 11:0 12:0 13:33.333 14:5.5560002 15:5.5560002 16:16.667 17:22.222 18:0 19:0 20:5.5560002 #
-4 1:6.9439998 2:12.5 3:4.1669998 4:6.9439998 5:5.5560002 6:8.3330002 7:1.3890001 8:2.7780001 9:5.5560002 10:9.7220001 11:1.3890001 12:4.1669998 13:0 14:2.7780001 15:6.9439998 16:6.9439998 17:4.1669998 18:6.9439998 19:1.3890001 20:1.3890001 #
-4 1:4.1100001 2:10.959 3:0 4:5.4790001 5:10.959 6:9.5889997 7:6.849 8:4.1100001 9:4.1100001 10:6.849 11:2.74 12:5.4790001 13:0 14:2.74 15:8.2189999 16:8.2189999 17:4.1100001 18:2.74 19:0 20:2.74 #
-1.6685264975387854580191060449579 1:0 2:0 3:0 4:5.882 5:5.882 6:11.765 7:0 8:11.765 9:0 10:5.882 11:0 12:0 13:23.528999 14:5.882 15:5.882 16:0 17:0 18:17.646999 19:0 20:5.882 #
10.648341728719877608000388136134 1:6.6669998 2:13.333 3:6.6669998 4:6.6669998 5:9.3330002 6:5.3330002 7:2.6670001 8:0 9:6.6669998 10:10.667 11:1.3329999 12:5.3330002 13:1.3329999 14:2.6670001 15:8 16:1.3329999 17:6.6669998 18:4 19:1.3329999 20:0 #
-4 1:0 2:9.184 3:5.1020002 4:4.0819998 5:5.1020002 6:14.286 7:1.02 8:4.0819998 9:4.0819998 10:11.224 11:2.0409999 12:4.0819998 13:7.1430001 14:0 15:7.1430001 16:7.1430001 17:7.1430001 18:1.02 19:2.0409999 20:4.0819998 #
5.4769283724042097105666471179575 1:4.1669998 2:8.3330002 3:0 4:0 5:12.5 6:4.1669998 7:0 8:0 9:16.667 10:0 11:4.1669998 12:8.3330002 13:4.1669998 14:0 15:8.3330002 16:12.5 17:8.3330002 18:8.3330002 19:0 20:0 #
-4 1:6.494 2:10.39 3:0 4:3.8959999 5:7.7919998 6:10.39 7:5.1950002 8:2.5969999 9:5.1950002 10:5.1950002 11:3.8959999 12:3.8959999 13:2.5969999 14:0 15:10.39 16:6.494 17:6.494 18:7.7919998 19:0 20:1.299 #
