SVM-light Version V6.02
2 # kernel type
3 # kernel parameter -d 
0.005 # kernel parameter -g 
1 # kernel parameter -s 
1 # kernel parameter -r 
empty# kernel parameter -u 
20 # highest feature index 
356 # number of training documents 
262 # number of support vectors plus 1 
0.080132569 # threshold b, each following line is a SV (starting with alpha*y)
-1.0345125907992467340079656423768 1:0 2:0 3:8.3330002 4:13.889 5:0 6:2.7780001 7:0 8:0 9:2.7780001 10:0 11:0 12:0 13:2.7780001 14:27.778 15:38.889 16:0 17:0 18:0 19:2.7780001 20:0 #
-0.14565998749582595439555632310658 1:0 2:0 3:0 4:0 5:13.158 6:0 7:0 8:0 9:0 10:0 11:0 12:0 13:26.316 14:47.368 15:0 16:13.158 17:0 18:0 19:0 20:0 #
-2 1:3.2260001 2:10.753 3:2.151 4:6.4520001 5:6.4520001 6:4.3010001 7:2.151 8:5.3759999 9:12.903 10:3.2260001 11:2.151 12:4.3010001 13:4.3010001 14:2.151 15:5.3759999 16:6.4520001 17:4.3010001 18:9.677 19:1.075 20:3.2260001 #
-0.76884386553023642552062710819882 1:6.494 2:10.39 3:0 4:3.8959999 5:7.7919998 6:10.39 7:5.1950002 8:2.5969999 9:5.1950002 10:5.1950002 11:3.8959999 12:3.8959999 13:2.5969999 14:0 15:10.39 16:6.494 17:6.494 18:7.7919998 19:0 20:1.299 #
-0.28976705809012154313464293409197 1:4.5450001 2:0 3:0 4:4.5450001 5:0 6:4.5450001 7:0 8:4.5450001 9:0 10:18.181999 11:0 12:9.0909996 13:13.636 14:9.0909996 15:9.0909996 16:4.5450001 17:4.5450001 18:9.0909996 19:0 20:4.5450001 #
0.67872602097648671026774991332786 1:0 2:0 3:5.5560002 4:0 5:0 6:5.5560002 7:5.5560002 8:5.5560002 9:11.111 10:33.333 11:0 12:0 13:0 14:5.5560002 15:11.111 16:0 17:0 18:5.5560002 19:11.111 20:0 #
-0.2288082049842223020252873766367 1:16.216 2:0 3:4.0539999 4:0 5:8.1079998 6:4.0539999 7:1.351 8:6.757 9:0 10:10.811 11:2.7030001 12:1.351 13:6.757 14:2.7030001 15:1.351 16:14.865 17:5.4050002 18:9.4589996 19:0 20:4.0539999 #
0.52807244026629507338554958550958 1:3.704 2:14.815 3:5.5560002 4:1.852 5:5.5560002 6:11.111 7:5.5560002 8:0 9:9.2589998 10:1.852 11:0 12:0 13:3.704 14:7.4070001 15:3.704 16:12.963 17:1.852 18:5.5560002 19:1.852 20:3.704 #
0.86170893353358424260335368671804 1:6.6669998 2:17.778 3:2.2219999 4:0 5:2.2219999 6:6.6669998 7:0 8:0 9:13.333 10:11.111 11:0 12:6.6669998 13:4.4439998 14:2.2219999 15:8.8889999 16:8.8889999 17:4.4439998 18:2.2219999 19:0 20:2.2219999 #
-0.24272497811094545516752418734541 1:5.263 2:2.632 3:5.263 4:5.263 5:5.263 6:2.632 7:2.632 8:5.263 9:0 10:10.526 11:5.263 12:5.263 13:5.263 14:13.158 15:2.632 16:10.526 17:2.632 18:7.895 19:0 20:2.632 #
-2 1:0 2:20.690001 3:3.448 4:3.448 5:0 6:10.345 7:0 8:10.345 9:3.448 10:3.448 11:0 12:3.448 13:6.8969998 14:0 15:0 16:10.345 17:6.8969998 18:10.345 19:0 20:6.8969998 #
-2 1:4.4439998 2:17.778 3:8.8889999 4:0 5:2.2219999 6:6.6669998 7:0 8:2.2219999 9:13.333 10:11.111 11:0 12:0 13:6.6669998 14:0 15:8.8889999 16:8.8889999 17:6.6669998 18:0 19:0 20:2.2219999 #
-0.15508399277506368374446310554049 1:2.7030001 2:24.323999 3:8.1079998 4:5.4050002 5:0 6:10.811 7:0 8:0 9:2.7030001 10:0 11:5.4050002 12:10.811 13:0 14:0 15:0 16:21.622 17:2.7030001 18:0 19:2.7030001 20:2.7030001 #
2 1:5.4899998 2:1.569 3:7.059 4:9.0200005 5:7.8429999 6:3.1370001 7:3.1370001 8:4.7059999 9:7.059 10:12.157 11:0.78399998 12:3.529 13:3.1370001 14:3.529 15:4.7059999 16:9.0200005 17:3.9219999 18:6.2750001 19:1.176 20:2.7449999 #
2 1:2.5209999 2:8.4029999 3:3.3610001 4:5.882 5:4.2020001 6:11.765 7:0.83999997 8:3.3610001 9:8.4029999 10:5.0419998 11:2.5209999 12:0.83999997 13:5.882 14:8.4029999 15:7.5630002 16:6.723 17:2.5209999 18:5.0419998 19:4.2020001 20:2.5209999 #
2 1:4.5450001 2:13.636 3:6.0609999 4:9.0909996 5:4.5450001 6:1.515 7:1.515 8:4.5450001 9:10.606 10:9.0909996 11:1.515 12:4.5450001 13:4.5450001 14:4.5450001 15:1.515 16:3.03 17:7.5760002 18:6.0609999 19:0 20:1.515 #
-1.1611134876527464676598810910946 1:5.1950002 2:10.39 3:5.1950002 4:3.8959999 5:3.8959999 6:7.7919998 7:1.299 8:5.1950002 9:9.0909996 10:10.39 11:3.8959999 12:3.8959999 13:1.299 14:7.7919998 15:0 16:2.5969999 17:9.0909996 18:7.7919998 19:1.299 20:0 #
-0.96723269474486706087645870866254 1:2.6670001 2:10.667 3:2.6670001 4:5.3330002 5:6.6669998 6:6.6669998 7:0 8:5.3330002 9:8 10:10.667 11:5.3330002 12:2.6670001 13:5.3330002 14:5.3330002 15:5.3330002 16:5.3330002 17:5.3330002 18:4 19:2.6670001 20:0 #
0.30563154612116738562122009170707 1:0 2:20 3:0 4:0 5:0 6:20 7:0 8:0 9:0 10:0 11:0 12:0 13:5 14:5 15:25 16:0 17:0 18:5 19:15 20:5 #
0.06756809556828728691169061448818 1:0 2:19.355 3:3.2260001 4:3.2260001 5:0 6:9.677 7:0 8:6.4520001 9:9.677 10:3.2260001 11:0 12:0 13:6.4520001 14:0 15:0 16:16.129 17:3.2260001 18:12.903 19:3.2260001 20:3.2260001 #
2 1:3.125 2:18.75 3:3.125 4:3.125 5:3.125 6:12.5 7:0 8:6.25 9:6.25 10:3.125 11:0 12:3.125 13:6.25 14:0 15:0 16:12.5 17:3.125 18:9.375 19:0 20:6.25 #
0.10819965320523955432108209606668 1:0 2:20.690001 3:3.448 4:3.448 5:3.448 6:13.793 7:0 8:0 9:17.240999 10:3.448 11:0 12:0 13:10.345 14:0 15:0 16:3.448 17:13.793 18:0 19:0 20:6.8969998 #
-2 1:6.4520001 2:19.355 3:0 4:3.2260001 5:6.4520001 6:9.677 7:0 8:9.677 9:9.677 10:0 11:0 12:6.4520001 13:6.4520001 14:0 15:0 16:12.903 17:0 18:6.4520001 19:0 20:3.2260001 #
-2 1:6.6669998 2:17.778 3:2.2219999 4:6.6669998 5:0 6:8.8889999 7:0 8:2.2219999 9:8.8889999 10:4.4439998 11:0 12:2.2219999 13:6.6669998 14:2.2219999 15:4.4439998 16:8.8889999 17:0 18:6.6669998 19:4.4439998 20:6.6669998 #
-2 1:6.6669998 2:17.778 3:2.2219999 4:6.6669998 5:0 6:8.8889999 7:0 8:2.2219999 9:8.8889999 10:2.2219999 11:0 12:2.2219999 13:6.6669998 14:2.2219999 15:4.4439998 16:8.8889999 17:0 18:8.8889999 19:4.4439998 20:6.6669998 #
0.60230131962804178691328615968814 1:4.348 2:8.6960001 3:0 4:0 5:13.043 6:4.348 7:0 8:0 9:17.391001 10:0 11:4.348 12:4.348 13:4.348 14:0 15:8.6960001 16:13.043 17:8.6960001 18:8.6960001 19:0 20:0 #
0.2637397768911546314107852140296 1:4.1669998 2:8.3330002 3:0 4:0 5:12.5 6:4.1669998 7:0 8:0 9:16.667 10:0 11:4.1669998 12:8.3330002 13:4.1669998 14:0 15:8.3330002 16:12.5 17:8.3330002 18:8.3330002 19:0 20:0 #
2 1:12.042 2:1.571 3:5.2360001 4:2.0940001 5:6.8060002 6:10.471 7:1.571 8:5.7589998 9:5.2360001 10:10.471 11:0.52399999 12:6.8060002 13:6.283 14:2.618 15:1.0470001 16:6.8060002 17:4.7119999 18:7.3299999 19:0 20:2.618 #
0.048321706508668710311482641373004 1:6 2:16 3:4 4:6 5:4 6:6 7:8 8:0 9:8 10:2 11:0 12:10 13:2 14:6 15:4 16:6 17:4 18:0 19:6 20:2 #
-0.19777724031700721907256479425996 1:15.068 2:0 3:4.1100001 4:0 5:8.2189999 6:5.4790001 7:1.37 8:5.4790001 9:0 10:13.699 11:2.74 12:1.37 13:5.4790001 14:2.74 15:1.37 16:15.068 17:5.4790001 18:8.2189999 19:0 20:4.1100001 #
0.33054470646432970726280586859502 1:6.6669998 2:20 3:0 4:3.3329999 5:0 6:10 7:0 8:13.333 9:6.6669998 10:0 11:0 12:3.3329999 13:6.6669998 14:0 15:3.3329999 16:13.333 17:0 18:6.6669998 19:3.3329999 20:3.3329999 #
0.76019063586631607787325037861592 1:3.2260001 2:19.355 3:0 4:3.2260001 5:3.2260001 6:12.903 7:0 8:12.903 9:6.4520001 10:0 11:0 12:6.4520001 13:6.4520001 14:0 15:0 16:6.4520001 17:6.4520001 18:9.677 19:0 20:3.2260001 #
1.0550107632175080851766324485652 1:6.4520001 2:19.355 3:6.4520001 4:3.2260001 5:0 6:6.4520001 7:0 8:6.4520001 9:6.4520001 10:9.677 11:0 12:0 13:6.4520001 14:0 15:0 16:6.4520001 17:6.4520001 18:9.677 19:3.2260001 20:3.2260001 #
-2 1:3.3329999 2:20 3:0 4:3.3329999 5:3.3329999 6:16.667 7:0 8:0 9:13.333 10:0 11:0 12:6.6669998 13:6.6669998 14:0 15:0 16:6.6669998 17:6.6669998 18:10 19:3.3329999 20:0 #
-2 1:4.348 2:13.043 3:2.174 4:2.174 5:0 6:10.87 7:0 8:6.5219998 9:6.5219998 10:4.348 11:0 12:6.5219998 13:6.5219998 14:0 15:8.6960001 16:15.217 17:8.6960001 18:0 19:0 20:4.348 #
-2 1:6.6669998 2:20 3:0 4:3.3329999 5:0 6:6.6669998 7:0 8:10 9:0 10:6.6669998 11:0 12:6.6669998 13:10 14:0 15:3.3329999 16:10 17:3.3329999 18:6.6669998 19:0 20:6.6669998 #
2 1:2.9849999 2:8.9549999 3:0 4:0 5:7.4629998 6:5.9699998 7:0 8:8.9549999 9:0 10:10.448 11:2.9849999 12:1.493 13:4.4780002 14:2.9849999 15:16.417999 16:13.433 17:4.4780002 18:7.4629998 19:1.493 20:0 #
1.8976047516222291910992225894006 1:6.8969998 2:0 3:3.448 4:3.448 5:3.448 6:6.8969998 7:0 8:3.448 9:10.345 10:13.793 11:0 12:3.448 13:6.8969998 14:3.448 15:0 16:3.448 17:17.240999 18:10.345 19:0 20:3.448 #
1.3022199355507093621042713493807 1:4.2020001 2:8.4029999 3:5.0419998 4:2.5209999 5:3.3610001 6:12.605 7:0.83999997 8:5.0419998 9:4.2020001 10:7.5630002 11:1.681 12:4.2020001 13:6.723 14:8.4029999 15:6.723 16:4.2020001 17:5.882 18:2.5209999 19:4.2020001 20:1.681 #
-1.3379703523839225898228733058204 1:5.1279998 2:0 3:0 4:5.1279998 5:2.5639999 6:15.385 7:0 8:5.1279998 9:12.821 10:5.1279998 11:5.1279998 12:2.5639999 13:10.256 14:5.1279998 15:5.1279998 16:2.5639999 17:7.6919999 18:10.256 19:0 20:0 #
-0.25060316289736822570333174553525 1:5.7140002 2:0 3:2.8570001 4:5.7140002 5:14.286 6:8.5710001 7:0 8:8.5710001 9:5.7140002 10:11.429 11:2.8570001 12:0 13:8.5710001 14:0 15:5.7140002 16:2.8570001 17:5.7140002 18:8.5710001 19:0 20:2.8570001 #
-1.2926034301060391751292399931117 1:11.111 2:0 3:11.111 4:0 5:0 6:11.111 7:0 8:0 9:11.111 10:22.222 11:0 12:0 13:11.111 14:0 15:0 16:0 17:11.111 18:11.111 19:0 20:0 #
1.1460514742455942815979597071419 1:3.175 2:19.048 3:4.7620001 4:4.7620001 5:1.587 6:9.5240002 7:1.587 8:1.587 9:17.459999 10:4.7620001 11:0 12:3.175 13:4.7620001 14:0 15:4.7620001 16:11.111 17:1.587 18:1.587 19:0 20:4.7620001 #
1.3494038381612583066271326970309 1:1.923 2:15.385 3:5.7690001 4:1.923 5:3.846 6:9.6149998 7:0 8:5.7690001 9:11.538 10:0 11:1.923 12:1.923 13:5.7690001 14:0 15:11.538 16:11.538 17:7.6919999 18:0 19:0 20:3.846 #
1.4183398455136080329452852311078 1:6.4520001 2:19.355 3:0 4:3.2260001 5:3.2260001 6:12.903 7:0 8:3.2260001 9:12.903 10:3.2260001 11:0 12:3.2260001 13:9.677 14:0 15:0 16:12.903 17:3.2260001 18:0 19:0 20:6.4520001 #
-2 1:6.4520001 2:19.355 3:3.2260001 4:3.2260001 5:3.2260001 6:12.903 7:0 8:3.2260001 9:9.677 10:3.2260001 11:0 12:0 13:9.677 14:0 15:3.2260001 16:12.903 17:3.2260001 18:0 19:0 20:6.4520001 #
-2 1:4.348 2:13.043 3:4.348 4:0 5:2.174 6:13.043 7:2.174 8:6.5219998 9:8.6960001 10:2.174 11:0 12:4.348 13:4.348 14:0 15:6.5219998 16:10.87 17:10.87 18:2.174 19:2.174 20:2.174 #
-2 1:5.882 2:17.646999 3:8.8240004 4:0 5:0 6:20.587999 7:0 8:2.941 9:5.882 10:2.941 11:0 12:2.941 13:5.882 14:2.941 15:8.8240004 16:8.8240004 17:0 18:2.941 19:0 20:2.941 #
0.93482915786143927494578065306996 1:3.846 2:0 3:0 4:0 5:0 6:3.846 7:0 8:7.6919999 9:11.538 10:19.231001 11:3.846 12:7.6919999 13:3.846 14:7.6919999 15:0 16:11.538 17:11.538 18:3.846 19:0 20:3.846 #
2 1:0 2:20.690001 3:0 4:3.448 5:0 6:17.240999 7:0 8:0 9:0 10:3.448 11:0 12:6.8969998 13:10.345 14:0 15:3.448 16:3.448 17:17.240999 18:10.345 19:3.448 20:0 #
-2 1:0 2:20.690001 3:0 4:3.448 5:0 6:17.240999 7:0 8:0 9:0 10:3.448 11:0 12:6.8969998 13:10.345 14:0 15:3.448 16:0 17:20.690001 18:10.345 19:3.448 20:0 #
-2 1:0 2:20.690001 3:3.448 4:3.448 5:3.448 6:13.793 7:0 8:0 9:0 10:3.448 11:0 12:3.448 13:10.345 14:0 15:3.448 16:3.448 17:13.793 18:10.345 19:3.448 20:3.448 #
-2 1:3.3329999 2:20 3:6.6669998 4:3.3329999 5:3.3329999 6:16.667 7:0 8:0 9:0 10:0 11:0 12:6.6669998 13:13.333 14:0 15:0 16:0 17:16.667 18:6.6669998 19:3.3329999 20:0 #
2 1:2.941 2:17.646999 3:8.8240004 4:0 5:0 6:20.587999 7:0 8:5.882 9:8.8240004 10:2.941 11:0 12:2.941 13:5.882 14:0 15:8.8240004 16:8.8240004 17:0 18:2.941 19:0 20:2.941 #
1.1988281077960136755677922337782 1:10.526 2:15.789 3:0 4:0 5:2.632 6:15.789 7:0 8:5.263 9:5.263 10:0 11:0 12:7.895 13:5.263 14:5.263 15:5.263 16:10.526 17:0 18:2.632 19:0 20:7.895 #
1.2645711048153063238430604542373 1:3.3329999 2:20 3:3.3329999 4:3.3329999 5:0 6:13.333 7:0 8:6.6669998 9:10 10:6.6669998 11:0 12:3.3329999 13:6.6669998 14:0 15:6.6669998 16:6.6669998 17:6.6669998 18:0 19:0 20:3.3329999 #
-2 1:5.882 2:17.646999 3:8.8240004 4:0 5:0 6:20.587999 7:0 8:2.941 9:8.8240004 10:2.941 11:0 12:2.941 13:5.882 14:0 15:8.8240004 16:8.8240004 17:0 18:2.941 19:0 20:2.941 #
-2 1:3.3329999 2:20 3:6.6669998 4:6.6669998 5:0 6:10 7:0 8:6.6669998 9:10 10:3.3329999 11:0 12:3.3329999 13:6.6669998 14:3.3329999 15:13.333 16:3.3329999 17:0 18:0 19:0 20:3.3329999 #
0.13639949698392567212223980277486 1:4.2550001 2:17.021 3:10.638 4:4.2550001 5:6.3829999 6:4.2550001 7:4.2550001 8:0 9:6.3829999 10:6.3829999 11:0 12:8.5109997 13:2.128 14:0 15:10.638 16:4.2550001 17:8.5109997 18:0 19:2.128 20:0 #
1.8840781174145946330611423036316 1:0 2:20 3:3.3329999 4:3.3329999 5:3.3329999 6:16.667 7:3.3329999 8:0 9:0 10:3.3329999 11:0 12:6.6669998 13:13.333 14:0 15:0 16:0 17:20 18:3.3329999 19:3.3329999 20:0 #
1.4700544456569384355049123769277 1:0 2:20.690001 3:3.448 4:3.448 5:3.448 6:17.240999 7:0 8:3.448 9:0 10:3.448 11:0 12:3.448 13:10.345 14:0 15:3.448 16:3.448 17:17.240999 18:3.448 19:3.448 20:0 #
1.2330168041035902692925674273283 1:0 2:20.690001 3:0 4:3.448 5:0 6:13.793 7:0 8:0 9:0 10:3.448 11:0 12:3.448 13:10.345 14:0 15:3.448 16:6.8969998 17:17.240999 18:10.345 19:3.448 20:3.448 #
-2 1:0 2:17.391001 3:2.174 4:0 5:2.174 6:10.87 7:4.348 8:2.174 9:2.174 10:4.348 11:0 12:6.5219998 13:6.5219998 14:2.174 15:8.6960001 16:10.87 17:15.217 18:2.174 19:0 20:2.174 #
-2 1:6.25 2:16.667 3:2.0829999 4:2.0829999 5:2.0829999 6:4.1669998 7:2.0829999 8:2.0829999 9:2.0829999 10:8.3330002 11:0 12:4.1669998 13:8.3330002 14:4.1669998 15:10.417 16:6.25 17:14.583 18:2.0829999 19:0 20:2.0829999 #
1.760809254264780188137251570879 1:8.6960001 2:17.391001 3:6.5219998 4:6.5219998 5:6.5219998 6:8.6960001 7:0 8:2.174 9:10.87 10:2.174 11:0 12:2.174 13:6.5219998 14:4.348 15:6.5219998 16:4.348 17:0 18:4.348 19:2.174 20:0 #
1.7752345012877963625896882149391 1:17.778 2:8.8889999 3:2.2219999 4:0 5:0 6:12.222 7:1.1109999 8:4.4439998 9:5.5560002 10:4.4439998 11:0 12:1.1109999 13:4.4439998 14:2.2219999 15:5.5560002 16:14.444 17:5.5560002 18:6.6669998 19:0 20:3.3329999 #
1.4912778636907646490072920641978 1:6.5219998 2:17.391001 3:8.6960001 4:4.348 5:6.5219998 6:8.6960001 7:8.6960001 8:0 9:6.5219998 10:0 11:0 12:4.348 13:0 14:4.348 15:4.348 16:6.5219998 17:6.5219998 18:6.5219998 19:0 20:0 #
-0.70293970267702388099451127345674 1:12.308 2:9.2309999 3:0 4:0 5:3.0769999 6:9.2309999 7:0 8:6.1539998 9:6.1539998 10:7.6919999 11:4.6149998 12:4.6149998 13:3.0769999 14:3.0769999 15:3.0769999 16:13.846 17:0 18:7.6919999 19:0 20:6.1539998 #
-2 1:13.514 2:16.216 3:5.4050002 4:0 5:10.811 6:8.1079998 7:0 8:0 9:2.7030001 10:8.1079998 11:0 12:5.4050002 13:8.1079998 14:2.7030001 15:2.7030001 16:5.4050002 17:2.7030001 18:8.1079998 19:0 20:0 #
-2 1:13.793 2:8.6210003 3:1.724 4:0.86199999 5:0 6:8.6210003 7:0 8:4.3099999 9:6.8969998 10:7.7589998 11:5.1719999 12:6.8969998 13:6.8969998 14:1.724 15:1.724 16:7.7589998 17:8.6210003 18:6.8969998 19:0 20:1.724 #
0.66999448406580697223944298457354 1:0 2:20.690001 3:3.448 4:3.448 5:0 6:10.345 7:0 8:3.448 9:3.448 10:6.8969998 11:3.448 12:3.448 13:10.345 14:0 15:0 16:6.8969998 17:13.793 18:3.448 19:3.448 20:3.448 #
-2 1:0 2:19.355 3:3.2260001 4:6.4520001 5:6.4520001 6:16.129 7:0 8:6.4520001 9:3.2260001 10:3.2260001 11:0 12:6.4520001 13:9.677 14:0 15:3.2260001 16:3.2260001 17:6.4520001 18:3.2260001 19:3.2260001 20:0 #
-1.2332908736570904473239806975471 1:0 2:22.222 3:4.4439998 4:4.4439998 5:2.2219999 6:11.111 7:0 8:4.4439998 9:6.6669998 10:6.6669998 11:4.4439998 12:13.333 13:0 14:0 15:2.2219999 16:13.333 17:2.2219999 18:0 19:0 20:2.2219999 #
-0.89492711797347856972351110016461 1:2.7030001 2:8.1079998 3:2.7030001 4:0 5:0 6:10.811 7:2.7030001 8:10.811 9:13.514 10:5.4050002 11:2.7030001 12:2.7030001 13:2.7030001 14:5.4050002 15:18.919001 16:5.4050002 17:0 18:5.4050002 19:0 20:0 #
2 1:7.5949998 2:15.19 3:3.7969999 4:2.5320001 5:1.266 6:6.329 7:2.5320001 8:1.266 9:3.7969999 10:7.5949998 11:1.266 12:6.329 13:7.5949998 14:3.7969999 15:10.127 16:8.8610001 17:7.5949998 18:1.266 19:0 20:1.266 #
2 1:8.6020002 2:8.6020002 3:1.075 4:0 5:1.075 6:13.978 7:0 8:5.3759999 9:5.3759999 10:8.6020002 11:0 12:5.3759999 13:7.527 14:1.075 15:6.4520001 16:9.677 17:9.677 18:5.3759999 19:0 20:2.151 #
2 1:15.556 2:8.8889999 3:1.1109999 4:0 5:2.2219999 6:3.3329999 7:0 8:3.3329999 9:3.3329999 10:4.4439998 11:0 12:8.8889999 13:7.7779999 14:1.1109999 15:5.5560002 16:13.333 17:10 18:10 19:0 20:1.1109999 #
-2 1:12.245 2:8.1630001 3:0 4:0 5:0 6:8.1630001 7:0 8:4.0819998 9:8.1630001 10:2.0409999 11:0 12:6.1220002 13:6.1220002 14:4.0819998 15:10.204 16:12.245 17:6.1220002 18:2.0409999 19:0 20:10.204 #
-1.8997700175023368718285610157182 1:6.7010002 2:4.6389999 3:3.608 4:1.031 5:4.1240001 6:11.856 7:1.546 8:1.031 9:3.608 10:9.7939997 11:2.062 12:7.2160001 13:6.1859999 14:1.546 15:0.51499999 16:13.918 17:12.371 18:3.608 19:0.51499999 20:4.1240001 #
0.25633722599644648276751013327157 1:0 2:14.634 3:4.8779998 4:17.073 5:0 6:2.4389999 7:0 8:2.4389999 9:2.4389999 10:0 11:0 12:2.4389999 13:4.8779998 14:24.389999 15:14.634 16:2.4389999 17:2.4389999 18:0 19:0 20:4.8779998 #
0.90253045185820246487651274946984 1:5.7140002 2:17.143 3:0 4:2.8570001 5:8.5710001 6:34.285999 7:2.8570001 8:0 9:2.8570001 10:0 11:0 12:0 13:5.7140002 14:2.8570001 15:5.7140002 16:5.7140002 17:0 18:2.8570001 19:0 20:2.8570001 #
0.50476658529489737414763794731698 1:0 2:20 3:0 4:3.3329999 5:3.3329999 6:23.333 7:0 8:0 9:6.6669998 10:0 11:3.3329999 12:0 13:6.6669998 14:3.3329999 15:10 16:6.6669998 17:0 18:6.6669998 19:0 20:6.6669998 #
-2 1:4.2550001 2:17.021 3:4.2550001 4:4.2550001 5:2.128 6:8.5109997 7:6.3829999 8:2.128 9:6.3829999 10:4.2550001 11:2.128 12:2.128 13:2.128 14:4.2550001 15:8.5109997 16:8.5109997 17:2.128 18:4.2550001 19:2.128 20:4.2550001 #
-2 1:4.348 2:17.391001 3:2.174 4:4.348 5:8.6960001 6:13.043 7:4.348 8:0 9:4.348 10:4.348 11:0 12:6.5219998 13:0 14:2.174 15:15.217 16:6.5219998 17:2.174 18:4.348 19:0 20:0 #
-1.7231419904328950654104346540407 1:6.25 2:16.667 3:2.0829999 4:4.1669998 5:2.0829999 6:6.25 7:12.5 8:4.1669998 9:4.1669998 10:2.0829999 11:0 12:2.0829999 13:2.0829999 14:4.1669998 15:10.417 16:8.3330002 17:6.25 18:2.0829999 19:2.0829999 20:2.0829999 #
1.8195282901503295747147603833582 1:13.043 2:8.6960001 3:2.174 4:0 5:0 6:9.783 7:0 8:4.348 9:7.6090002 10:7.6090002 11:1.087 12:8.6960001 13:7.6090002 14:2.174 15:1.087 16:8.6960001 17:10.87 18:4.348 19:0 20:2.174 #
1.9831665335228041424642242418486 1:9.8900003 2:8.7910004 3:1.099 4:1.099 5:1.099 6:10.989 7:0 8:6.5929999 9:5.4949999 10:5.4949999 11:1.099 12:10.989 13:5.4949999 14:4.3959999 15:4.3959999 16:7.6919999 17:6.5929999 18:7.6919999 19:0 20:1.099 #
1.08894321164408713897842062579 1:9.0909996 2:9.0909996 3:9.0909996 4:0 5:0 6:18.181999 7:9.0909996 8:0 9:0 10:9.0909996 11:9.0909996 12:0 13:0 14:0 15:0 16:0 17:18.181999 18:0 19:0 20:9.0909996 #
-1.0558687888522670927926583317458 1:11.966 2:6.8379998 3:4.2740002 4:0.85500002 5:0 6:7.6919999 7:1.709 8:5.1279998 9:3.4189999 10:9.4020004 11:3.4189999 12:8.5469999 13:5.9829998 14:5.1279998 15:5.1279998 16:6.8379998 17:3.4189999 18:7.6919999 19:0 20:2.5639999 #
-1.5227934370800091379294372018194 1:14.286 2:8.1630001 3:0 4:2.0409999 5:2.0409999 6:12.245 7:2.0409999 8:6.1220002 9:16.327 10:2.0409999 11:0 12:16.327 13:0 14:2.0409999 15:6.1220002 16:2.0409999 17:2.0409999 18:4.0819998 19:0 20:2.0409999 #
-1.3879193434049978961297711066436 1:18.487 2:6.723 3:3.3610001 4:0 5:0 6:7.5630002 7:0.83999997 8:3.3610001 9:2.5209999 10:6.723 11:4.2020001 12:3.3610001 13:5.882 14:3.3610001 15:5.0419998 16:7.5630002 17:8.4029999 18:10.084 19:0 20:2.5209999 #
2 1:0 2:17.021 3:4.2550001 4:2.128 5:2.128 6:14.894 7:6.3829999 8:0 9:6.3829999 10:10.638 11:2.128 12:2.128 13:2.128 14:0 15:12.766 16:4.2550001 17:6.3829999 18:4.2550001 19:0 20:2.128 #
1.13940633119721401733670518297 1:7.6919999 2:23.077 3:0 4:7.6919999 5:0 6:15.385 7:0 8:0 9:0 10:0 11:0 12:7.6919999 13:0 14:7.6919999 15:15.385 16:7.6919999 17:0 18:0 19:0 20:7.6919999 #
-2 1:4.4439998 2:17.778 3:6.6669998 4:4.4439998 5:2.2219999 6:8.8889999 7:0 8:2.2219999 9:13.333 10:11.111 11:0 12:0 13:4.4439998 14:0 15:8.8889999 16:8.8889999 17:4.4439998 18:0 19:0 20:2.2219999 #
-1.1909862392769487993149368776358 1:0 2:0 3:0 4:5.5560002 5:11.111 6:27.778 7:5.5560002 8:0 9:0 10:5.5560002 11:0 12:11.111 13:0 14:16.667 15:5.5560002 16:5.5560002 17:0 18:5.5560002 19:0 20:0 #
-1.029189615971965565677237464115 1:4.651 2:9.302 3:0 4:18.605 5:0 6:6.9770002 7:2.326 8:0 9:2.326 10:2.326 11:0 12:0 13:2.326 14:9.302 15:25.580999 16:2.326 17:2.326 18:9.302 19:0 20:2.326 #
1.6455593866868283292603791778674 1:11.842 2:7.895 3:1.316 4:1.316 5:6.579 6:13.158 7:2.632 8:3.947 9:3.947 10:1.316 11:0 12:5.263 13:2.632 14:5.263 15:5.263 16:11.842 17:5.263 18:2.632 19:2.632 20:5.263 #
2 1:2.632 2:10.526 3:7.895 4:2.632 5:5.263 6:10.526 7:0 8:2.632 9:10.526 10:0 11:0 12:2.632 13:5.263 14:0 15:7.895 16:13.158 17:10.526 18:0 19:0 20:7.895 #
2 1:3.704 2:7.4070001 3:7.4070001 4:11.111 5:0 6:3.704 7:0 8:7.4070001 9:7.4070001 10:3.704 11:0 12:3.704 13:0 14:7.4070001 15:14.815 16:7.4070001 17:3.704 18:3.704 19:0 20:7.4070001 #
-1.2473311135515581238308868705644 1:6.1220002 2:8.1630001 3:6.1220002 4:8.1630001 5:0 6:6.1220002 7:6.1220002 8:8.1630001 9:6.1220002 10:4.0819998 11:0 12:6.1220002 13:4.0819998 14:2.0409999 15:8.1630001 16:6.1220002 17:8.1630001 18:0 19:0 20:6.1220002 #
-0.87243639836462627545898840253358 1:4.0819998 2:4.0819998 3:8.1630001 4:4.0819998 5:0 6:2.0409999 7:4.0819998 8:4.0819998 9:4.0819998 10:6.1220002 11:0 12:6.1220002 13:6.1220002 14:4.0819998 15:18.367001 16:12.245 17:0 18:4.0819998 19:0 20:8.1630001 #
-0.98929657396357539855813456597389 1:2.74 2:10.959 3:5.4790001 4:5.4790001 5:2.74 6:8.2189999 7:0 8:12.329 9:10.959 10:5.4790001 11:2.74 12:6.849 13:1.37 14:1.37 15:0 16:5.4790001 17:8.2189999 18:4.1100001 19:0 20:5.4790001 #
1.3470775407244577337451119092293 1:2.8570001 2:11.429 3:8.5710001 4:17.143 5:0 6:8.5710001 7:2.8570001 8:0 9:2.8570001 10:2.8570001 11:2.8570001 12:0 13:0 14:8.5710001 15:28.570999 16:0 17:0 18:0 19:2.8570001 20:0 #
1.0605875865428411319868473583483 1:0 2:23.077 3:0 4:0 5:15.385 6:15.385 7:0 8:0 9:0 10:7.6919999 11:0 12:0 13:0 14:7.6919999 15:7.6919999 16:7.6919999 17:15.385 18:0 19:0 20:0 #
1.9214512782603352381016748040565 1:3.5710001 2:21.429001 3:3.5710001 4:3.5710001 5:0 6:7.1430001 7:7.1430001 8:7.1430001 9:3.5710001 10:7.1430001 11:0 12:3.5710001 13:7.1430001 14:3.5710001 15:3.5710001 16:3.5710001 17:3.5710001 18:3.5710001 19:0 20:7.1430001 #
-0.99854415424944564794174084454426 1:15 2:0 3:15 4:10 5:0 6:10 7:0 8:5 9:0 10:10 11:0 12:15 13:10 14:5 15:0 16:0 17:0 18:5 19:0 20:0 #
0.43042990734360953020143369940342 1:0 2:15 3:5 4:5 5:5 6:5 7:5 8:0 9:5 10:5 11:0 12:10 13:5 14:0 15:15 16:15 17:5 18:0 19:0 20:0 #
1.1615773275141729747872432199074 1:0 2:0 3:5.263 4:10.526 5:0 6:5.263 7:0 8:0 9:0 10:5.263 11:0 12:10.526 13:10.526 14:15.789 15:0 16:0 17:10.526 18:15.789 19:0 20:10.526 #
-0.82091463456755964234190514616785 1:5.5560002 2:0 3:11.111 4:0 5:0 6:0 7:0 8:0 9:16.667 10:0 11:5.5560002 12:0 13:22.222 14:11.111 15:5.5560002 16:11.111 17:5.5560002 18:5.5560002 19:0 20:0 #
-1.2676191041215691956978162124869 1:17.646999 2:0 3:0 4:5.882 5:0 6:5.882 7:0 8:0 9:5.882 10:5.882 11:5.882 12:11.765 13:5.882 14:0 15:5.882 16:11.765 17:11.765 18:5.882 19:0 20:0 #
-0.92684497423240608249273009278113 1:0 2:11.111 3:11.111 4:0 5:0 6:22.222 7:0 8:11.111 9:0 10:0 11:0 12:0 13:0 14:0 15:0 16:0 17:0 18:22.222 19:0 20:22.222 #
1.2945331240507449432897146834875 1:3.3329999 2:20 3:0 4:3.3329999 5:0 6:10 7:0 8:13.333 9:6.6669998 10:0 11:0 12:6.6669998 13:6.6669998 14:0 15:3.3329999 16:13.333 17:0 18:6.6669998 19:3.3329999 20:3.3329999 #
2 1:6.6669998 2:13.333 3:6.6669998 4:6.6669998 5:9.3330002 6:5.3330002 7:2.6670001 8:0 9:6.6669998 10:10.667 11:1.3329999 12:5.3330002 13:1.3329999 14:2.6670001 15:8 16:1.3329999 17:6.6669998 18:4 19:1.3329999 20:0 #
1.0813871363824216764726315886946 1:2.632 2:15.789 3:0 4:10.526 5:5.263 6:7.895 7:0 8:5.263 9:13.158 10:0 11:2.632 12:2.632 13:2.632 14:2.632 15:2.632 16:5.263 17:7.895 18:5.263 19:0 20:7.895 #
-2 1:4 2:12 3:6.6669998 4:6.6669998 5:5.3330002 6:5.3330002 7:2.6670001 8:1.3329999 9:6.6669998 10:9.3330002 11:1.3329999 12:4 13:1.3329999 14:2.6670001 15:6.6669998 16:5.3330002 17:6.6669998 18:9.3330002 19:1.3329999 20:1.3329999 #
-0.75494718012267036932883002009476 1:2.105 2:10.526 3:3.158 4:11.579 5:3.158 6:5.263 7:2.105 8:2.105 9:11.579 10:8.4209995 11:3.158 12:3.158 13:3.158 14:2.105 15:4.211 16:9.474 17:3.158 18:7.368 19:1.053 20:3.158 #
1.6436129878464971199036881444044 1:25 2:0 3:2.5 4:0 5:7.5 6:5 7:2.5 8:2.5 9:2.5 10:7.5 11:2.5 12:12.5 13:5 14:5 15:7.5 16:5 17:5 18:2.5 19:0 20:0 #
0.99586956993453679132244360516779 1:5 2:20 3:0 4:0 5:0 6:10 7:5 8:0 9:10 10:0 11:0 12:0 13:5 14:5 15:20 16:0 17:0 18:0 19:10 20:10 #
0.85880369640790454877077308992739 1:1.613 2:1.613 3:3.2260001 4:8.0649996 5:0 6:22.580999 7:11.29 8:0 9:0 10:0 11:3.2260001 12:3.2260001 13:4.8390002 14:6.4520001 15:12.903 16:8.0649996 17:0 18:3.2260001 19:0 20:9.677 #
-1.0513145634836231767650360779953 1:0 2:0 3:0 4:4.348 5:0 6:26.087 7:8.6960001 8:0 9:0 10:0 11:0 12:8.6960001 13:13.043 14:0 15:21.739 16:4.348 17:8.6960001 18:4.348 19:0 20:0 #
-0.92101548648839226540729896441917 1:16.667 2:0 3:16.667 4:16.667 5:0 6:50 7:0 8:0 9:0 10:0 11:0 12:0 13:0 14:0 15:0 16:0 17:0 18:0 19:0 20:0 #
-0.40318147356825806415514534819522 1:5.882 2:0 3:11.765 4:0 5:5.882 6:0 7:0 8:0 9:0 10:5.882 11:5.882 12:29.412001 13:5.882 14:11.765 15:5.882 16:0 17:11.765 18:0 19:0 20:0 #
2 1:2.0409999 2:16.327 3:2.0409999 4:6.1220002 5:6.1220002 6:6.1220002 7:6.1220002 8:0 9:10.204 10:4.0819998 11:2.0409999 12:6.1220002 13:2.0409999 14:2.0409999 15:8.1630001 16:12.245 17:2.0409999 18:6.1220002 19:0 20:0 #
1.2836005969511423696616247980273 1:2.8570001 2:17.143 3:5.7140002 4:0 5:2.8570001 6:17.143 7:0 8:2.8570001 9:0 10:8.5710001 11:0 12:5.7140002 13:8.5710001 14:5.7140002 15:8.5710001 16:2.8570001 17:0 18:11.429 19:0 20:0 #
0.90726980929787426344290679480764 1:5.7690001 2:15.385 3:5.7690001 4:0 5:1.923 6:13.462 7:0 8:5.7690001 9:7.6919999 10:5.7690001 11:3.846 12:5.7690001 13:3.846 14:3.846 15:5.7690001 16:1.923 17:7.6919999 18:3.846 19:0 20:1.923 #
-1.4893141197498647176900021804613 1:0 2:15.385 3:12.821 4:0 5:0 6:12.821 7:2.5639999 8:10.256 9:5.1279998 10:5.1279998 11:0 12:7.6919999 13:5.1279998 14:5.1279998 15:5.1279998 16:5.1279998 17:5.1279998 18:2.5639999 19:0 20:0 #
-0.96294246733267829796432124567218 1:2.7030001 2:12.162 3:1.351 4:5.4050002 5:9.4589996 6:9.4589996 7:4.0539999 8:1.351 9:2.7030001 10:9.4589996 11:2.7030001 12:4.0539999 13:0 14:4.0539999 15:12.162 16:8.1079998 17:2.7030001 18:8.1079998 19:0 20:0 #
-0.92324454419407631089455890105455 1:0 2:0 3:0 4:0 5:0 6:20 7:0 8:0 9:20 10:20 11:0 12:20 13:0 14:0 15:0 16:0 17:0 18:0 19:0 20:20 #
1.1341860551488276431797430632287 1:5 2:0 3:0 4:0 5:10 6:5 7:5 8:5 9:5 10:0 11:0 12:0 13:35 14:15 15:10 16:0 17:5 18:0 19:0 20:0 #
1.1897205836391868682966332926298 1:0 2:11.765 3:0 4:0 5:11.765 6:0 7:0 8:11.765 9:23.528999 10:5.882 11:0 12:0 13:5.882 14:0 15:17.646999 16:5.882 17:0 18:0 19:5.882 20:0 #
1.0357004322970728704689236110426 1:5.7140002 2:0 3:0 4:0 5:0 6:5.7140002 7:0 8:2.8570001 9:0 10:0 11:8.5710001 12:8.5710001 13:37.143002 14:14.286 15:0 16:2.8570001 17:8.5710001 18:0 19:0 20:5.7140002 #
-0.92007094053749904905004086685949 1:0 2:47.058998 3:0 4:47.058998 5:0 6:5.882 7:0 8:0 9:0 10:0 11:0 12:0 13:0 14:0 15:0 16:0 17:0 18:0 19:0 20:0 #
-0.8337124061282440434794693828735 1:20 2:0 3:0 4:20 5:40 6:0 7:0 8:0 9:0 10:0 11:0 12:0 13:20 14:0 15:0 16:0 17:0 18:0 19:0 20:0 #
-0.91940447594438545753092739687418 1:18.462 2:0 3:0 4:18.462 5:0 6:3.0769999 7:0 8:36.923 9:20 10:0 11:0 12:0 13:3.0769999 14:0 15:0 16:0 17:0 18:0 19:0 20:0 #
1.5654529182995864378113992643193 1:3.03 2:9.0909996 3:2.02 4:11.111 5:3.03 6:5.0510001 7:3.03 8:0 9:1.01 10:7.0710001 11:7.0710001 12:2.02 13:7.0710001 14:7.0710001 15:16.162001 16:3.03 17:0 18:5.0510001 19:5.0510001 20:3.03 #
1.7591679166987839177949126678868 1:4.2550001 2:17.021 3:4.2550001 4:2.128 5:0 6:4.2550001 7:0 8:8.5109997 9:10.638 10:2.128 11:0 12:6.3829999 13:6.3829999 14:0 15:8.5109997 16:8.5109997 17:8.5109997 18:2.128 19:2.128 20:4.2550001 #
1.095222163462378661691332126793 1:10 2:20 3:20 4:0 5:10 6:20 7:0 8:0 9:0 10:20 11:0 12:0 13:0 14:0 15:0 16:0 17:0 18:0 19:0 20:0 #
-1.096622010928433921250757521193 1:4.0819998 2:2.0409999 3:6.1220002 4:8.1630001 5:2.0409999 6:2.0409999 7:6.1220002 8:4.0819998 9:6.1220002 10:8.1630001 11:4.0819998 12:0 13:4.0819998 14:0 15:16.327 16:18.367001 17:2.0409999 18:4.0819998 19:2.0409999 20:0 #
-1.0638737187660010086176498589339 1:5 2:0 3:10 4:5 5:0 6:5 7:5 8:0 9:5 10:0 11:0 12:0 13:25 14:15 15:10 16:5 17:0 18:5 19:0 20:5 #
-0.91531803601503436418340697855456 1:20 2:0 3:0 4:0 5:0 6:0 7:0 8:0 9:0 10:0 11:0 12:0 13:20 14:0 15:40 16:20 17:0 18:0 19:0 20:0 #
1.095771106297561248155147950456 1:0 2:0 3:0 4:10 5:20 6:10 7:0 8:0 9:0 10:0 11:10 12:0 13:0 14:0 15:0 16:20 17:0 18:20 19:0 20:10 #
1.0867248669171116759457618172746 1:25 2:0 3:0 4:0 5:0 6:25 7:0 8:0 9:0 10:0 11:12.5 12:0 13:0 14:12.5 15:12.5 16:0 17:0 18:12.5 19:0 20:0 #
1.0821348941832855672373625566252 1:20 2:20 3:0 4:0 5:0 6:0 7:0 8:0 9:0 10:0 11:0 12:20 13:0 14:0 15:20 16:0 17:0 18:20 19:0 20:0 #
-0.92257972298929391552491097172606 1:0 2:0 3:0 4:0 5:0 6:40 7:0 8:0 9:0 10:20 11:0 12:0 13:0 14:40 15:0 16:0 17:0 18:0 19:0 20:0 #
-0.87254945332876443497838181428961 1:0 2:0 3:0 4:0 5:0 6:12 7:0 8:0 9:24 10:4 11:12 12:0 13:0 14:4 15:32 16:4 17:4 18:4 19:0 20:0 #
-0.68551328863184213258108457011986 1:0 2:0 3:0 4:0 5:8.3330002 6:0 7:0 8:0 9:0 10:0 11:0 12:0 13:41.667 14:33.333 15:0 16:8.3330002 17:0 18:0 19:0 20:8.3330002 #
1.0653798951583111076502063951921 1:0 2:20.690001 3:0 4:3.448 5:0 6:13.793 7:3.448 8:6.8969998 9:0 10:6.8969998 11:0 12:3.448 13:3.448 14:0 15:27.586 16:3.448 17:3.448 18:3.448 19:0 20:0 #
1.0868711633962080398418947879691 1:0 2:0 3:0 4:0 5:14.286 6:14.286 7:0 8:0 9:28.570999 10:28.570999 11:0 12:0 13:0 14:0 15:0 16:0 17:0 18:14.286 19:0 20:0 #
1.0799341357090805892937623866601 1:0 2:0 3:0 4:0 5:0 6:67.857002 7:28.570999 8:0 9:0 10:0 11:0 12:0 13:0 14:0 15:0 16:0 17:0 18:0 19:0 20:3.5710001 #
-0.79895096943220766938509314059047 1:2.7780001 2:5.5560002 3:0 4:0 5:11.111 6:0 7:2.7780001 8:11.111 9:11.111 10:13.889 11:2.7780001 12:2.7780001 13:5.5560002 14:0 15:11.111 16:11.111 17:0 18:2.7780001 19:0 20:5.5560002 #
-0.90249195399546944251767399691744 1:12.5 2:0 3:0 4:0 5:12.5 6:12.5 7:0 8:0 9:12.5 10:25 11:0 12:0 13:12.5 14:0 15:0 16:0 17:12.5 18:0 19:0 20:0 #
-0.8700275028734734128477157355519 1:16.667 2:0 3:0 4:0 5:0 6:0 7:0 8:0 9:0 10:16.667 11:0 12:16.667 13:16.667 14:0 15:0 16:16.667 17:0 18:0 19:0 20:16.667 #
1.0810972728380179308516062519629 1:50 2:16.667 3:0 4:16.667 5:0 6:0 7:0 8:0 9:0 10:16.667 11:0 12:0 13:0 14:0 15:0 16:0 17:0 18:0 19:0 20:0 #
0.68992948247551977303260173357558 1:0 2:0 3:0 4:0 5:7.6919999 6:7.6919999 7:0 8:0 9:7.6919999 10:0 11:0 12:0 13:7.6919999 14:0 15:7.6919999 16:0 17:15.385 18:7.6919999 19:38.462002 20:0 #
0.69593489402516650610408532884321 1:0 2:0 3:0 4:0 5:7.6919999 6:7.6919999 7:0 8:0 9:15.385 10:0 11:0 12:0 13:7.6919999 14:0 15:7.6919999 16:0 17:7.6919999 18:7.6919999 19:38.462002 20:0 #
-0.83144423512081488958358477248112 1:0 2:20 3:0 4:0 5:0 6:20 7:0 8:0 9:0 10:20 11:0 12:20 13:0 14:0 15:0 16:20 17:0 18:0 19:0 20:0 #
-0.84508817995753882090781416991376 1:0 2:0 3:7.6919999 4:15.385 5:7.6919999 6:0 7:0 8:0 9:0 10:0 11:0 12:0 13:15.385 14:38.462002 15:0 16:15.385 17:0 18:0 19:0 20:0 #
-0.891158840400418150728967248142 1:0 2:0 3:16.667 4:0 5:0 6:16.667 7:0 8:8.3330002 9:16.667 10:8.3330002 11:0 12:8.3330002 13:16.667 14:0 15:8.3330002 16:0 17:0 18:0 19:0 20:0 #
1.0793609933212930940271689905785 1:0 2:0 3:20 4:0 5:20 6:0 7:0 8:0 9:0 10:20 11:0 12:0 13:0 14:0 15:40 16:0 17:0 18:0 19:0 20:0 #
1.0737734454662073435571301160962 1:10 2:0 3:0 4:0 5:0 6:20 7:0 8:10 9:0 10:0 11:0 12:0 13:0 14:0 15:0 16:0 17:20 18:20 19:20 20:0 #
1.0662184754266494923768959779409 1:11.111 2:0 3:22.222 4:0 5:11.111 6:11.111 7:0 8:0 9:11.111 10:11.111 11:0 12:0 13:0 14:0 15:0 16:0 17:0 18:11.111 19:11.111 20:0 #
-0.82289879700508572479833446777775 1:0 2:5.882 3:0 4:0 5:11.765 6:11.765 7:0 8:11.765 9:0 10:0 11:0 12:5.882 13:17.646999 14:0 15:5.882 16:0 17:11.765 18:5.882 19:0 20:11.765 #
-0.7476618373811981799192949438293 1:0 2:5.5560002 3:0 4:0 5:16.667 6:0 7:5.5560002 8:0 9:0 10:0 11:0 12:5.5560002 13:22.222 14:33.333 15:0 16:0 17:5.5560002 18:0 19:0 20:5.5560002 #
-0.71690560520440593794688766138279 1:28.813999 2:0 3:1.6950001 4:3.3900001 5:11.864 6:1.6950001 7:0 8:1.6950001 9:1.6950001 10:8.4750004 11:6.7800002 12:0 13:6.7800002 14:3.3900001 15:1.6950001 16:8.4750004 17:3.3900001 18:10.169 19:0 20:0 #
1.1500009225268033041800208593486 1:3.3329999 2:0 3:0 4:6.6669998 5:0 6:3.3329999 7:0 8:3.3329999 9:10 10:20 11:3.3329999 12:13.333 13:10 14:0 15:0 16:10 17:6.6669998 18:6.6669998 19:0 20:3.3329999 #
1.0466777058691680846180815933621 1:3.3329999 2:3.3329999 3:1.6670001 4:0 5:1.6670001 6:8.3330002 7:1.6670001 8:3.3329999 9:0 10:5 11:1.6670001 12:3.3329999 13:11.667 14:25 15:11.667 16:6.6669998 17:3.3329999 18:6.6669998 19:0 20:1.6670001 #
0.88868900469285294629884219830274 1:4.7620001 2:9.5240002 3:0 4:0 5:4.7620001 6:23.809999 7:0 8:4.7620001 9:4.7620001 10:9.5240002 11:4.7620001 12:4.7620001 13:0 14:19.048 15:0 16:0 17:4.7620001 18:4.7620001 19:0 20:0 #
-0.58699158967528974883975934062619 1:6.9439998 2:12.5 3:4.1669998 4:6.9439998 5:5.5560002 6:8.3330002 7:1.3890001 8:2.7780001 9:5.5560002 10:9.7220001 11:1.3890001 12:4.1669998 13:0 14:2.7780001 15:6.9439998 16:6.9439998 17:4.1669998 18:6.9439998 19:1.3890001 20:1.3890001 #
-2 1:4.348 2:13.043 3:2.174 4:0 5:2.174 6:13.043 7:2.174 8:8.6960001 9:8.6960001 10:2.174 11:0 12:4.348 13:4.348 14:0 15:6.5219998 16:10.87 17:13.043 18:0 19:2.174 20:2.174 #
-0.86469978615347853345696194082848 1:8.3330002 2:0 3:0 4:16.667 5:0 6:0 7:0 8:8.3330002 9:0 10:25 11:0 12:8.3330002 13:8.3330002 14:8.3330002 15:8.3330002 16:0 17:8.3330002 18:0 19:0 20:0 #
-0.82847571042402912144808624361758 1:11.111 2:0 3:0 4:11.111 5:33.333 6:0 7:0 8:0 9:0 10:0 11:0 12:0 13:22.222 14:0 15:11.111 16:0 17:0 18:11.111 19:0 20:0 #
0.67807581178140929889508470296278 1:7.3169999 2:19.511999 3:0 4:2.4389999 5:0 6:19.511999 7:0 8:0 9:0 10:7.3169999 11:0 12:0 13:2.4389999 14:9.7559996 15:0 16:17.073 17:7.3169999 18:0 19:0 20:7.3169999 #
0.59673541365257742885574998581433 1:0 2:20 3:0 4:0 5:0 6:20 7:0 8:0 9:0 10:0 11:0 12:0 13:5 14:5 15:30 16:0 17:0 18:0 19:15 20:5 #
0.68926414743352537595200146824936 1:0 2:20 3:3.3329999 4:10 5:3.3329999 6:13.333 7:0 8:3.3329999 9:10 10:3.3329999 11:0 12:3.3329999 13:6.6669998 14:3.3329999 15:0 16:6.6669998 17:3.3329999 18:3.3329999 19:3.3329999 20:3.3329999 #
-0.78325432834615327237770543433726 1:17.646999 2:0 3:0 4:0 5:0 6:0 7:0 8:5.882 9:0 10:11.765 11:0 12:5.882 13:5.882 14:17.646999 15:5.882 16:11.765 17:0 18:11.765 19:5.882 20:0 #
1.49642866964317677869189537887 1:9.0909996 2:9.0909996 3:6.8179998 4:0 5:2.273 6:9.0909996 7:0 8:4.5450001 9:9.0909996 10:4.5450001 11:0 12:6.8179998 13:9.0909996 14:2.273 15:9.0909996 16:9.0909996 17:4.5450001 18:2.273 19:0 20:2.273 #
-0.55929573889666761576933140531764 1:0 2:0 3:0 4:0 5:13.333 6:0 7:0 8:0 9:0 10:6.6669998 11:0 12:0 13:20 14:60 15:0 16:0 17:0 18:0 19:0 20:0 #
-0.54070367159627863440363171321223 1:2.2219999 2:28.889 3:6.6669998 4:4.4439998 5:0 6:15.556 7:0 8:0 9:4.4439998 10:0 11:2.2219999 12:8.8889999 13:0 14:0 15:0 16:22.222 17:2.2219999 18:0 19:0 20:2.2219999 #
1.1387802111145655103996432444546 1:4 2:12 3:0 4:0 5:8 6:8 7:0 8:8 9:12 10:0 11:0 12:8 13:0 14:0 15:12 16:12 17:12 18:4 19:0 20:0 #
0.96025390043263558759178977197735 1:7.0419998 2:11.268 3:2.8169999 4:5.6339998 5:4.2249999 6:7.0419998 7:2.8169999 8:2.8169999 9:8.4510002 10:2.8169999 11:1.408 12:2.8169999 13:9.8590002 14:2.8169999 15:8.4510002 16:5.6339998 17:8.4510002 18:1.408 19:1.408 20:2.8169999 #
-0.8945717779544946068881472456269 1:4.348 2:13.043 3:4.348 4:2.8989999 5:4.348 6:7.2459998 7:0 8:5.7969999 9:8.6960001 10:8.6960001 11:4.348 12:7.2459998 13:4.348 14:5.7969999 15:0 16:5.7969999 17:2.8989999 18:5.7969999 19:0 20:4.348 #
-0.88368571292638276037934019768727 1:8.1630001 2:8.1630001 3:2.0409999 4:0 5:0 6:18.367001 7:0 8:2.0409999 9:0 10:4.0819998 11:0 12:6.1220002 13:6.1220002 14:4.0819998 15:14.286 16:10.204 17:2.0409999 18:4.0819998 19:0 20:10.204 #
0.3303227303048573149091282630252 1:5.5560002 2:0 3:5.5560002 4:5.5560002 5:0 6:5.5560002 7:5.5560002 8:5.5560002 9:5.5560002 10:22.222 11:0 12:5.5560002 13:0 14:5.5560002 15:11.111 16:0 17:0 18:5.5560002 19:11.111 20:0 #
0.33964928144441025592570326807618 1:0 2:0 3:0 4:5.5560002 5:0 6:5.5560002 7:5.5560002 8:5.5560002 9:11.111 10:22.222 11:0 12:5.5560002 13:0 14:5.5560002 15:16.667 16:0 17:0 18:5.5560002 19:11.111 20:0 #
0.26121290196061203170430076170305 1:0 2:0 3:5.5560002 4:5.5560002 5:0 6:0 7:5.5560002 8:5.5560002 9:11.111 10:22.222 11:0 12:5.5560002 13:0 14:5.5560002 15:16.667 16:0 17:0 18:5.5560002 19:11.111 20:0 #
-0.52717302316543301898832396545913 1:2.7030001 2:8.1079998 3:0 4:2.7030001 5:0 6:2.7030001 7:2.7030001 8:16.216 9:10.811 10:2.7030001 11:5.4050002 12:2.7030001 13:2.7030001 14:5.4050002 15:27.027 16:5.4050002 17:0 18:2.7030001 19:0 20:0 #
-1.1399740534576807693412092703511 1:8.5710001 2:0 3:5.7140002 4:0 5:2.8570001 6:2.8570001 7:0 8:8.5710001 9:2.8570001 10:8.5710001 11:2.8570001 12:8.5710001 13:11.429 14:2.8570001 15:2.8570001 16:11.429 17:11.429 18:5.7140002 19:0 20:2.8570001 #
-0.41285417334709362258138298784615 1:2.7030001 2:8.1079998 3:2.7030001 4:0 5:0 6:5.4050002 7:2.7030001 8:13.514 9:8.1079998 10:2.7030001 11:2.7030001 12:2.7030001 13:2.7030001 14:8.1079998 15:27.027 16:2.7030001 17:0 18:5.4050002 19:0 20:2.7030001 #
0.98720252278595599371158186841058 1:1.818 2:1.818 3:3.6359999 4:9.0909996 5:0 6:25.455 7:1.818 8:0 9:0 10:0 11:1.818 12:3.6359999 13:5.4549999 14:7.2729998 15:14.545 16:9.0909996 17:0 18:3.6359999 19:0 20:10.909 #
0.62950193794136377611891930428101 1:11.364 2:22.726999 3:4.5450001 4:0 5:2.273 6:20.455 7:0 8:0 9:4.5450001 10:2.273 11:0 12:2.273 13:2.273 14:9.0909996 15:6.8179998 16:6.8179998 17:0 18:0 19:0 20:4.5450001 #
0.91761837842257198971651632746216 1:3.846 2:0 3:7.6919999 4:0 5:0 6:0 7:0 8:3.846 9:11.538 10:19.231001 11:3.846 12:3.846 13:7.6919999 14:3.846 15:0 16:11.538 17:11.538 18:7.6919999 19:0 20:3.846 #
-0.74494748142622446707150629663374 1:0 2:0 3:0 4:0 5:0 6:0 7:0 8:8.3330002 9:0 10:0 11:0 12:0 13:25 14:41.667 15:0 16:16.667 17:0 18:0 19:0 20:8.3330002 #
-0.44219284157751559405369334854186 1:5.263 2:0 3:10.526 4:0 5:0 6:0 7:0 8:5.263 9:0 10:15.789 11:0 12:31.579 13:5.263 14:10.526 15:5.263 16:5.263 17:5.263 18:0 19:0 20:0 #
-0.68788957931740168927348122451804 1:0 2:0 3:0 4:0 5:10 6:0 7:0 8:0 9:0 10:0 11:0 12:0 13:15 14:60 15:0 16:15 17:0 18:0 19:0 20:0 #
0.67181883137621545287743174412753 1:2.174 2:17.391001 3:2.174 4:2.174 5:0 6:13.043 7:2.174 8:6.5219998 9:10.87 10:4.348 11:4.348 12:6.5219998 13:0 14:0 15:6.5219998 16:2.174 17:10.87 18:2.174 19:2.174 20:4.348 #
1.094031648185193050792918256775 1:9.375 2:18.75 3:0 4:6.25 5:0 6:6.25 7:3.125 8:9.375 9:6.25 10:3.125 11:0 12:0 13:6.25 14:0 15:3.125 16:6.25 17:6.25 18:9.375 19:3.125 20:3.125 #
0.69559427618631863854403718505637 1:6.1220002 2:16.327 3:2.0409999 4:4.0819998 5:4.0819998 6:10.204 7:6.1220002 8:0 9:6.1220002 10:4.0819998 11:0 12:12.245 13:0 14:2.0409999 15:6.1220002 16:4.0819998 17:8.1630001 18:0 19:6.1220002 20:2.0409999 #
-0.60817994925313423326684869607561 1:2.174 2:10.87 3:5.4349999 4:2.174 5:6.5219998 6:4.348 7:2.174 8:4.348 9:10.87 10:6.5219998 11:3.2609999 12:5.4349999 13:4.348 14:4.348 15:8.6960001 16:1.087 17:4.348 18:8.6960001 19:0 20:4.348 #
0.014223264265499663272507291367219 1:0 2:21.429001 3:3.5710001 4:0 5:0 6:3.5710001 7:3.5710001 8:7.1430001 9:10.714 10:7.1430001 11:0 12:7.1430001 13:10.714 14:0 15:3.5710001 16:3.5710001 17:3.5710001 18:7.1430001 19:0 20:7.1430001 #
-0.60712749025717416273550952610094 1:15.19 2:10.127 3:0 4:5.0630002 5:7.5949998 6:6.329 7:2.5320001 8:3.7969999 9:5.0630002 10:6.329 11:1.266 12:6.329 13:3.7969999 14:2.5320001 15:2.5320001 16:6.329 17:2.5320001 18:8.8610001 19:1.266 20:2.5320001 #
0.57575581474695225470128434608341 1:0 2:5.9699998 3:4.4780002 4:23.881001 5:0 6:0 7:2.9849999 8:0 9:8.9549999 10:0 11:2.9849999 12:0 13:2.9849999 14:20.896 15:17.91 16:0 17:2.9849999 18:0 19:0 20:5.9699998 #
0.74668128941987743640851249438128 1:0 2:14.634 3:7.3169999 4:4.8779998 5:4.8779998 6:12.195 7:2.4389999 8:2.4389999 9:17.073 10:2.4389999 11:0 12:2.4389999 13:0 14:2.4389999 15:2.4389999 16:9.7559996 17:0 18:7.3169999 19:0 20:7.3169999 #
0.59441357559303986679566378370509 1:16.667 2:13.333 3:0 4:0 5:0 6:16.667 7:0 8:6.6669998 9:0 10:3.3329999 11:0 12:0 13:6.6669998 14:6.6669998 15:3.3329999 16:20 17:0 18:3.3329999 19:0 20:3.3329999 #
-0.42329739695112039710167550765618 1:0 2:0 3:0 4:0 5:22.222 6:0 7:0 8:0 9:0 10:0 11:0 12:0 13:33.333 14:44.444 15:0 16:0 17:0 18:0 19:0 20:0 #
-0.3771889318460276974143141615059 1:0 2:0 3:0 4:0 5:11.111 6:0 7:0 8:0 9:0 10:0 11:0 12:0 13:33.333 14:55.556 15:0 16:0 17:0 18:0 19:0 20:0 #
1.1234191211806427990183010479086 1:0 2:19.355 3:0 4:3.2260001 5:3.2260001 6:9.677 7:0 8:9.677 9:6.4520001 10:6.4520001 11:0 12:6.4520001 13:6.4520001 14:0 15:3.2260001 16:9.677 17:3.2260001 18:9.677 19:0 20:3.2260001 #
1.12962878697101176683759149455 1:6.4520001 2:19.355 3:3.2260001 4:3.2260001 5:0 6:6.4520001 7:0 8:3.2260001 9:6.4520001 10:9.677 11:0 12:3.2260001 13:6.4520001 14:0 15:0 16:6.4520001 17:6.4520001 18:12.903 19:3.2260001 20:3.2260001 #
0.44424024197664502278115605804487 1:0 2:18.181999 3:3.03 4:6.0609999 5:6.0609999 6:21.212 7:0 8:3.03 9:6.0609999 10:6.0609999 11:0 12:3.03 13:0 14:0 15:0 16:6.0609999 17:12.121 18:0 19:3.03 20:6.0609999 #
0.41302231181564297290975673604407 1:0 2:19.355 3:3.2260001 4:3.2260001 5:0 6:12.903 7:0 8:0 9:6.4520001 10:9.677 11:0 12:6.4520001 13:0 14:0 15:3.2260001 16:3.2260001 17:19.355 18:6.4520001 19:0 20:6.4520001 #
-0.44637683731173993795238175152917 1:12.5 2:0 3:2.0829999 4:2.0829999 5:4.1669998 6:0 7:2.0829999 8:0 9:6.25 10:12.5 11:6.25 12:10.417 13:2.0829999 14:10.417 15:8.3330002 16:2.0829999 17:4.1669998 18:8.3330002 19:0 20:6.25 #
-0.53686023482978206811111476781662 1:4 2:0 3:2 4:4 5:2 6:6 7:4 8:4 9:4 10:16 11:4 12:2 13:6 14:6 15:6 16:4 17:0 18:10 19:4 20:12 #
-0.44256388332645746341853509875364 1:4.348 2:13.043 3:0 4:2.174 5:0 6:6.5219998 7:0 8:6.5219998 9:8.6960001 10:4.348 11:0 12:6.5219998 13:6.5219998 14:0 15:6.5219998 16:17.391001 17:13.043 18:0 19:0 20:4.348 #
0.93736904517925645485831864789361 1:3.3329999 2:20 3:0 4:3.3329999 5:0 6:10 7:0 8:6.6669998 9:6.6669998 10:3.3329999 11:0 12:3.3329999 13:6.6669998 14:0 15:3.3329999 16:13.333 17:3.3329999 18:10 19:0 20:6.6669998 #
0.31922092071475643981770531354414 1:3.2260001 2:19.355 3:3.2260001 4:3.2260001 5:6.4520001 6:9.677 7:0 8:3.2260001 9:9.677 10:6.4520001 11:0 12:3.2260001 13:6.4520001 14:0 15:0 16:6.4520001 17:6.4520001 18:9.677 19:0 20:3.2260001 #
0.562448465952669285350395966816 1:2.273 2:18.181999 3:4.5450001 4:0 5:2.273 6:18.181999 7:2.273 8:2.273 9:11.364 10:2.273 11:0 12:0 13:13.636 14:2.273 15:0 16:6.8179998 17:2.273 18:2.273 19:0 20:9.0909996 #
0.36247533764516792764709407492774 1:10 2:15 3:5 4:5 5:10 6:5 7:0 8:0 9:5 10:5 11:0 12:10 13:5 14:0 15:5 16:5 17:15 18:0 19:0 20:0 #
-0.28312399885879796501697569510725 1:12 2:8 3:0 4:0 5:0 6:8 7:0 8:6 9:0 10:2 11:0 12:6 13:4 14:2 15:24 16:12 17:6 18:0 19:0 20:10 #
-0.30893437147867591763272798743856 1:5.263 2:0 3:0 4:0 5:10.526 6:5.263 7:0 8:0 9:0 10:5.263 11:0 12:0 13:31.579 14:36.841999 15:0 16:0 17:0 18:0 19:0 20:5.263 #
1.1346221625574000047009803893161 1:6.6669998 2:17.778 3:0 4:0 5:2.2219999 6:11.111 7:0 8:2.2219999 9:11.111 10:8.8889999 11:0 12:4.4439998 13:4.4439998 14:2.2219999 15:11.111 16:11.111 17:2.2219999 18:2.2219999 19:0 20:2.2219999 #
-0.2671219353552058972667282432667 1:4.651 2:10.465 3:5.8140001 4:1.163 5:5.8140001 6:4.651 7:1.163 8:1.163 9:8.1400003 10:12.791 11:3.4879999 12:5.8140001 13:5.8140001 14:1.163 15:2.326 16:12.791 17:5.8140001 18:4.651 19:1.163 20:1.163 #
-0.43467086840217039611644622709719 1:4.1100001 2:10.959 3:0 4:5.4790001 5:10.959 6:9.5889997 7:6.849 8:4.1100001 9:4.1100001 10:6.849 11:2.74 12:5.4790001 13:0 14:2.74 15:8.2189999 16:8.2189999 17:4.1100001 18:2.74 19:0 20:2.74 #
-0.67682504541828758526378351234598 1:5.4349999 2:8.6960001 3:5.4349999 4:2.174 5:2.174 6:5.4349999 7:2.174 8:4.348 9:5.4349999 10:14.13 11:2.174 12:3.2609999 13:6.5219998 14:5.4349999 15:6.5219998 16:10.87 17:2.174 18:3.2609999 19:3.2609999 20:1.087 #
0.42996268961673173025772598521144 1:0 2:11.429 3:5.7140002 4:14.286 5:0 6:0 7:2.8570001 8:0 9:2.8570001 10:2.8570001 11:0 12:0 13:5.7140002 14:28.570999 15:20 16:0 17:0 18:0 19:0 20:5.7140002 #
0.57956951187811034387209474516567 1:0 2:8.5109997 3:2.128 4:12.766 5:0 6:0 7:2.128 8:2.128 9:10.638 10:0 11:2.128 12:0 13:4.2550001 14:25.532 15:23.403999 16:0 17:2.128 18:0 19:0 20:4.2550001 #
-0.41499005223974683165266696960316 1:6.25 2:0 3:12.5 4:0 5:0 6:0 7:0 8:0 9:0 10:12.5 11:0 12:37.5 13:6.25 14:12.5 15:6.25 16:0 17:6.25 18:0 19:0 20:0 #
-0.20294735999156288119849023132701 1:2.2219999 2:28.889 3:4.4439998 4:4.4439998 5:0 6:13.333 7:0 8:0 9:6.6669998 10:0 11:2.2219999 12:13.333 13:0 14:0 15:0 16:22.222 17:0 18:0 19:0 20:2.2219999 #
-0.32097371358853421519086168700596 1:26.23 2:1.6390001 3:0 4:4.9180002 5:3.279 6:8.1969995 7:1.6390001 8:1.6390001 9:3.279 10:11.475 11:6.5570002 12:0 13:6.5570002 14:0 15:0 16:11.475 17:1.6390001 18:8.1969995 19:0 20:3.279 #
-0.62684191184729720625057325378293 1:11.688 2:7.7919998 3:6.494 4:0 5:6.494 6:7.7919998 7:1.299 8:5.1950002 9:3.8959999 10:6.494 11:3.8959999 12:0 13:3.8959999 14:9.0909996 15:2.5969999 16:2.5969999 17:9.0909996 18:7.7919998 19:1.299 20:2.5969999 #
0.32494833499108266572363845625659 1:0 2:16.216 3:0 4:2.7030001 5:2.7030001 6:21.622 7:0 8:2.7030001 9:2.7030001 10:2.7030001 11:0 12:10.811 13:8.1079998 14:8.1079998 15:8.1079998 16:2.7030001 17:0 18:2.7030001 19:0 20:8.1079998 #
0.34978998045220344170758153268252 1:7.3169999 2:19.511999 3:0 4:0 5:0 6:17.073 7:0 8:0 9:0 10:4.8779998 11:0 12:2.4389999 13:0 14:14.634 15:9.7559996 16:14.634 17:2.4389999 18:0 19:2.4389999 20:4.8779998 #
-0.32651227934472726310843881947221 1:5.0630002 2:3.7969999 3:2.5320001 4:11.392 5:2.5320001 6:5.0630002 7:2.5320001 8:7.5949998 9:5.0630002 10:11.392 11:2.5320001 12:3.7969999 13:2.5320001 14:1.266 15:5.0630002 16:6.329 17:13.924 18:3.7969999 19:0 20:3.7969999 #
-0.55154042610803277746356343413936 1:6.0609999 2:0 3:0 4:6.0609999 5:15.152 6:3.03 7:0 8:9.0909996 9:9.0909996 10:12.121 11:3.03 12:0 13:9.0909996 14:0 15:3.03 16:3.03 17:9.0909996 18:9.0909996 19:0 20:3.03 #
0.40997459637700395251869167623227 1:7.1430001 2:19.048 3:7.1430001 4:2.381 5:2.381 6:11.905 7:2.381 8:7.1430001 9:14.286 10:2.381 11:4.7620001 12:4.7620001 13:4.7620001 14:0 15:0 16:0 17:7.1430001 18:2.381 19:0 20:0 #
0.61446099015943778098858274461236 1:0 2:21.429001 3:3.5710001 4:3.5710001 5:3.5710001 6:10.714 7:0 8:10.714 9:7.1430001 10:0 11:3.5710001 12:0 13:7.1430001 14:0 15:0 16:14.286 17:0 18:7.1430001 19:3.5710001 20:3.5710001 #
-0.34379300184216932123604237858672 1:10 2:0 3:10 4:0 5:5 6:0 7:0 8:0 9:0 10:10 11:5 12:25 13:5 14:10 15:5 16:0 17:10 18:5 19:0 20:0 #
-0.070567551485861426674439655926108 1:10.526 2:0 3:10.526 4:0 5:0 6:0 7:0 8:0 9:0 10:10.526 11:5.263 12:26.316 13:5.263 14:10.526 15:5.263 16:0 17:10.526 18:5.263 19:0 20:0 #
-0.2604806923023731957123061420134 1:4.0819998 2:8.1630001 3:6.1220002 4:2.0409999 5:0 6:6.1220002 7:0 8:6.1220002 9:0 10:2.0409999 11:2.0409999 12:6.1220002 13:6.1220002 14:2.0409999 15:16.327 16:6.1220002 17:10.204 18:6.1220002 19:0 20:10.204 #
-0.26908996372541971187075660054688 1:6.0609999 2:9.0909996 3:1.01 4:3.03 5:1.01 6:5.0510001 7:0 8:3.03 9:10.101 10:7.0710001 11:5.0510001 12:6.0609999 13:8.0810003 14:2.02 15:0 16:10.101 17:6.0609999 18:14.141 19:0 20:3.03 #
0.13361798837748944945857942911971 1:0 2:8.1630001 3:12.245 4:16.327 5:4.0819998 6:2.0409999 7:0 8:2.0409999 9:6.1220002 10:2.0409999 11:4.0819998 12:2.0409999 13:0 14:12.245 15:10.204 16:8.1630001 17:2.0409999 18:2.0409999 19:2.0409999 20:4.0819998 #
0.42639509150595156228291671141051 1:5.5560002 2:0 3:5.5560002 4:5.5560002 5:0 6:5.5560002 7:5.5560002 8:5.5560002 9:11.111 10:22.222 11:0 12:5.5560002 13:0 14:5.5560002 15:5.5560002 16:0 17:0 18:5.5560002 19:11.111 20:0 #
-0.2009771632206396319020313967485 1:0 2:0 3:0 4:0 5:11.765 6:0 7:0 8:0 9:0 10:0 11:0 12:0 13:29.412001 14:47.058998 15:0 16:0 17:0 18:5.882 19:5.882 20:0 #
-0.2912248140102326465772364372242 1:3.175 2:9.5240002 3:1.587 4:4.7620001 5:6.349 6:4.7620001 7:0 8:4.7620001 9:9.5240002 10:6.349 11:7.9369998 12:14.286 13:4.7620001 14:0 15:7.9369998 16:3.175 17:1.587 18:7.9369998 19:1.587 20:0 #
-1.4660677696268265002288444520673 1:10.204 2:8.1630001 3:4.0819998 4:2.0409999 5:0 6:16.327 7:0 8:4.0819998 9:0 10:2.0409999 11:0 12:4.0819998 13:6.1220002 14:6.1220002 15:10.204 16:12.245 17:2.0409999 18:2.0409999 19:0 20:10.204 #
-0.85419626643854806857802941522095 1:4.4439998 2:8.8889999 3:0 4:17.778 5:0 6:6.6669998 7:2.2219999 8:0 9:2.2219999 10:2.2219999 11:0 12:0 13:4.4439998 14:8.8889999 15:26.667 16:2.2219999 17:2.2219999 18:8.8889999 19:0 20:2.2219999 #
-0.13395428439344353455098257654754 1:5.263 2:0 3:0 4:0 5:10.526 6:5.263 7:0 8:0 9:0 10:0 11:0 12:0 13:36.841999 14:36.841999 15:0 16:0 17:0 18:0 19:0 20:5.263 #
1.0603181157985279714495163716492 1:0 2:10.526 3:5.263 4:5.263 5:5.263 6:5.263 7:5.263 8:0 9:5.263 10:5.263 11:0 12:10.526 13:5.263 14:0 15:15.789 16:15.789 17:5.263 18:0 19:0 20:0 #
-0.82358242240872858719313853725907 1:2.5969999 2:10.39 3:3.8959999 4:3.8959999 5:3.8959999 6:6.494 7:0 8:5.1950002 9:12.987 10:7.7919998 11:5.1950002 12:3.8959999 13:2.5969999 14:3.8959999 15:2.5969999 16:5.1950002 17:10.39 18:5.1950002 19:1.299 20:2.5969999 #
0.55846469688781330553695170237916 1:0 2:20.690001 3:0 4:3.448 5:0 6:17.240999 7:0 8:0 9:0 10:3.448 11:0 12:6.8969998 13:10.345 14:0 15:3.448 16:3.448 17:17.240999 18:10.345 19:3.448 20:0 #
-0.16823545991829516599302962731599 1:4.348 2:5.7969999 3:4.348 4:8.6960001 5:8.6960001 6:1.449 7:1.449 8:10.145 9:5.7969999 10:15.942 11:5.7969999 12:0 13:8.6960001 14:1.449 15:1.449 16:4.348 17:5.7969999 18:4.348 19:0 20:1.449 #
-0.15929922929962314626095576386433 1:8.1630001 2:8.1630001 3:0 4:0 5:0 6:10.204 7:0 8:4.0819998 9:0 10:2.0409999 11:0 12:8.1630001 13:6.1220002 14:8.1630001 15:16.327 16:8.1630001 17:8.1630001 18:2.0409999 19:0 20:10.204 #
-0.076181149436113787531965613197826 1:12.245 2:8.1630001 3:0 4:0 5:0 6:8.1630001 7:0 8:4.0819998 9:8.1630001 10:2.0409999 11:0 12:6.1220002 13:6.1220002 14:4.0819998 15:10.204 16:14.286 17:4.0819998 18:2.0409999 19:0 20:10.204 #
0.87579068561933959280452199891442 1:9.2309999 2:18.462 3:1.538 4:1.538 5:0 6:9.2309999 7:3.0769999 8:1.538 9:6.1539998 10:4.6149998 11:0 12:4.6149998 13:7.6919999 14:0 15:10.769 16:7.6919999 17:9.2309999 18:1.538 19:0 20:3.0769999 #
-0.60294009704387174775064295317861 1:9.302 2:0 3:4.651 4:6.9770002 5:9.302 6:9.302 7:2.326 8:6.9770002 9:0 10:11.628 11:2.326 12:0 13:4.651 14:6.9770002 15:2.326 16:6.9770002 17:9.302 18:2.326 19:0 20:4.651 #
0.073298980868208879480008022255788 1:6.8969998 2:20.690001 3:3.448 4:3.448 5:3.448 6:10.345 7:0 8:0 9:3.448 10:10.345 11:0 12:3.448 13:3.448 14:0 15:0 16:6.8969998 17:13.793 18:6.8969998 19:0 20:3.448 #
-0.15948094612136221037701488967286 1:1.087 2:10.87 3:5.4349999 4:4.348 5:4.348 6:7.6090002 7:1.087 8:4.348 9:10.87 10:7.6090002 11:4.348 12:2.174 13:6.5219998 14:2.174 15:5.4349999 16:5.4349999 17:4.348 18:7.6090002 19:2.174 20:2.174 #
-0.65665784122797055122333631516085 1:4.348 2:0 3:0 4:4.348 5:0 6:4.348 7:0 8:4.348 9:0 10:21.739 11:0 12:8.6960001 13:13.043 14:8.6960001 15:8.6960001 16:4.348 17:4.348 18:8.6960001 19:0 20:4.348 #
0.070990193522756150912300654454157 1:8.3330002 2:25 3:0 4:8.3330002 5:0 6:16.667 7:0 8:0 9:0 10:0 11:0 12:8.3330002 13:0 14:8.3330002 15:8.3330002 16:8.3330002 17:0 18:0 19:0 20:8.3330002 #
-0.39355143836970168935707192758855 1:9.302 2:0 3:4.651 4:6.9770002 5:9.302 6:9.302 7:2.326 8:2.326 9:0 10:13.953 11:2.326 12:0 13:4.651 14:6.9770002 15:2.326 16:6.9770002 17:9.302 18:4.651 19:0 20:4.651 #
-0.091290092990112842175065566152625 1:4.0539999 2:10.811 3:5.4050002 4:2.7030001 5:8.1079998 6:6.757 7:1.351 8:9.4589996 9:8.1079998 10:4.0539999 11:4.0539999 12:2.7030001 13:4.0539999 14:0 15:0 16:10.811 17:6.757 18:6.757 19:1.351 20:2.7030001 #
0.12072824294956696622449499045615 1:0 2:0 3:5.5560002 4:5.5560002 5:0 6:5.5560002 7:5.5560002 8:0 9:11.111 10:22.222 11:0 12:5.5560002 13:0 14:5.5560002 15:16.667 16:0 17:0 18:5.5560002 19:11.111 20:0 #
-0.016333512545092097878463022198048 1:6.1220002 2:8.1630001 3:2.0409999 4:0 5:0 6:18.367001 7:2.0409999 8:4.0819998 9:0 10:2.0409999 11:0 12:6.1220002 13:6.1220002 14:2.0409999 15:18.367001 16:8.1630001 17:2.0409999 18:2.0409999 19:0 20:12.245 #
